
\data\
ngram 1=235
ngram 2=1491
ngram 3=2955

\1-grams:
-1.265066	</s>
-99	<s>	-1.130092
-2.219896	<Air_Conditioner,thermostat,auto>	-0.251812
-2.698343	<Air_Conditioner,thermostat,decreased>	-0.138522
-2.698343	<Air_Conditioner,thermostat,increased>	-0.153162
-2.329230	<Air_Conditioner,thermostat,off>	-0.197448
-3.207297	<Air_Conditioner-Electric_Blanket-Robot_Vacuum-Oil_Warmer,thermostat-switch-switch-switch,off-off-off-off>	-0.112829
-3.207297	<Air_Conditioner-Fan,thermostat-switch,auto-on>	-0.112829
-3.207297	<Air_Conditioner-Fan,thermostat-switch,off-off>	-0.112829
-3.207297	<Air_Conditioner-Fan-Light_Bulb,thermostat-switch-switch,off-off-off>	-0.112829
-3.207297	<Air_Conditioner-Heater,thermostat-switch,off-off>	-0.112829
-3.207297	<Air_Conditioner-Light_Bulb,thermostat-colorValue,auto-fixed_value>	-0.112829
-3.207297	<Air_Conditioner-Light_Bulb,thermostat-switch,auto-on>	-0.112829
-3.207297	<Air_Conditioner-Oil_Warmer-Robot_Vacuum-Smart_TV,thermostat-switch-switch-switch,auto-on-on-on>	-0.112829
-3.207297	<Air_Conditioner-Refrigerator-Water_Heater,thermostat-thermostat-switch,off-decreased-off>	-0.112829
-3.207297	<Air_Conditioner-Security_Camera,thermostat-switch,off-on>	-0.112829
-3.207297	<Air_Conditioner-Shades/Blinds,thermostat-contact,decreased-closed>	-0.112829
-2.396319	<Air_Conditioner-Temperature_Sensor,thermostat-temperature,auto-greater>	-0.784900
-2.219896	<Air_Conditioner-Temperature_Sensor,thermostat-temperature,auto-lesser>	-0.960991
-2.475699	<Air_Conditioner-null,thermostat-time,auto-morning>	-0.705719
-2.329230	<Air_Conditioner-null,thermostat-time,auto-night>	-0.851847
-2.396319	<Air_Conditioner-null,thermostat-time,off-evening>	-0.784900
-3.207297	<Air_Cooler,switch,on>	-0.112829
-3.207297	<Air_Cooler-Audio_Player-Phone-Shades/Blinds,switch-switch-notification-contact,off-on-notify-opened>	-0.112829
-2.132626	<Air_Purifier,airQuality,greater>	-1.048141
-1.655144	<Air_Purifier,airQuality,lesser>	-1.525262
-3.207297	<Air_Purifier,switch,off>	-0.112829
-3.207297	<Air_Purifier,switch,on>	-0.112829
-3.207297	<Air_Purifier-Light_Bulb,switch-switch,off-off>	-0.112829
-3.207297	<Audio_Player,mute,muted>	-0.112829
-2.742018	<Audio_Player,switch,off>	-0.163570
-3.207297	<Audio_Player,switch,on>	-0.112829
-3.207297	<Audio_Player,volume,decreased>	-0.112829
-2.742018	<Audio_Player-Light_Bulb-Phone,switch-colorValue-notification,on-fixed_value-notify>	-0.346837
-3.207297	<Audio_Player-Light_Bulb-Phone-Shades/Blinds,switch-switch-notification-contact,on-on-notify-closed>	-0.112829
-2.572907	<Audio_Player-null,switch-time,on-night>	-0.608809
-2.271132	<Beacon_Device,presence,not_present>	-0.646814
-2.027775	<Beacon_Device,presence,present>	-0.812928
-2.475699	<Beacon_Device-Light_Bulb,presence-switch,not_present-on>	-0.705719
-2.396319	<Beacon_Device-Light_Bulb,presence-switch,present-off>	-0.784900
-2.698343	<Beacon_Device-null,presence-time,present-evening>	-0.483870
-2.396319	<Blood_Pressure_Monitor,pressure,greater>	-0.521875
-2.475699	<Blood_Pressure_Monitor,pressure,lesser>	-0.483870
-3.207297	<Bread_Maker,switch,on>	-0.112829
-3.207297	<Bread_Maker-Light_Bulb-Thermostat,switch-switch-thermostat,off-on-increased>	-0.112829
-3.207297	<Bread_Maker-Light_Bulb-Thermostat,switch-switch-thermostat,on-off-decreased>	-0.112829
-2.475699	<Bread_Maker-null,switch-time,off-morning>	-0.705719
-2.174073	<Button,button,pushed>	-0.733747
-2.475699	<Button-Car_Automation,button-presence,pushed-present>	-0.705719
-2.271132	<CO_Detector,carbonMonoxide,detected>	-0.508834
-2.572907	<CO_Detector-Gas_Sensor,alarm-alarm,siren-siren>	-0.608809
-2.698343	<CO_Detector-Gas_Sensor,carbonMonoxide-odorLevel,detected-greater>	-0.483870
-2.475699	<CO_Detector-null,carbonMonoxide-locationMode,detected-not_vacation>	-0.705719
-2.396319	<CO_Detector-null,carbonMonoxide-locationMode,detected-vacation>	-0.784900
-2.396319	<Car_Automation,presence,present>	-0.784900
-3.207297	<Car_Automation-Garage_Door_Opener,switch-contact,on-opened>	-0.112829
-2.572907	<Clothes_Dryer,completion,true>	-0.608809
-3.207297	<Clothes_Dryer,mode,ready>	-0.112829
-3.207297	<Coffee_Maker,switch,off>	-0.112829
-2.742018	<Coffee_Maker,switch,on>	-0.112829
-2.572907	<Coffee_Maker,temperature,greater>	-0.608809
-3.207297	<Coffee_Maker-Door_Lock-Garage_Door_Opener-Gas_Stove-Light_Bulb-Shades/Blinds-Smart_TV-Speaker,switch-lock-contact-switch-switch-contact-switch-switch,off-locked-closed-off-off-closed-off-off>	-0.112829
-3.207297	<Coffee_Maker-Light_Bulb-Robot_Vacuum,switch-switch-switch,on-on-on>	-0.112829
-3.207297	<Coffee_Maker-Light_Bulb-Thermostat,switch-colorValue-thermostat,on-fixed_value-increased>	-0.112829
-3.207297	<Coffee_Maker-Shades/Blinds,switch-contact,on-opened>	-0.112829
-2.329230	<Coffee_Maker-null,switch-time,off-morning>	-0.851847
-2.271132	<Contact_Sensor,contact,opened>	-0.909839
-2.572907	<Contact_Sensor-null,contact-time,opened-night>	-0.608809
-3.207297	<Dishwasher,mode,ready>	-0.112829
-2.271132	<Dishwasher,weight,greater>	-0.909839
-2.475699	<Door_Lock,lock,locked>	-0.256753
-3.207297	<Door_Lock-Light_Bulb-Phone-Shades/Blinds-Smart_TV-Speaker,lock-colorValue-notification-contact-switch-volume,locked-fixed_value-notify-opened-on-fixed_value>	-0.112829
-3.207297	<Door_Lock-Lighting_Remote-Robot_Vacuum-Thermostat,lock-switch-switch-thermostat,locked-off-on-auto>	-0.112829
-3.207297	<Door_Lock-Phone-Shades/Blinds,lock-notification-contact,locked-notify-closed>	-0.112829
-2.329230	<Door_Lock-Presence_Sensor-null,lock-presence-time,unlocked-not_present-night>	-0.851847
-2.329230	<Door_Lock-null,lock-locationMode,unlocked-away>	-0.851847
-2.396319	<Door_Lock-null,lock-time,unlocked-night>	-0.784900
-2.094792	<Door_Sensor,contact,opened>	-0.851847
-2.059992	<Door_Sensor-null,contact-locationMode,opened-away>	-0.851847
-2.698343	<Door_Sensor-null,contact-locationMode,opened-vacation>	-0.483870
-2.271132	<Door_Sensor-null,contact-time,opened-morning>	-0.909839
-2.698343	<Door_Sensor-null-null,contact-locationMode-time,opened-away-evening>	-0.483870
-1.943379	<Doorbell,button,pushed>	-0.984472
-2.475699	<Dust_Detector,dust,greater>	-0.705719
-2.698343	<Electric_Blanket,switch,on>	-0.212277
-2.396319	<Energy_Meter,energy,greater>	-0.784900
-3.207297	<External_API,news,notify>	-0.112829
-3.207297	<External_API,traffic,notify>	-0.112829
-2.698343	<External_API-null,traffic-time,heavy-morning>	-0.483870
-3.207297	<Fan,switch,on>	-0.112829
-2.742018	<Garage_Door_Opener,contact,closed>	-0.148148
-2.698343	<Garage_Door_Opener,contact,opened>	-0.186747
-2.396319	<Garage_Door_Opener,signalStrength,lesser>	-0.784900
-2.396319	<Garage_Door_Opener-null,contact-locationMode,opened-away>	-0.784900
-3.207297	<Garden_Sprinkler,switch,on>	-0.112829
-1.918536	<Gas_Sensor,odorLevel,greater>	-1.262021
-2.174073	<Gas_Sensor,odorLevel,lesser>	-1.006749
-2.572907	<Gas_Sensor-null,odorLevel-locationMode,greater-not_vacation>	-0.608809
-2.329230	<Gas_Sensor-null,odorLevel-locationMode,greater-vacation>	-0.851847
-2.742018	<Gas_Stove,switch,off>	-0.202982
-2.475699	<Gas_Stove-null,switch-timer,on-completed>	-0.705719
-1.918536	<Glass_Break_Detector,shock,detected>	-0.872050
-2.329230	<Glass_Break_Detector-null,shock-locationMode,detected-away>	-0.851847
-2.396319	<Glass_Break_Detector-null,shock-locationMode,detected-night>	-0.784900
-2.698343	<Glass_Break_Detector-null,shock-locationMode,detected-vacation>	-0.483870
-3.207297	<Heater,switch,off>	-0.112829
-2.742018	<Heater,switch,on>	-0.142924
-2.698343	<Humidifier,switch,on>	-0.171664
-2.027775	<Humidity_Sensor,humidity,greater>	-0.808381
-2.059992	<Humidity_Sensor,humidity,lesser>	-1.120692
-2.174073	<Humidity_Sensor-Temperature_Sensor,humidity-temperature,greater-greater>	-1.006749
-2.396319	<Illuminance_Sensor,illuminance,greater>	-0.784900
-2.329230	<Illuminance_Sensor,illuminance,lesser>	-0.851847
-2.271132	<Illuminance_Sensor-Motion_Sensor,illuminance-motion,lesser-detected>	-0.909839
-2.475699	<Illuminance_Sensor-null,illuminance-time,lesser-night>	-0.705719
-2.271132	<Induction_Cooktop-null,switch-locationMode,on-away>	-0.909839
-2.572907	<Light_Bulb,colorValue,fixed_value>	-0.276719
-2.094792	<Light_Bulb,switch,off>	-0.280199
-2.219896	<Light_Bulb,switch,on>	-0.220148
-2.219896	<Light_Bulb-Motion_Sensor,switch-motion,off-detected>	-0.960991
-2.219896	<Light_Bulb-Motion_Sensor,switch-motion,on-not_detected>	-0.960991
-3.207297	<Light_Bulb-Phone,switch-notification,on-notify>	-0.112829
-3.207297	<Light_Bulb-Security_Alarm,mode-alarm,flash-strobe>	-0.112829
-3.207297	<Light_Bulb-Shades/Blinds,colorValue-contact,fixed_value-closed>	-0.112829
-3.207297	<Light_Bulb-Shades/Blinds,colorValue-contact,fixed_value-opened>	-0.112829
-3.207297	<Light_Bulb-Shades/Blinds,switch-contact,on-closed>	-0.112829
-3.207297	<Light_Bulb-Smart_Assistant,switch-notification,off-notify>	-0.112829
-2.698343	<Light_Bulb-Smart_TV,switch-switch,off-off>	-0.186747
-3.207297	<Light_Bulb-Speaker,colorValue-switch,fixed_value-on>	-0.112829
-3.207297	<Light_Bulb-Thermostat,switch-thermostat,off-auto>	-0.112829
-3.207297	<Light_Bulb-Weather_Station,colorValue-weather,fixed_value-notify>	-0.112829
-2.396319	<Light_Bulb-null,switch-locationMode,on-away>	-0.784900
-3.207297	<Microwave_Oven,switch,off>	-0.112829
-2.059992	<Moisture_Sensor,water,dry>	-0.851847
-1.831325	<Moisture_Sensor,water,wet>	-0.836052
-1.812008	<Motion_Sensor,motion,detected>	-0.826292
-2.396319	<Motion_Sensor,motion,not_detected>	-0.571020
-2.475699	<Motion_Sensor-Security_Camera,motion-image,detected-take>	-0.705719
-2.475699	<Motion_Sensor-Shades/Blinds-null,motion-contact-time,not_detected-closed-day>	-0.705719
-3.207297	<Oil_Warmer,switch,on>	-0.112829
-1.872745	<Phone,notification,notify>	-0.389689
-3.207297	<Phone-Security_Alarm,notification-alarm,notify-siren>	-0.112829
-2.219896	<Phone-Security_Alarm,notification-alarm,notify-siren_strobe>	-0.287459
-3.207297	<Phone-Thermostat,notification-thermostat,notify-auto>	-0.112829
-2.329230	<Presence_Sensor,presence,not_present>	-0.608809
-2.094792	<Presence_Sensor,presence,present>	-0.784900
-2.132626	<Pulse_Monitor,pulse,greater>	-1.048141
-2.572907	<Pulse_Monitor,pulse,lesser>	-0.608809
-3.207297	<Pulse_Monitor,switch,on>	-0.112829
-2.329230	<Refrigerator,filterStatus,replace>	-0.851847
-3.207297	<Refrigerator,switch,on>	-0.112829
-2.396319	<Refrigerator,temperature,greater>	-0.784900
-2.475699	<Refrigerator-null,contact-time,opened-evening>	-0.705719
-2.698343	<Robot_Vacuum,switch,on>	-0.196764
-3.207297	<Robot_Vacuum-Thermostat,switch-thermostat,off-auto>	-0.112829
-3.207297	<Security_Alarm,alarm,off>	-0.112829
-2.572907	<Security_Alarm,alarm,siren>	-0.332854
-1.997783	<Security_Alarm,alarm,siren_strobe>	-0.349056
-3.207297	<Security_Alarm,alarm,strobe>	-0.112829
-3.207297	<Security_Alarm-Security_Camera,alarm-switch,siren_strobe-on>	-0.112829
-2.572907	<Security_Alarm-null,alarm-locationMode,siren_strobe-away>	-0.608809
-3.207297	<Security_Camera,image,take>	-0.112829
-2.475699	<Security_Camera,switch,on>	-0.266511
-3.207297	<Security_Camera,video,record>	-0.112829
-2.475699	<Security_Camera-null,image-time,take-night>	-0.705719
-2.698343	<Security_Camera-null,switch-locationMode,off-vacation>	-0.483870
-2.742018	<Shades/Blinds,contact,closed>	-0.210198
-2.698343	<Shades/Blinds,contact,opened>	-0.137459
-2.742018	<Shades/Blinds,threeAxis,fixed_value>	-0.289838
-3.207297	<Shades/Blinds-Speaker,threeAxis-mute,fixed_value-unmuted>	-0.112829
-3.207297	<Shades/Blinds-null,contact-locationMode,opened-home>	-0.112829
-1.851542	<Sleep_Monitor,sleeping,detected>	-0.881810
-2.396319	<Sleep_Monitor,sleeping,not_detected>	-0.705719
-3.207297	<Sleep_Monitor,switch,on>	-0.112829
-3.207297	<Smart_Assistant,notification,notify>	-0.112829
-2.271132	<Smart_Assistant,voice,command>	-0.644803
-3.207297	<Smart_Mirror,switch,off>	-0.112829
-3.207297	<Smart_Mirror-Speaker,switch-switch,on-on>	-0.112829
-2.742018	<Smart_TV,channel,fixed_value>	-0.275509
-3.207297	<Smart_TV,switch,off>	-0.112829
-2.094792	<Smart_TV,switch,on>	-0.711339
-2.271132	<Smoke_Detector,battery,lesser>	-0.909839
-1.969729	<Smoke_Detector,smoke,detected>	-0.784900
-2.329230	<Smoke_Detector,tamper,detected>	-0.851847
-2.475699	<Smoke_Detector-Temperature_Sensor,smoke-temperature,greater-greater>	-0.705719
-2.742018	<Speaker,switch,on>	-0.166947
-2.742018	<Sprinker,switch,on>	-0.148148
-2.698343	<Switches,switch,off>	-0.354912
-2.698343	<Switches,switch,on>	-0.228781
-3.207297	<Switches-null,switch-time,off-evening>	-0.112829
-2.329230	<Temperature_Sensor,temperature,equal>	-0.851847
-1.711285	<Temperature_Sensor,temperature,greater>	-0.909839
-1.642174	<Temperature_Sensor,temperature,lesser>	-0.909839
-2.396319	<Temperature_Sensor-null,temperature-locationMode,greater-away>	-0.784900
-2.396319	<Temperature_Sensor-null,temperature-locationMode,greater-home>	-0.784900
-2.219896	<Temperature_Sensor-null,temperature-locationMode,greater-not_vacation>	-0.960991
-2.396319	<Temperature_Sensor-null,temperature-locationMode,lesser-away>	-0.784900
-2.329230	<Temperature_Sensor-null,temperature-locationMode,lesser-home>	-0.608809
-2.329230	<Temperature_Sensor-null,temperature-locationMode,lesser-not_vacation>	-0.851847
-2.396319	<Temperature_Sensor-null,temperature-time,greater-night>	-0.784900
-2.698343	<Temperature_Sensor-null,temperature-time,lesser-afternoon>	-0.483870
-2.698343	<Temperature_Sensor-null,temperature-time,lesser-morning>	-0.483870
-2.027775	<Temperature_Sensor-null,temperature-time,lesser-night>	-0.784900
-2.396319	<Thermostat,thermostat,auto>	-0.295073
-3.207297	<Thermostat,thermostat,decreased>	-0.112829
-2.572907	<Thermostat,thermostat,increased>	-0.252152
-3.207297	<Thermostat-Water_Heater,thermostat-switch,increased-on>	-0.112829
-3.207297	<Washer,completion,true>	-0.112829
-3.207297	<Water_Heater,switch,off>	-0.112829
-3.207297	<Water_Heater,switch,on>	-0.112829
-1.969729	<Water_Leak_Detector,water,wet>	-0.702029
-2.572907	<Water_Leak_Detector-null,water-locationMode,wet-not_vacation>	-0.608809
-2.475699	<Water_Leak_Detector-null,water-locationMode,wet-vacation>	-0.705719
-3.207297	<Water_Valve,contact,closed>	-0.112829
-2.396319	<Weather_Station,cold,true>	-0.784900
-2.094792	<Weather_Station,rain,true>	-0.819662
-3.207297	<Weather_Station,weather,notify>	-0.112829
-2.396319	<Weather_Station-null,rain-time,false-morning>	-0.784900
-2.174073	<Weather_Station-null,rain-time,false-night>	-1.006749
-2.572907	<Weather_Station-null,rain-time,true-morning>	-0.608809
-1.510849	<null,locationMode,away>	-0.890183
-1.943379	<null,locationMode,home>	-0.648189
-1.851542	<null,locationMode,night>	-0.567433
-2.174073	<null,locationMode,vacation>	-0.554591
-2.219896	<null,time,afternoon>	-0.705719
-1.831325	<null,time,evening>	-0.705719
-1.402726	<null,time,morning>	-0.810663
-1.520397	<null,time,night>	-0.941247
-2.475699	<null,time,noon>	-0.705719
-2.396319	<null-null,locationMode-time,away-evening>	-0.784900
-3.207297	<null-null,locationMode-time,away-morning>	-0.112829
-2.396319	<null-null,locationMode-time,away-night>	-0.784900
-2.329230	<null-null,locationMode-time,home-night>	-0.851847
-2.572907	<null-null,locationMode-time,vacation-morning>	-0.608809
-2.475699	<null-null,locationMode-time,vacation-night>	-0.705719

\2-grams:
-2.183602	<s> <Air_Conditioner-Temperature_Sensor,thermostat-temperature,auto-lesser>	-0.656750
-2.190242	<s> <Air_Conditioner-null,thermostat-time,auto-night>	-0.656750
-2.803145	<s> <Air_Purifier,airQuality,greater>	-0.329707
-1.664131	<s> <Air_Purifier,airQuality,lesser>	-1.133871
-1.733102	<s> <Audio_Player-null,switch-time,on-night>	-1.096083
-1.531220	<s> <Beacon_Device,presence,present>	-0.772432
-2.091827	<s> <Beacon_Device-Light_Bulb,presence-switch,not_present-on>	-0.753660
-2.045072	<s> <Beacon_Device-Light_Bulb,presence-switch,present-off>	-0.795053
-2.421100	<s> <Blood_Pressure_Monitor,pressure,greater>	-0.452630
-1.652321	<s> <Button,button,pushed>	-0.765365
-2.667349	<s> <CO_Detector,carbonMonoxide,detected>	-0.334788
-2.877812	<s> <CO_Detector-null,carbonMonoxide-locationMode,detected-vacation>	-0.329707
-2.709472	<s> <Clothes_Dryer,completion,true>	-0.230781
-3.400906	<s> <Coffee_Maker,temperature,greater>	-0.345132
-2.667349	<s> <Contact_Sensor,contact,opened>	-0.230781
-1.658177	<s> <Contact_Sensor-null,contact-time,opened-night>	-1.168633
-2.000698	<s> <Dishwasher,weight,greater>	-0.832841
-2.135295	<s> <Door_Lock-Presence_Sensor-null,lock-presence-time,unlocked-not_present-night>	-0.707902
-2.677503	<s> <Door_Lock-null,lock-locationMode,unlocked-away>	-0.230781
-2.687900	<s> <Door_Lock-null,lock-time,unlocked-night>	-0.230781
-2.234244	<s> <Door_Sensor,contact,opened>	-0.598758
-2.117958	<s> <Door_Sensor-null,contact-locationMode,opened-away>	-0.608854
-2.132357	<s> <Door_Sensor-null,contact-time,opened-morning>	-0.707902
-1.946858	<s> <Doorbell,button,pushed>	-0.566573
-2.196985	<s> <Dust_Detector,dust,greater>	-0.656750
-2.534326	<s> <Energy_Meter,energy,greater>	-0.355720
-2.557077	<s> <External_API-null,traffic-time,heavy-morning>	-0.355720
-2.534326	<s> <Garage_Door_Opener-null,contact-locationMode,opened-away>	-0.355720
-2.577060	<s> <Gas_Sensor,odorLevel,greater>	-0.230781
-3.157685	<s> <Gas_Sensor,odorLevel,lesser>	-0.345132
-3.262487	<s> <Gas_Sensor-null,odorLevel-locationMode,greater-vacation>	-0.345132
-2.894420	<s> <Gas_Stove-null,switch-timer,on-completed>	-0.329707
-2.357656	<s> <Glass_Break_Detector,shock,detected>	-0.353582
-3.262487	<s> <Glass_Break_Detector-null,shock-locationMode,detected-away>	-0.345132
-2.226902	<s> <Humidity_Sensor,humidity,greater>	-0.346625
-1.764596	<s> <Humidity_Sensor,humidity,lesser>	-1.054690
-2.647727	<s> <Humidity_Sensor-Temperature_Sensor,humidity-temperature,greater-greater>	-0.230781
-1.672673	<s> <Illuminance_Sensor,illuminance,lesser>	-1.151600
-1.870786	<s> <Illuminance_Sensor-Motion_Sensor,illuminance-motion,lesser-detected>	-0.957780
-1.624154	<s> <Illuminance_Sensor-null,illuminance-time,lesser-night>	-1.200818
-2.846389	<s> <Induction_Cooktop-null,switch-locationMode,on-away>	-0.329707
-2.317699	<s> <Light_Bulb-Motion_Sensor,switch-motion,off-detected>	-0.531811
-1.962415	<s> <Light_Bulb-Motion_Sensor,switch-motion,on-not_detected>	-0.867603
-1.836120	<s> <Moisture_Sensor,water,dry>	-0.683079
-2.142753	<s> <Moisture_Sensor,water,wet>	-0.477101
-1.608100	<s> <Motion_Sensor,motion,detected>	-0.723697
-1.524301	<s> <Motion_Sensor,motion,not_detected>	-0.820607
-2.336027	<s> <Motion_Sensor-Security_Camera,motion-image,detected-take>	-0.531811
-2.527000	<s> <Presence_Sensor,presence,not_present>	-0.355720
-2.789637	<s> <Presence_Sensor,presence,present>	-0.329707
-2.498872	<s> <Pulse_Monitor,pulse,greater>	-0.355720
-3.400906	<s> <Pulse_Monitor,pulse,lesser>	-0.345132
-2.260965	<s> <Refrigerator-null,contact-time,opened-evening>	-0.598758
-3.400906	<s> <Security_Alarm-null,alarm-locationMode,siren_strobe-away>	-0.345132
-2.698552	<s> <Security_Camera-null,image-time,take-night>	-0.230781
-1.552275	<s> <Sleep_Monitor,sleeping,detected>	-0.746103
-1.293375	<s> <Smart_Assistant,voice,command>	-1.047391
-3.099663	<s> <Smart_TV,switch,on>	-0.345132
-2.667349	<s> <Smoke_Detector,battery,lesser>	-0.230781
-2.367607	<s> <Smoke_Detector,smoke,detected>	-0.353582
-2.677503	<s> <Smoke_Detector,tamper,detected>	-0.230781
-1.838359	<s> <Temperature_Sensor,temperature,greater>	-0.554511
-1.247697	<s> <Temperature_Sensor,temperature,lesser>	-0.839171
-2.138253	<s> <Temperature_Sensor-null,temperature-locationMode,greater-away>	-0.707902
-2.331372	<s> <Temperature_Sensor-null,temperature-locationMode,greater-home>	-0.531811
-2.512709	<s> <Temperature_Sensor-null,temperature-locationMode,greater-not_vacation>	-0.355720
-2.193600	<s> <Temperature_Sensor-null,temperature-locationMode,lesser-away>	-0.656750
-2.253161	<s> <Temperature_Sensor-null,temperature-locationMode,lesser-home>	-0.297728
-2.527000	<s> <Temperature_Sensor-null,temperature-locationMode,lesser-not_vacation>	-0.355720
-2.331372	<s> <Temperature_Sensor-null,temperature-time,greater-night>	-0.531811
-2.345489	<s> <Temperature_Sensor-null,temperature-time,lesser-afternoon>	-0.531811
-2.147249	<s> <Temperature_Sensor-null,temperature-time,lesser-morning>	-0.707902
-1.785833	<s> <Temperature_Sensor-null,temperature-time,lesser-night>	-0.555292
-2.466096	<s> <Water_Leak_Detector,water,wet>	-0.337351
-1.923599	<s> <Weather_Station,rain,true>	-0.714851
-2.877812	<s> <Weather_Station-null,rain-time,false-morning>	-0.329707
-2.035597	<s> <Weather_Station-null,rain-time,false-night>	-0.795053
-3.400906	<s> <Weather_Station-null,rain-time,true-morning>	-0.345132
-1.159178	<s> <null,locationMode,away>	-0.557400
-2.727762	<s> <null,locationMode,home>	-0.329707
-1.609855	<s> <null,locationMode,night>	-0.797549
-2.647727	<s> <null,locationMode,vacation>	-0.230781
-2.129439	<s> <null,time,afternoon>	-0.406872
-2.093186	<s> <null,time,evening>	-0.707902
-1.090046	<s> <null,time,morning>	-0.822364
-1.024551	<s> <null,time,night>	-0.828801
-3.303911	<s> <null-null,locationMode-time,away-evening>	-0.345132
-2.687900	<s> <null-null,locationMode-time,away-night>	-0.230781
-2.911688	<s> <null-null,locationMode-time,vacation-morning>	-0.329707
-3.349706	<s> <null-null,locationMode-time,vacation-night>	-0.345132
-1.007918	<Air_Conditioner,thermostat,auto> </s>
-2.272444	<Air_Conditioner,thermostat,auto> <Air_Conditioner-Temperature_Sensor,thermostat-temperature,auto-greater>	-0.531811
-2.189301	<Air_Conditioner,thermostat,auto> <Air_Conditioner-Temperature_Sensor,thermostat-temperature,auto-lesser>	-0.707902
-2.242925	<Air_Conditioner,thermostat,auto> <Air_Conditioner-null,thermostat-time,auto-night>	-0.707902
-2.272444	<Air_Conditioner,thermostat,auto> <Air_Conditioner-null,thermostat-time,off-evening>	-0.345132
-2.141576	<Air_Conditioner,thermostat,auto> <Air_Purifier,airQuality,greater>	-1.200818
-1.402035	<Air_Conditioner,thermostat,auto> <Air_Purifier,airQuality,lesser>	-1.344725
-2.304116	<Air_Conditioner,thermostat,auto> <Bread_Maker-null,switch-time,off-morning>	-0.531811
-2.272444	<Air_Conditioner,thermostat,auto> <Car_Automation,presence,present>	-0.531811
-2.242925	<Air_Conditioner,thermostat,auto> <Coffee_Maker-null,switch-time,off-morning>	-0.707902
-2.215286	<Air_Conditioner,thermostat,auto> <Dishwasher,weight,greater>	-0.345132
-2.119546	<Air_Conditioner,thermostat,auto> <Door_Sensor,contact,opened>	-0.531811
-2.023575	<Air_Conditioner,thermostat,auto> <Doorbell,button,pushed>	-1.133871
-2.304116	<Air_Conditioner,thermostat,auto> <Dust_Detector,dust,greater>	-0.598758
-2.272444	<Air_Conditioner,thermostat,auto> <Garage_Door_Opener,signalStrength,lesser>	-0.345132
-2.272444	<Air_Conditioner,thermostat,auto> <Garage_Door_Opener-null,contact-locationMode,opened-away>	-0.230781
-1.643840	<Air_Conditioner,thermostat,auto> <Gas_Sensor,odorLevel,greater>	-0.707902
-2.164783	<Air_Conditioner,thermostat,auto> <Gas_Sensor,odorLevel,lesser>	-0.329707
-1.673569	<Air_Conditioner,thermostat,auto> <Humidity_Sensor,humidity,greater>	-0.814358
-2.098580	<Air_Conditioner,thermostat,auto> <Humidity_Sensor,humidity,lesser>	-0.329707
-2.164783	<Air_Conditioner,thermostat,auto> <Humidity_Sensor-Temperature_Sensor,humidity-temperature,greater-greater>	-0.329707
-2.242925	<Air_Conditioner,thermostat,auto> <Illuminance_Sensor,illuminance,lesser>	-0.345132
-2.304116	<Air_Conditioner,thermostat,auto> <Illuminance_Sensor-null,illuminance-time,lesser-night>	-0.867603
-2.189301	<Air_Conditioner,thermostat,auto> <Light_Bulb-Motion_Sensor,switch-motion,off-detected>	-0.531811
-2.189301	<Air_Conditioner,thermostat,auto> <Light_Bulb-Motion_Sensor,switch-motion,on-not_detected>	-0.753660
-2.272444	<Air_Conditioner,thermostat,auto> <Light_Bulb-null,switch-locationMode,on-away>	-0.984109
-2.098580	<Air_Conditioner,thermostat,auto> <Moisture_Sensor,water,dry>	-0.832841
-1.616017	<Air_Conditioner,thermostat,auto> <Moisture_Sensor,water,wet>	-0.439429
-1.930881	<Air_Conditioner,thermostat,auto> <Motion_Sensor,motion,detected>	-0.899788
-2.272444	<Air_Conditioner,thermostat,auto> <Motion_Sensor,motion,not_detected>	-0.598758
-2.242925	<Air_Conditioner,thermostat,auto> <Refrigerator,filterStatus,replace>	-0.345132
-2.272444	<Air_Conditioner,thermostat,auto> <Refrigerator,temperature,greater>	-0.345132
-2.304116	<Air_Conditioner,thermostat,auto> <Security_Camera-null,image-time,take-night>	-0.345132
-1.622807	<Air_Conditioner,thermostat,auto> <Sleep_Monitor,sleeping,detected>	-0.566573
-2.119546	<Air_Conditioner,thermostat,auto> <Smart_TV,switch,on>	-0.329707
-1.722365	<Air_Conditioner,thermostat,auto> <Smoke_Detector,battery,lesser>	-0.230781
-2.041147	<Air_Conditioner,thermostat,auto> <Smoke_Detector,smoke,detected>	-0.329707
-1.731058	<Air_Conditioner,thermostat,auto> <Smoke_Detector,tamper,detected>	-0.452630
-2.304116	<Air_Conditioner,thermostat,auto> <Smoke_Detector-Temperature_Sensor,smoke-temperature,greater-greater>	-0.329707
-2.242925	<Air_Conditioner,thermostat,auto> <Temperature_Sensor,temperature,equal>	-0.753660
-1.854534	<Air_Conditioner,thermostat,auto> <Temperature_Sensor,temperature,greater>	-1.488726
-1.541870	<Air_Conditioner,thermostat,auto> <Temperature_Sensor,temperature,lesser>	-0.354531
-2.242925	<Air_Conditioner,thermostat,auto> <Temperature_Sensor-null,temperature-locationMode,lesser-home>	-0.329707
-2.272444	<Air_Conditioner,thermostat,auto> <Temperature_Sensor-null,temperature-time,greater-night>	-0.707902
-1.673569	<Air_Conditioner,thermostat,auto> <Temperature_Sensor-null,temperature-time,lesser-night>	-0.406872
-2.463535	<Air_Conditioner,thermostat,auto> <Washer,completion,true>	-0.329707
-1.351569	<Air_Conditioner,thermostat,auto> <null,locationMode,away>	-0.939923
-2.023575	<Air_Conditioner,thermostat,auto> <null,locationMode,home>	-0.329707
-1.616017	<Air_Conditioner,thermostat,auto> <null,time,evening>	-0.768555
-1.419006	<Air_Conditioner,thermostat,auto> <null,time,morning>	-0.814358
-1.239237	<Air_Conditioner,thermostat,auto> <null,time,night>	-1.008932
-2.242925	<Air_Conditioner,thermostat,auto> <null-null,locationMode-time,home-night>	-0.345132
-0.971983	<Air_Conditioner,thermostat,decreased> </s>
-1.997513	<Air_Conditioner,thermostat,decreased> <CO_Detector-null,carbonMonoxide-locationMode,detected-not_vacation>	-0.329707
-1.976955	<Air_Conditioner,thermostat,decreased> <CO_Detector-null,carbonMonoxide-locationMode,detected-vacation>	-0.345132
-1.855188	<Air_Conditioner,thermostat,decreased> <Door_Sensor-null,contact-locationMode,opened-away>	-1.151600
-1.798391	<Air_Conditioner,thermostat,decreased> <Doorbell,button,pushed>	-1.592509
-1.957327	<Air_Conditioner,thermostat,decreased> <Gas_Sensor-null,odorLevel-locationMode,greater-vacation>	-0.345132
-1.785281	<Air_Conditioner,thermostat,decreased> <Glass_Break_Detector,shock,detected>	-0.452630
-1.957327	<Air_Conditioner,thermostat,decreased> <Glass_Break_Detector-null,shock-locationMode,detected-away>	-0.957780
-1.976955	<Air_Conditioner,thermostat,decreased> <Glass_Break_Detector-null,shock-locationMode,detected-night>	-0.531811
-1.736473	<Air_Conditioner,thermostat,decreased> <Moisture_Sensor,water,wet>	-0.345132
-1.811909	<Air_Conditioner,thermostat,decreased> <Smoke_Detector,smoke,detected>	-0.355720
-1.662379	<Air_Conditioner,thermostat,decreased> <Temperature_Sensor,temperature,greater>	-1.717448
-1.616261	<Air_Conditioner,thermostat,decreased> <Temperature_Sensor,temperature,lesser>	-1.538990
-1.976955	<Air_Conditioner,thermostat,decreased> <Temperature_Sensor-null,temperature-locationMode,greater-away>	-1.133871
-1.976955	<Air_Conditioner,thermostat,decreased> <Temperature_Sensor-null,temperature-locationMode,greater-home>	-0.929751
-1.920546	<Air_Conditioner,thermostat,decreased> <Temperature_Sensor-null,temperature-locationMode,greater-not_vacation>	-0.345132
-1.976955	<Air_Conditioner,thermostat,decreased> <Temperature_Sensor-null,temperature-locationMode,lesser-away>	-1.366444
-1.957327	<Air_Conditioner,thermostat,decreased> <Temperature_Sensor-null,temperature-locationMode,lesser-home>	-1.151600
-1.957327	<Air_Conditioner,thermostat,decreased> <Temperature_Sensor-null,temperature-locationMode,lesser-not_vacation>	-0.531811
-2.019093	<Air_Conditioner,thermostat,decreased> <Water_Leak_Detector-null,water-locationMode,wet-not_vacation>	-0.345132
-1.903261	<Air_Conditioner,thermostat,decreased> <Weather_Station-null,rain-time,false-night>	-1.096083
-1.748170	<Air_Conditioner,thermostat,decreased> <null,locationMode,night>	-1.054690
-1.903261	<Air_Conditioner,thermostat,decreased> <null,locationMode,vacation>	-0.329707
-1.736473	<Air_Conditioner,thermostat,decreased> <null,time,evening>	-1.032414
-1.439090	<Air_Conditioner,thermostat,decreased> <null,time,morning>	-0.329707
-1.529317	<Air_Conditioner,thermostat,decreased> <null,time,night>	-1.032414
-1.976955	<Air_Conditioner,thermostat,decreased> <null-null,locationMode-time,away-evening>	-0.355720
-1.976955	<Air_Conditioner,thermostat,decreased> <null-null,locationMode-time,away-night>	-0.345132
-0.977345	<Air_Conditioner,thermostat,increased> </s>
-1.925830	<Air_Conditioner,thermostat,increased> <Air_Conditioner-Temperature_Sensor,thermostat-temperature,auto-lesser>	-0.929751
-2.001007	<Air_Conditioner,thermostat,increased> <Air_Conditioner-null,thermostat-time,auto-morning>	-0.230781
-2.001007	<Air_Conditioner,thermostat,increased> <Bread_Maker-null,switch-time,off-morning>	-0.355720
-2.001007	<Air_Conditioner,thermostat,increased> <CO_Detector-null,carbonMonoxide-locationMode,detected-not_vacation>	-0.345132
-1.980958	<Air_Conditioner,thermostat,increased> <CO_Detector-null,carbonMonoxide-locationMode,detected-vacation>	-0.329707
-1.961794	<Air_Conditioner,thermostat,increased> <Coffee_Maker-null,switch-time,off-morning>	-0.707902
-1.943440	<Air_Conditioner,thermostat,increased> <Contact_Sensor,contact,opened>	-0.832841
-1.861767	<Air_Conditioner,thermostat,increased> <Door_Sensor-null,contact-locationMode,opened-away>	-1.075879
-1.805950	<Air_Conditioner,thermostat,increased> <Doorbell,button,pushed>	-1.434901
-2.022026	<Air_Conditioner,thermostat,increased> <Gas_Sensor-null,odorLevel-locationMode,greater-not_vacation>	-0.345132
-1.961794	<Air_Conditioner,thermostat,increased> <Gas_Sensor-null,odorLevel-locationMode,greater-vacation>	-0.345132
-1.793049	<Air_Conditioner,thermostat,increased> <Glass_Break_Detector,shock,detected>	-0.531811
-1.961794	<Air_Conditioner,thermostat,increased> <Glass_Break_Detector-null,shock-locationMode,detected-away>	-0.832841
-1.980958	<Air_Conditioner,thermostat,increased> <Glass_Break_Detector-null,shock-locationMode,detected-night>	-0.656750
-1.925830	<Air_Conditioner,thermostat,increased> <Light_Bulb-Motion_Sensor,switch-motion,off-detected>	-0.795053
-1.925830	<Air_Conditioner,thermostat,increased> <Light_Bulb-Motion_Sensor,switch-motion,on-not_detected>	-1.333444
-1.744966	<Air_Conditioner,thermostat,increased> <Moisture_Sensor,water,wet>	-0.329707
-1.819246	<Air_Conditioner,thermostat,increased> <Smoke_Detector,smoke,detected>	-0.345132
-1.671831	<Air_Conditioner,thermostat,increased> <Temperature_Sensor,temperature,greater>	-1.946785
-1.626232	<Air_Conditioner,thermostat,increased> <Temperature_Sensor,temperature,lesser>	-1.490056
-1.925830	<Air_Conditioner,thermostat,increased> <Temperature_Sensor-null,temperature-locationMode,greater-not_vacation>	-0.598758
-2.022026	<Air_Conditioner,thermostat,increased> <Water_Leak_Detector-null,water-locationMode,wet-not_vacation>	-0.345132
-1.908907	<Air_Conditioner,thermostat,increased> <Weather_Station-null,rain-time,false-night>	-0.899788
-1.756497	<Air_Conditioner,thermostat,increased> <null,locationMode,night>	-0.929751
-1.303548	<Air_Conditioner,thermostat,increased> <null,time,evening>	-1.052552
-1.540131	<Air_Conditioner,thermostat,increased> <null,time,night>	-0.795053
-0.966495	<Air_Conditioner,thermostat,off> </s>
-2.026616	<Air_Conditioner,thermostat,off> <Air_Conditioner-Temperature_Sensor,thermostat-temperature,auto-lesser>	-0.753660
-2.113348	<Air_Conditioner,thermostat,off> <Air_Conditioner-null,thermostat-time,auto-morning>	-0.598758
-2.067820	<Air_Conditioner,thermostat,off> <Air_Conditioner-null,thermostat-time,auto-night>	-0.867603
-1.707265	<Air_Conditioner,thermostat,off> <Air_Purifier,airQuality,lesser>	-0.329707
-2.089988	<Air_Conditioner,thermostat,off> <Car_Automation,presence,present>	-0.355720
-2.046730	<Air_Conditioner,thermostat,off> <Contact_Sensor,contact,opened>	-0.329707
-1.954355	<Air_Conditioner,thermostat,off> <Door_Sensor-null,contact-locationMode,opened-away>	-1.616983
-2.164213	<Air_Conditioner,thermostat,off> <Door_Sensor-null-null,contact-locationMode-time,opened-away-evening>	-1.216058
-1.892420	<Air_Conditioner,thermostat,off> <Doorbell,button,pushed>	-0.707902
-2.089988	<Air_Conditioner,thermostat,off> <Garage_Door_Opener,signalStrength,lesser>	-0.329707
-1.878224	<Air_Conditioner,thermostat,off> <Gas_Sensor,odorLevel,greater>	-0.452630
-2.067820	<Air_Conditioner,thermostat,off> <Glass_Break_Detector-null,shock-locationMode,detected-away>	-0.355720
-2.089988	<Air_Conditioner,thermostat,off> <Glass_Break_Detector-null,shock-locationMode,detected-night>	-0.753660
-2.067820	<Air_Conditioner,thermostat,off> <Illuminance_Sensor,illuminance,lesser>	-0.329707
-2.026616	<Air_Conditioner,thermostat,off> <Light_Bulb-Motion_Sensor,switch-motion,off-detected>	-0.707902
-2.026616	<Air_Conditioner,thermostat,off> <Light_Bulb-Motion_Sensor,switch-motion,on-not_detected>	-0.867603
-2.089988	<Air_Conditioner,thermostat,off> <Light_Bulb-null,switch-locationMode,on-away>	-0.355720
-1.825671	<Air_Conditioner,thermostat,off> <Moisture_Sensor,water,wet>	-0.345132
-1.838225	<Air_Conditioner,thermostat,off> <Sleep_Monitor,sleeping,detected>	-0.345132
-2.046730	<Air_Conditioner,thermostat,off> <Smart_Assistant,voice,command>	-0.345132
-1.971325	<Air_Conditioner,thermostat,off> <Smart_TV,switch,on>	-0.345132
-2.046730	<Air_Conditioner,thermostat,off> <Smoke_Detector,battery,lesser>	-0.230781
-2.067820	<Air_Conditioner,thermostat,off> <Smoke_Detector,tamper,detected>	-0.345132
-2.067820	<Air_Conditioner,thermostat,off> <Temperature_Sensor,temperature,equal>	-0.329707
-1.385849	<Air_Conditioner,thermostat,off> <Temperature_Sensor,temperature,greater>	-0.707902
-1.196382	<Air_Conditioner,thermostat,off> <Temperature_Sensor,temperature,lesser>	-0.674479
-1.315462	<Air_Conditioner,thermostat,off> <null,locationMode,away>	-0.686203
-1.838225	<Air_Conditioner,thermostat,off> <null,locationMode,night>	-0.452630
-1.825671	<Air_Conditioner,thermostat,off> <null,time,evening>	-0.452630
-1.513016	<Air_Conditioner,thermostat,off> <null,time,morning>	-0.452630
-1.319302	<Air_Conditioner,thermostat,off> <null,time,night>	-0.795053
-2.067820	<Air_Conditioner,thermostat,off> <null-null,locationMode-time,home-night>	-0.329707
-1.214987	<Air_Conditioner-Electric_Blanket-Robot_Vacuum-Oil_Warmer,thermostat-switch-switch-switch,off-off-off-off> </s>
-1.634568	<Air_Conditioner-Electric_Blanket-Robot_Vacuum-Oil_Warmer,thermostat-switch-switch-switch,off-off-off-off> <CO_Detector,carbonMonoxide,detected>	-0.345132
-1.509261	<Air_Conditioner-Electric_Blanket-Robot_Vacuum-Oil_Warmer,thermostat-switch-switch-switch,off-off-off-off> <Motion_Sensor,motion,detected>	-0.345132
-1.597464	<Air_Conditioner-Electric_Blanket-Robot_Vacuum-Oil_Warmer,thermostat-switch-switch-switch,off-off-off-off> <Presence_Sensor,presence,present>	-0.345132
-1.606447	<Air_Conditioner-Electric_Blanket-Robot_Vacuum-Oil_Warmer,thermostat-switch-switch-switch,off-off-off-off> <Pulse_Monitor,pulse,greater>	-1.054690
-1.563282	<Air_Conditioner-Electric_Blanket-Robot_Vacuum-Oil_Warmer,thermostat-switch-switch-switch,off-off-off-off> <Water_Leak_Detector,water,wet>	-0.230781
-1.368027	<Air_Conditioner-Electric_Blanket-Robot_Vacuum-Oil_Warmer,thermostat-switch-switch-switch,off-off-off-off> <null,locationMode,away>	-0.899788
-1.555141	<Air_Conditioner-Electric_Blanket-Robot_Vacuum-Oil_Warmer,thermostat-switch-switch-switch,off-off-off-off> <null,locationMode,home>	-0.795053
-1.615620	<Air_Conditioner-Electric_Blanket-Robot_Vacuum-Oil_Warmer,thermostat-switch-switch-switch,off-off-off-off> <null,locationMode,vacation>	-0.345132
-1.624991	<Air_Conditioner-Electric_Blanket-Robot_Vacuum-Oil_Warmer,thermostat-switch-switch-switch,off-off-off-off> <null,time,afternoon>	-0.832841
-1.304726	<Air_Conditioner-Electric_Blanket-Robot_Vacuum-Oil_Warmer,thermostat-switch-switch-switch,off-off-off-off> <null,time,morning>	-0.452630
-1.373301	<Air_Conditioner-Electric_Blanket-Robot_Vacuum-Oil_Warmer,thermostat-switch-switch-switch,off-off-off-off> <null,time,night>	-0.867603
-1.057257	<Air_Conditioner-Fan,thermostat-switch,auto-on> </s>
-1.320385	<Air_Conditioner-Fan,thermostat-switch,auto-on> <CO_Detector-Gas_Sensor,alarm-alarm,siren-siren>	-0.345132
-1.239214	<Air_Conditioner-Fan,thermostat-switch,auto-on> <Motion_Sensor,motion,detected>	-1.096083
-1.216442	<Air_Conditioner-Fan,thermostat-switch,auto-on> <Temperature_Sensor,temperature,greater>	-1.075879
-1.198337	<Air_Conditioner-Fan,thermostat-switch,auto-on> <Temperature_Sensor,temperature,lesser>	-0.929751
-1.057257	<Air_Conditioner-Fan,thermostat-switch,off-off> </s>
-1.320385	<Air_Conditioner-Fan,thermostat-switch,off-off> <CO_Detector-Gas_Sensor,alarm-alarm,siren-siren>	-0.230781
-1.239214	<Air_Conditioner-Fan,thermostat-switch,off-off> <Motion_Sensor,motion,detected>	-1.387128
-1.216442	<Air_Conditioner-Fan,thermostat-switch,off-off> <Temperature_Sensor,temperature,greater>	-0.329707
-1.198337	<Air_Conditioner-Fan,thermostat-switch,off-off> <Temperature_Sensor,temperature,lesser>	-1.230781
-1.311090	<Air_Conditioner-Fan-Light_Bulb,thermostat-switch-switch,off-off-off> <Blood_Pressure_Monitor,pressure,greater>	-0.795053
-1.315712	<Air_Conditioner-Fan-Light_Bulb,thermostat-switch-switch,off-off-off> <Blood_Pressure_Monitor,pressure,lesser>	-0.598758
-1.315712	<Air_Conditioner-Fan-Light_Bulb,thermostat-switch-switch,off-off-off> <Dust_Detector,dust,greater>	-0.329707
-1.311090	<Air_Conditioner-Fan-Light_Bulb,thermostat-switch-switch,off-off-off> <Motion_Sensor,motion,not_detected>	-1.096083
-1.247078	<Air_Conditioner-Fan-Light_Bulb,thermostat-switch-switch,off-off-off> <Sleep_Monitor,sleeping,detected>	-0.230781
-1.057257	<Air_Conditioner-Heater,thermostat-switch,off-off> </s>
-1.306516	<Air_Conditioner-Heater,thermostat-switch,off-off> <Door_Lock-Presence_Sensor-null,lock-presence-time,unlocked-not_present-night>	-0.345132
-1.301990	<Air_Conditioner-Heater,thermostat-switch,off-off> <Illuminance_Sensor-Motion_Sensor,illuminance-motion,lesser-detected>	-0.656750
-1.306516	<Air_Conditioner-Heater,thermostat-switch,off-off> <Presence_Sensor,presence,not_present>	-1.032414
-1.198337	<Air_Conditioner-Heater,thermostat-switch,off-off> <Temperature_Sensor,temperature,lesser>	-0.329707
-1.057257	<Air_Conditioner-Light_Bulb,thermostat-colorValue,auto-fixed_value> </s>
-1.280041	<Air_Conditioner-Light_Bulb,thermostat-colorValue,auto-fixed_value> <Moisture_Sensor,water,dry>	-0.230781
-1.315712	<Air_Conditioner-Light_Bulb,thermostat-colorValue,auto-fixed_value> <Motion_Sensor-Security_Camera,motion-image,detected-take>	-1.151600
-1.315712	<Air_Conditioner-Light_Bulb,thermostat-colorValue,auto-fixed_value> <Refrigerator-null,contact-time,opened-evening>	-0.795053
-1.160978	<Air_Conditioner-Light_Bulb,thermostat-colorValue,auto-fixed_value> <null,time,night>	-0.531811
-0.927551	<Air_Conditioner-Light_Bulb,thermostat-switch,auto-on> </s>
-1.108969	<Air_Conditioner-Light_Bulb,thermostat-switch,auto-on> <Door_Sensor-null-null,contact-locationMode-time,opened-away-evening>	-1.397113
-1.094769	<Air_Conditioner-Light_Bulb,thermostat-switch,auto-on> <Smart_Assistant,voice,command>	-0.781689
-1.127411	<Air_Conditioner-Oil_Warmer-Robot_Vacuum-Smart_TV,thermostat-switch-switch-switch,auto-on-on-on> </s>
-1.433967	<Air_Conditioner-Oil_Warmer-Robot_Vacuum-Smart_TV,thermostat-switch-switch-switch,auto-on-on-on> <CO_Detector,carbonMonoxide,detected>	-0.345132
-1.416038	<Air_Conditioner-Oil_Warmer-Robot_Vacuum-Smart_TV,thermostat-switch-switch-switch,auto-on-on-on> <Pulse_Monitor,pulse,greater>	-0.329707
-1.298744	<Air_Conditioner-Oil_Warmer-Robot_Vacuum-Smart_TV,thermostat-switch-switch-switch,auto-on-on-on> <Temperature_Sensor,temperature,lesser>	-0.345132
-1.248176	<Air_Conditioner-Oil_Warmer-Robot_Vacuum-Smart_TV,thermostat-switch-switch-switch,auto-on-on-on> <null,locationMode,away>	-0.452630
-1.427908	<Air_Conditioner-Oil_Warmer-Robot_Vacuum-Smart_TV,thermostat-switch-switch-switch,auto-on-on-on> <null,time,afternoon>	-0.345132
-1.252172	<Air_Conditioner-Oil_Warmer-Robot_Vacuum-Smart_TV,thermostat-switch-switch-switch,auto-on-on-on> <null,time,night>	-0.683079
-1.081018	<Air_Conditioner-Refrigerator-Water_Heater,thermostat-thermostat-switch,off-decreased-off> <Door_Sensor-null,contact-locationMode,opened-away>	-0.230781
-1.091983	<Air_Conditioner-Refrigerator-Water_Heater,thermostat-thermostat-switch,off-decreased-off> <Temperature_Sensor-null,temperature-locationMode,greater-not_vacation>	-0.329707
-1.089216	<Air_Conditioner-Refrigerator-Water_Heater,thermostat-thermostat-switch,off-decreased-off> <Weather_Station-null,rain-time,false-night>	-0.355720
-1.057257	<Air_Conditioner-Security_Camera,thermostat-switch,off-on> </s>
-1.311090	<Air_Conditioner-Security_Camera,thermostat-switch,off-on> <Blood_Pressure_Monitor,pressure,greater>	-0.329707
-1.315712	<Air_Conditioner-Security_Camera,thermostat-switch,off-on> <Security_Camera-null,image-time,take-night>	-0.329707
-1.267385	<Air_Conditioner-Security_Camera,thermostat-switch,off-on> <Smoke_Detector,smoke,detected>	-0.329707
-1.157736	<Air_Conditioner-Security_Camera,thermostat-switch,off-on> <null,locationMode,away>	-0.984109
-1.127411	<Air_Conditioner-Shades/Blinds,thermostat-contact,decreased-closed> </s>
-1.446345	<Air_Conditioner-Shades/Blinds,thermostat-contact,decreased-closed> <Temperature_Sensor-null,temperature-locationMode,greater-away>	-1.054690
-1.446345	<Air_Conditioner-Shades/Blinds,thermostat-contact,decreased-closed> <Temperature_Sensor-null,temperature-locationMode,greater-home>	-1.309962
-1.446345	<Air_Conditioner-Shades/Blinds,thermostat-contact,decreased-closed> <Temperature_Sensor-null,temperature-locationMode,lesser-away>	-1.075879
-1.440112	<Air_Conditioner-Shades/Blinds,thermostat-contact,decreased-closed> <Temperature_Sensor-null,temperature-locationMode,lesser-home>	-1.075879
-1.446345	<Air_Conditioner-Shades/Blinds,thermostat-contact,decreased-closed> <null-null,locationMode-time,away-evening>	-0.345132
-1.446345	<Air_Conditioner-Shades/Blinds,thermostat-contact,decreased-closed> <null-null,locationMode-time,away-night>	-0.230781
-0.077330	<Air_Conditioner-Temperature_Sensor,thermostat-temperature,auto-greater> <Air_Conditioner,thermostat,auto>	-0.952069
-0.050209	<Air_Conditioner-Temperature_Sensor,thermostat-temperature,auto-lesser> <Air_Conditioner,thermostat,increased>	-0.859170
-0.094740	<Air_Conditioner-null,thermostat-time,auto-morning> <Air_Conditioner,thermostat,off>	-0.710263
-0.065499	<Air_Conditioner-null,thermostat-time,auto-night> <Air_Conditioner,thermostat,off>	-0.718074
-0.077330	<Air_Conditioner-null,thermostat-time,off-evening> <Air_Conditioner,thermostat,auto>	-0.645774
-1.374038	<Air_Cooler,switch,on> <Dishwasher,weight,greater>	-0.329707
-1.384801	<Air_Cooler,switch,on> <Door_Lock-null,lock-time,unlocked-night>	-0.230781
-1.305355	<Air_Cooler,switch,on> <Moisture_Sensor,water,wet>	-0.531811
-1.274699	<Air_Cooler,switch,on> <Temperature_Sensor,temperature,greater>	-1.258810
-1.305355	<Air_Cooler,switch,on> <null,time,evening>	-0.329707
-1.211824	<Air_Cooler,switch,on> <null,time,night>	-0.753660
-1.083733	<Air_Cooler-Audio_Player-Phone-Shades/Blinds,switch-switch-notification-contact,off-on-notify-opened> <Weather_Station,rain,true>	-0.345132
-1.059884	<Air_Cooler-Audio_Player-Phone-Shades/Blinds,switch-switch-notification-contact,off-on-notify-opened> <null,locationMode,night>	-0.230781
-1.106091	<Air_Cooler-Audio_Player-Phone-Shades/Blinds,switch-switch-notification-contact,off-on-notify-opened> <null-null,locationMode-time,vacation-morning>	-0.329707
-0.040697	<Air_Purifier,airQuality,greater> <Air_Purifier,switch,off>	-0.833222
-0.013146	<Air_Purifier,airQuality,lesser> <Air_Purifier,switch,on>	-1.135646
-1.225564	<Air_Purifier,switch,off> </s>
-1.632978	<Air_Purifier,switch,off> <Air_Purifier,airQuality,greater>	-0.929751
-1.460154	<Air_Purifier,switch,off> <Air_Purifier,airQuality,lesser>	-0.867603
-1.570203	<Air_Purifier,switch,off> <Gas_Sensor,odorLevel,greater>	-0.345132
-1.642735	<Air_Purifier,switch,off> <Gas_Sensor,odorLevel,lesser>	-0.329707
-1.604957	<Air_Purifier,switch,off> <Humidity_Sensor,humidity,greater>	-1.032414
-1.662933	<Air_Purifier,switch,off> <Smoke_Detector,battery,lesser>	-0.329707
-1.673395	<Air_Purifier,switch,off> <Smoke_Detector,tamper,detected>	-0.345132
-1.453721	<Air_Purifier,switch,off> <Temperature_Sensor,temperature,lesser>	-0.531811
-1.604957	<Air_Purifier,switch,off> <Temperature_Sensor-null,temperature-time,lesser-night>	-0.929751
-1.538025	<Air_Purifier,switch,off> <null,time,evening>	-1.032414
-1.317768	<Air_Purifier,switch,off> <null,time,morning>	-1.115388
-1.388614	<Air_Purifier,switch,off> <null,time,night>	-0.598758
-1.302955	<Air_Purifier,switch,on> </s>
-1.959168	<Air_Purifier,switch,on> <Air_Conditioner-Temperature_Sensor,thermostat-temperature,auto-greater>	-1.185024
-1.867356	<Air_Purifier,switch,on> <Air_Purifier,airQuality,greater>	-1.185024
-1.602907	<Air_Purifier,switch,on> <Air_Purifier,airQuality,lesser>	-1.622892
-1.884231	<Air_Purifier,switch,on> <Button,button,pushed>	-0.899788
-1.851112	<Air_Purifier,switch,on> <Door_Sensor,contact,opened>	-1.216058
-1.920085	<Air_Purifier,switch,on> <Door_Sensor-null,contact-time,opened-morning>	-1.168633
-1.764656	<Air_Purifier,switch,on> <Gas_Sensor,odorLevel,greater>	-0.345132
-1.884231	<Air_Purifier,switch,on> <Gas_Sensor,odorLevel,lesser>	-0.230781
-1.820341	<Air_Purifier,switch,on> <Humidity_Sensor,humidity,greater>	-0.656750
-1.835454	<Air_Purifier,switch,on> <Humidity_Sensor,humidity,lesser>	-0.957780
-1.884231	<Air_Purifier,switch,on> <Humidity_Sensor-Temperature_Sensor,humidity-temperature,greater-greater>	-0.753660
-1.920085	<Air_Purifier,switch,on> <Induction_Cooktop-null,switch-locationMode,on-away>	-0.230781
-1.835454	<Air_Purifier,switch,on> <Moisture_Sensor,water,dry>	-1.538990
-1.715306	<Air_Purifier,switch,on> <Moisture_Sensor,water,wet>	-1.258810
-1.703798	<Air_Purifier,switch,on> <Motion_Sensor,motion,detected>	-1.494023
-1.959168	<Air_Purifier,switch,on> <Refrigerator,temperature,greater>	-0.832841
-1.805736	<Air_Purifier,switch,on> <Security_Alarm,alarm,siren_strobe>	-1.008932
-1.727128	<Air_Purifier,switch,on> <Sleep_Monitor,sleeping,detected>	-1.096083
-1.959168	<Air_Purifier,switch,on> <Sleep_Monitor,sleeping,not_detected>	-0.499710
-1.939187	<Air_Purifier,switch,on> <Smoke_Detector,tamper,detected>	-0.345132
-1.593996	<Air_Purifier,switch,on> <Temperature_Sensor,temperature,lesser>	-0.707902
-1.820341	<Air_Purifier,switch,on> <Temperature_Sensor-null,temperature-time,lesser-night>	-0.899788
-1.499277	<Air_Purifier,switch,on> <null,locationMode,away>	-0.799801
-1.715306	<Air_Purifier,switch,on> <null,time,evening>	-0.452630
-1.415674	<Air_Purifier,switch,on> <null,time,morning>	-0.732315
-1.506428	<Air_Purifier,switch,on> <null,time,night>	-0.506988
-1.980113	<Air_Purifier,switch,on> <null,time,noon>	-0.707902
-2.077382	<Air_Purifier,switch,on> <null-null,locationMode-time,away-morning>	-0.452630
-1.003979	<Air_Purifier-Light_Bulb,switch-switch,off-off> </s>
-1.129243	<Air_Purifier-Light_Bulb,switch-switch,off-off> <Air_Purifier,airQuality,lesser>	-1.245022
-1.205068	<Air_Purifier-Light_Bulb,switch-switch,off-off> <Button,button,pushed>	-0.297728
-1.091598	<Air_Purifier-Light_Bulb,switch-switch,off-off> <null,locationMode,away>	-1.622892
-1.127411	<Audio_Player,mute,muted> </s>
-1.440112	<Audio_Player,mute,muted> <Air_Conditioner-null,thermostat-time,auto-night>	-1.075879
-1.382257	<Audio_Player,mute,muted> <Doorbell,button,pushed>	-0.452630
-1.446345	<Audio_Player,mute,muted> <Light_Bulb-null,switch-locationMode,on-away>	-0.355720
-1.440112	<Audio_Player,mute,muted> <Smoke_Detector,tamper,detected>	-0.329707
-1.248176	<Audio_Player,mute,muted> <null,locationMode,away>	-0.329707
-1.252172	<Audio_Player,mute,muted> <null,time,night>	-0.867603
-0.971808	<Audio_Player,switch,off> </s>
-1.766146	<Audio_Player,switch,off> <Beacon_Device,presence,not_present>	-0.355720
-1.701255	<Audio_Player,switch,off> <Beacon_Device,presence,present>	-0.519707
-1.743421	<Audio_Player,switch,off> <Button,button,pushed>	-0.867603
-1.662823	<Audio_Player,switch,off> <Gas_Sensor,odorLevel,greater>	-0.345132
-1.662823	<Audio_Player,switch,off> <Glass_Break_Detector,shock,detected>	-0.230781
-1.627517	<Audio_Player,switch,off> <Moisture_Sensor,water,wet>	-0.345132
-1.636078	<Audio_Player,switch,off> <Sleep_Monitor,sleeping,detected>	-0.452630
-1.721827	<Audio_Player,switch,off> <Smart_TV,switch,on>	-0.230781
-1.777971	<Audio_Player,switch,off> <Temperature_Sensor,temperature,equal>	-0.345132
-1.536119	<Audio_Player,switch,off> <Temperature_Sensor,temperature,lesser>	-0.230781
-1.681614	<Audio_Player,switch,off> <Water_Leak_Detector,water,wet>	-0.329707
-1.042874	<Audio_Player,switch,off> <null,locationMode,away>	-0.494023
-1.636078	<Audio_Player,switch,off> <null,locationMode,night>	-0.753660
-1.391428	<Audio_Player,switch,off> <null,time,morning>	-0.329707
-1.127411	<Audio_Player,switch,on> </s>
-1.433967	<Audio_Player,switch,on> <Beacon_Device,presence,not_present>	-0.355720
-1.398819	<Audio_Player,switch,on> <Beacon_Device,presence,present>	-0.847446
-1.421932	<Audio_Player,switch,on> <Button,button,pushed>	-0.707902
-1.248176	<Audio_Player,switch,on> <null,locationMode,away>	-0.345132
-1.361114	<Audio_Player,switch,on> <null,locationMode,night>	-0.531811
-1.199318	<Audio_Player,switch,on> <null,time,morning>	-0.329707
-1.057257	<Audio_Player,volume,decreased> </s>
-1.320385	<Audio_Player,volume,decreased> <Audio_Player-null,switch-time,on-night>	-1.272174
-1.325108	<Audio_Player,volume,decreased> <Security_Camera-null,switch-locationMode,off-vacation>	-0.345132
-1.320385	<Audio_Player,volume,decreased> <Weather_Station-null,rain-time,true-morning>	-0.832841
-1.157736	<Audio_Player,volume,decreased> <null,locationMode,away>	-1.200818
-0.807998	<Audio_Player-Light_Bulb-Phone,switch-colorValue-notification,on-fixed_value-notify> </s>
-0.876266	<Audio_Player-Light_Bulb-Phone,switch-colorValue-notification,on-fixed_value-notify> <Blood_Pressure_Monitor,pressure,greater>	-1.008932
-0.877253	<Audio_Player-Light_Bulb-Phone,switch-colorValue-notification,on-fixed_value-notify> <Blood_Pressure_Monitor,pressure,lesser>	-1.032414
-1.569824	<Audio_Player-Light_Bulb-Phone,switch-colorValue-notification,on-fixed_value-notify> <Dust_Detector,dust,greater>	-0.329707
-0.861727	<Audio_Player-Light_Bulb-Phone,switch-colorValue-notification,on-fixed_value-notify> <Sleep_Monitor,sleeping,detected>	-0.598758
-1.057257	<Audio_Player-Light_Bulb-Phone-Shades/Blinds,switch-switch-notification-contact,on-on-notify-closed> </s>
-1.311090	<Audio_Player-Light_Bulb-Phone-Shades/Blinds,switch-switch-notification-contact,on-on-notify-closed> <Weather_Station,cold,true>	-0.345132
-1.247078	<Audio_Player-Light_Bulb-Phone-Shades/Blinds,switch-switch-notification-contact,on-on-notify-closed> <null,locationMode,night>	-0.345132
-1.117653	<Audio_Player-Light_Bulb-Phone-Shades/Blinds,switch-switch-notification-contact,on-on-notify-closed> <null,time,morning>	-0.329707
-1.315712	<Audio_Player-Light_Bulb-Phone-Shades/Blinds,switch-switch-notification-contact,on-on-notify-closed> <null-null,locationMode-time,vacation-night>	-0.598758
-0.122624	<Audio_Player-null,switch-time,on-night> <Audio_Player,volume,decreased>	-1.088429
-0.830643	<Beacon_Device,presence,not_present> <Smart_TV,switch,off>	-0.774849
-0.197991	<Beacon_Device,presence,not_present> <null,locationMode,away>	-0.841796
-0.725241	<Beacon_Device,presence,present> <Audio_Player,switch,off>	-0.709541
-0.725664	<Beacon_Device,presence,present> <Audio_Player,switch,on>	-0.776534
-1.200127	<Beacon_Device,presence,present> <Bread_Maker-Light_Bulb-Thermostat,switch-switch-thermostat,on-off-decreased>	-0.957780
-0.801429	<Beacon_Device,presence,present> <Smart_TV,switch,on>	-0.814358
-0.598196	<Beacon_Device,presence,present> <null,locationMode,home>	-1.285139
-0.094384	<Beacon_Device-Light_Bulb,presence-switch,not_present-on> <Light_Bulb,switch,off>	-0.757266
-0.077330	<Beacon_Device-Light_Bulb,presence-switch,present-off> <Light_Bulb,switch,on>	-0.645792
-0.172624	<Beacon_Device-null,presence-time,present-evening> <Bread_Maker-Light_Bulb-Thermostat,switch-switch-thermostat,off-on-increased>	-1.020832
-0.704915	<Blood_Pressure_Monitor,pressure,greater> <Audio_Player-Light_Bulb-Phone,switch-colorValue-notification,on-fixed_value-notify>	-0.613998
-0.295334	<Blood_Pressure_Monitor,pressure,greater> <Phone,notification,notify>	-0.465677
-0.473018	<Blood_Pressure_Monitor,pressure,lesser> <Audio_Player-Light_Bulb-Phone,switch-colorValue-notification,on-fixed_value-notify>	-0.528843
-0.468135	<Blood_Pressure_Monitor,pressure,lesser> <Phone,notification,notify>	-0.409143
-1.368755	<Bread_Maker,switch,on> <Air_Conditioner-Temperature_Sensor,thermostat-temperature,auto-lesser>	-0.598758
-1.384801	<Bread_Maker,switch,on> <Air_Conditioner-null,thermostat-time,off-evening>	-0.867603
-1.379386	<Bread_Maker,switch,on> <Coffee_Maker-null,switch-time,off-morning>	-0.598758
-1.374038	<Bread_Maker,switch,on> <Contact_Sensor,contact,opened>	-0.531811
-1.368755	<Bread_Maker,switch,on> <Light_Bulb-Motion_Sensor,switch-motion,off-detected>	-0.230781
-1.368755	<Bread_Maker,switch,on> <Light_Bulb-Motion_Sensor,switch-motion,on-not_detected>	-0.452630
-0.806079	<Bread_Maker-Light_Bulb-Thermostat,switch-switch-thermostat,off-on-increased> </s>
-0.935761	<Bread_Maker-Light_Bulb-Thermostat,switch-switch-thermostat,off-on-increased> <Beacon_Device-null,presence-time,present-evening>	-1.168633
-1.003979	<Bread_Maker-Light_Bulb-Thermostat,switch-switch-thermostat,on-off-decreased> </s>
-1.190893	<Bread_Maker-Light_Bulb-Thermostat,switch-switch-thermostat,on-off-decreased> <Beacon_Device,presence,present>	-1.321862
-1.231043	<Bread_Maker-Light_Bulb-Thermostat,switch-switch-thermostat,on-off-decreased> <Beacon_Device-null,presence-time,present-evening>	-0.656750
-1.056958	<Bread_Maker-Light_Bulb-Thermostat,switch-switch-thermostat,on-off-decreased> <null,time,morning>	-0.867603
-0.095173	<Bread_Maker-null,switch-time,off-morning> <Bread_Maker,switch,on>	-0.588293
-0.597828	<Button,button,pushed> <Light_Bulb,switch,off>	-0.950941
-0.599750	<Button,button,pushed> <Light_Bulb-Smart_TV,switch-switch,off-off>	-0.957780
-0.500228	<Button,button,pushed> <null,locationMode,night>	-0.612774
-0.095026	<Button-Car_Automation,button-presence,pushed-present> <Garage_Door_Opener,contact,opened>	-0.676443
-0.881571	<CO_Detector,carbonMonoxide,detected> <Phone-Security_Alarm,notification-alarm,notify-siren>	-0.345132
-0.646270	<CO_Detector,carbonMonoxide,detected> <Phone-Security_Alarm,notification-alarm,notify-siren_strobe>	-0.284204
-0.473822	<CO_Detector,carbonMonoxide,detected> <Security_Alarm,alarm,siren>	-0.256672
-0.122624	<CO_Detector-Gas_Sensor,alarm-alarm,siren-siren> <Light_Bulb-Security_Alarm,mode-alarm,flash-strobe>	-0.354531
-0.172624	<CO_Detector-Gas_Sensor,carbonMonoxide-odorLevel,detected-greater> <Light_Bulb-Speaker,colorValue-switch,fixed_value-on>	-0.345132
-0.094598	<CO_Detector-null,carbonMonoxide-locationMode,detected-not_vacation> <Phone-Security_Alarm,notification-alarm,notify-siren_strobe>	-0.433443
-0.076703	<CO_Detector-null,carbonMonoxide-locationMode,detected-vacation> <Phone,notification,notify>	-0.352807
-0.077673	<Car_Automation,presence,present> <Garage_Door_Opener,contact,opened>	-0.798610
-1.151881	<Car_Automation-Garage_Door_Opener,switch-contact,on-opened> </s>
-1.340454	<Car_Automation-Garage_Door_Opener,switch-contact,on-opened> <Air_Purifier,airQuality,lesser>	-1.216058
-1.485053	<Car_Automation-Garage_Door_Opener,switch-contact,on-opened> <Door_Sensor-null,contact-time,opened-morning>	-1.344725
-1.439487	<Car_Automation-Garage_Door_Opener,switch-contact,on-opened> <Security_Alarm,alarm,siren_strobe>	-1.133871
-1.403907	<Car_Automation-Garage_Door_Opener,switch-contact,on-opened> <Sleep_Monitor,sleeping,detected>	-1.230781
-1.499001	<Car_Automation-Garage_Door_Opener,switch-contact,on-opened> <Sleep_Monitor,sleeping,not_detected>	-0.656750
-1.285101	<Car_Automation-Garage_Door_Opener,switch-contact,on-opened> <null,time,night>	-0.753660
-1.506147	<Car_Automation-Garage_Door_Opener,switch-contact,on-opened> <null,time,noon>	-0.867603
-0.120816	<Clothes_Dryer,completion,true> <Phone,notification,notify>	-0.429958
-1.057257	<Clothes_Dryer,mode,ready> </s>
-1.301990	<Clothes_Dryer,mode,ready> <Dishwasher,weight,greater>	-0.230781
-1.311090	<Clothes_Dryer,mode,ready> <Door_Lock-null,lock-time,unlocked-night>	-0.345132
-1.243128	<Clothes_Dryer,mode,ready> <Moisture_Sensor,water,wet>	-0.867603
-1.160978	<Clothes_Dryer,mode,ready> <null,time,night>	-0.230781
-1.227236	<Coffee_Maker,switch,off> <Coffee_Maker,temperature,greater>	-0.832841
-1.219720	<Coffee_Maker,switch,off> <Illuminance_Sensor,illuminance,greater>	-0.452630
-1.216010	<Coffee_Maker,switch,off> <Refrigerator,filterStatus,replace>	-0.345132
-1.056958	<Coffee_Maker,switch,off> <null,time,morning>	-0.531811
-1.777547	<Coffee_Maker,switch,on> <Air_Conditioner-Temperature_Sensor,thermostat-temperature,auto-lesser>	-0.345132
-1.819927	<Coffee_Maker,switch,on> <Air_Conditioner-null,thermostat-time,off-evening>	-0.531811
-1.536053	<Coffee_Maker,switch,on> <Air_Purifier,airQuality,lesser>	-0.867603
-1.835026	<Coffee_Maker,switch,on> <Bread_Maker-null,switch-time,off-morning>	-0.753660
-1.850668	<Coffee_Maker,switch,on> <Coffee_Maker,temperature,greater>	-0.656750
-1.805336	<Coffee_Maker,switch,on> <Coffee_Maker-null,switch-time,off-morning>	-0.329707
-1.791220	<Coffee_Maker,switch,on> <Contact_Sensor,contact,opened>	-0.329707
-1.738937	<Coffee_Maker,switch,on> <Door_Sensor,contact,opened>	-0.355720
-1.726794	<Coffee_Maker,switch,on> <Humidity_Sensor,humidity,lesser>	-0.329707
-1.819927	<Coffee_Maker,switch,on> <Illuminance_Sensor,illuminance,greater>	-0.753660
-1.791220	<Coffee_Maker,switch,on> <Induction_Cooktop-null,switch-locationMode,on-away>	-0.345132
-1.777547	<Coffee_Maker,switch,on> <Light_Bulb-Motion_Sensor,switch-motion,off-detected>	-0.656750
-1.777547	<Coffee_Maker,switch,on> <Light_Bulb-Motion_Sensor,switch-motion,on-not_detected>	-0.957780
-1.621035	<Coffee_Maker,switch,on> <Motion_Sensor,motion,detected>	-0.656750
-1.805336	<Coffee_Maker,switch,on> <Refrigerator,filterStatus,replace>	-0.345132
-1.692278	<Coffee_Maker,switch,on> <Smoke_Detector,smoke,detected>	-0.329707
-1.568079	<Coffee_Maker,switch,on> <Temperature_Sensor,temperature,greater>	-0.647905
-1.445780	<Coffee_Maker,switch,on> <null,locationMode,away>	-0.832841
-1.371081	<Coffee_Maker,switch,on> <null,time,morning>	-1.509535
-0.122624	<Coffee_Maker,temperature,greater> <Coffee_Maker,switch,off>	-0.621164
-1.127411	<Coffee_Maker-Door_Lock-Garage_Door_Opener-Gas_Stove-Light_Bulb-Shades/Blinds-Smart_TV-Speaker,switch-lock-contact-switch-switch-contact-switch-switch,off-locked-closed-off-off-closed-off-off> </s>
-1.459086	<Coffee_Maker-Door_Lock-Garage_Door_Opener-Gas_Stove-Light_Bulb-Shades/Blinds-Smart_TV-Speaker,switch-lock-contact-switch-switch-contact-switch-switch,off-locked-closed-off-off-closed-off-off> <Security_Alarm-null,alarm-locationMode,siren_strobe-away>	-0.345132
-1.446345	<Coffee_Maker-Door_Lock-Garage_Door_Opener-Gas_Stove-Light_Bulb-Shades/Blinds-Smart_TV-Speaker,switch-lock-contact-switch-switch-contact-switch-switch,off-locked-closed-off-off-closed-off-off> <Weather_Station,cold,true>	-0.329707
-1.410222	<Coffee_Maker-Door_Lock-Garage_Door_Opener-Gas_Stove-Light_Bulb-Shades/Blinds-Smart_TV-Speaker,switch-lock-contact-switch-switch-contact-switch-switch,off-locked-closed-off-off-closed-off-off> <Weather_Station,rain,true>	-0.929751
-1.361114	<Coffee_Maker-Door_Lock-Garage_Door_Opener-Gas_Stove-Light_Bulb-Shades/Blinds-Smart_TV-Speaker,switch-lock-contact-switch-switch-contact-switch-switch,off-locked-closed-off-off-closed-off-off> <null,locationMode,night>	-1.333444
-1.199318	<Coffee_Maker-Door_Lock-Garage_Door_Opener-Gas_Stove-Light_Bulb-Shades/Blinds-Smart_TV-Speaker,switch-lock-contact-switch-switch-contact-switch-switch,off-locked-closed-off-off-closed-off-off> <null,time,morning>	-0.832841
-1.452669	<Coffee_Maker-Door_Lock-Garage_Door_Opener-Gas_Stove-Light_Bulb-Shades/Blinds-Smart_TV-Speaker,switch-lock-contact-switch-switch-contact-switch-switch,off-locked-closed-off-off-closed-off-off> <null-null,locationMode-time,vacation-night>	-0.329707
-1.231043	<Coffee_Maker-Light_Bulb-Robot_Vacuum,switch-switch-switch,on-on-on> <Temperature_Sensor-null,temperature-time,lesser-afternoon>	-0.329707
-1.231043	<Coffee_Maker-Light_Bulb-Robot_Vacuum,switch-switch-switch,on-on-on> <Temperature_Sensor-null,temperature-time,lesser-morning>	-0.531811
-1.190893	<Coffee_Maker-Light_Bulb-Robot_Vacuum,switch-switch-switch,on-on-on> <Temperature_Sensor-null,temperature-time,lesser-night>	-0.230781
-1.056958	<Coffee_Maker-Light_Bulb-Robot_Vacuum,switch-switch-switch,on-on-on> <null,time,morning>	-1.258810
-1.003979	<Coffee_Maker-Light_Bulb-Thermostat,switch-colorValue-thermostat,on-fixed_value-increased> </s>
-1.190893	<Coffee_Maker-Light_Bulb-Thermostat,switch-colorValue-thermostat,on-fixed_value-increased> <Beacon_Device,presence,present>	-1.008932
-1.231043	<Coffee_Maker-Light_Bulb-Thermostat,switch-colorValue-thermostat,on-fixed_value-increased> <Beacon_Device-null,presence-time,present-evening>	-0.230781
-1.056958	<Coffee_Maker-Light_Bulb-Thermostat,switch-colorValue-thermostat,on-fixed_value-increased> <null,time,morning>	-0.984109
-1.151881	<Coffee_Maker-Shades/Blinds,switch-contact,on-opened> </s>
-1.513412	<Coffee_Maker-Shades/Blinds,switch-contact,on-opened> <Security_Alarm-null,alarm-locationMode,siren_strobe-away>	-0.355720
-1.499001	<Coffee_Maker-Shades/Blinds,switch-contact,on-opened> <Weather_Station,cold,true>	-0.355720
-1.458433	<Coffee_Maker-Shades/Blinds,switch-contact,on-opened> <Weather_Station,rain,true>	-0.345132
-1.403907	<Coffee_Maker-Shades/Blinds,switch-contact,on-opened> <null,locationMode,night>	-0.355720
-1.228344	<Coffee_Maker-Shades/Blinds,switch-contact,on-opened> <null,time,morning>	-1.200818
-1.513412	<Coffee_Maker-Shades/Blinds,switch-contact,on-opened> <null-null,locationMode-time,vacation-morning>	-0.345132
-1.506147	<Coffee_Maker-Shades/Blinds,switch-contact,on-opened> <null-null,locationMode-time,vacation-night>	-0.329707
-0.065703	<Coffee_Maker-null,switch-time,off-morning> <Coffee_Maker,switch,on>	-0.681133
-0.056999	<Contact_Sensor,contact,opened> <Security_Camera,image,take>	-0.719802
-0.121289	<Contact_Sensor-null,contact-time,opened-night> <Security_Alarm,alarm,siren_strobe>	-1.325757
-1.096792	<Dishwasher,mode,ready> </s>
-1.374038	<Dishwasher,mode,ready> <Dishwasher,weight,greater>	-0.795053
-1.384801	<Dishwasher,mode,ready> <Door_Lock-null,lock-time,unlocked-night>	-0.867603
-1.274699	<Dishwasher,mode,ready> <Temperature_Sensor,temperature,greater>	-0.522966
-1.163407	<Dishwasher,mode,ready> <null,time,morning>	-0.230781
-1.211824	<Dishwasher,mode,ready> <null,time,night>	-0.929751
-0.056999	<Dishwasher,weight,greater> <Dishwasher,mode,ready>	-0.795053
-0.969429	<Door_Lock,lock,locked> </s>
-2.155264	<Door_Lock,lock,locked> <Air_Conditioner-null,thermostat-time,auto-night>	-0.230781
-1.778613	<Door_Lock,lock,locked> <Air_Purifier,airQuality,lesser>	-1.075879
-2.132798	<Door_Lock,lock,locked> <CO_Detector,carbonMonoxide,detected>	-0.345132
-2.132798	<Door_Lock,lock,locked> <Dishwasher,weight,greater>	-0.707902
-2.155264	<Door_Lock,lock,locked> <Door_Lock-Presence_Sensor-null,lock-presence-time,unlocked-not_present-night>	-0.345132
-2.155264	<Door_Lock,lock,locked> <Door_Lock-null,lock-locationMode,unlocked-away>	-0.753660
-2.178957	<Door_Lock,lock,locked> <Door_Lock-null,lock-time,unlocked-night>	-0.355720
-2.053015	<Door_Lock,lock,locked> <Door_Sensor,contact,opened>	-0.452630
-1.537482	<Door_Lock,lock,locked> <Doorbell,button,pushed>	-0.753660
-2.178957	<Door_Lock,lock,locked> <Garage_Door_Opener-null,contact-locationMode,opened-away>	-0.345132
-1.955504	<Door_Lock,lock,locked> <Gas_Sensor,odorLevel,greater>	-0.531811
-1.955504	<Door_Lock,lock,locked> <Glass_Break_Detector,shock,detected>	-0.230781
-2.035166	<Door_Lock,lock,locked> <Humidity_Sensor,humidity,lesser>	-0.329707
-2.091077	<Door_Lock,lock,locked> <Humidity_Sensor-Temperature_Sensor,humidity-temperature,greater-greater>	-0.230781
-2.132798	<Door_Lock,lock,locked> <Illuminance_Sensor-Motion_Sensor,illuminance-motion,lesser-detected>	-0.707902
-2.178957	<Door_Lock,lock,locked> <Light_Bulb-null,switch-locationMode,on-away>	-0.230781
-1.900864	<Door_Lock,lock,locked> <Moisture_Sensor,water,wet>	-0.598758
-1.505344	<Door_Lock,lock,locked> <Motion_Sensor,motion,detected>	-0.799172
-2.204017	<Door_Lock,lock,locked> <Motion_Sensor-Shades/Blinds-null,motion-contact-time,not_detected-closed-day>	-0.531811
-2.155264	<Door_Lock,lock,locked> <Presence_Sensor,presence,not_present>	-0.345132
-2.053015	<Door_Lock,lock,locked> <Presence_Sensor,presence,present>	-0.598758
-2.071629	<Door_Lock,lock,locked> <Pulse_Monitor,pulse,greater>	-0.531811
-1.913893	<Door_Lock,lock,locked> <Sleep_Monitor,sleeping,detected>	-0.531811
-2.053015	<Door_Lock,lock,locked> <Smart_TV,switch,on>	-0.598758
-1.543078	<Door_Lock,lock,locked> <Smoke_Detector,smoke,detected>	-0.345132
-1.305204	<Door_Lock,lock,locked> <Temperature_Sensor,temperature,greater>	-0.673797
-1.451970	<Door_Lock,lock,locked> <Temperature_Sensor,temperature,lesser>	-0.770916
-2.178957	<Door_Lock,lock,locked> <Temperature_Sensor-null,temperature-time,greater-night>	-0.329707
-1.543078	<Door_Lock,lock,locked> <Water_Leak_Detector,water,wet>	-0.256672
-1.400370	<Door_Lock,lock,locked> <null,locationMode,away>	-1.008932
-1.537482	<Door_Lock,lock,locked> <null,locationMode,home>	-1.324598
-2.111437	<Door_Lock,lock,locked> <null,time,afternoon>	-0.651421
-1.350624	<Door_Lock,lock,locked> <null,time,morning>	-0.577569
-1.255995	<Door_Lock,lock,locked> <null,time,night>	-0.787084
-2.155264	<Door_Lock,lock,locked> <null-null,locationMode-time,home-night>	-0.753660
-1.057257	<Door_Lock-Light_Bulb-Phone-Shades/Blinds-Smart_TV-Speaker,lock-colorValue-notification-contact-switch-volume,locked-fixed_value-notify-opened-on-fixed_value> </s>
-1.320385	<Door_Lock-Light_Bulb-Phone-Shades/Blinds-Smart_TV-Speaker,lock-colorValue-notification-contact-switch-volume,locked-fixed_value-notify-opened-on-fixed_value> <Security_Alarm-null,alarm-locationMode,siren_strobe-away>	-0.345132
-1.311090	<Door_Lock-Light_Bulb-Phone-Shades/Blinds-Smart_TV-Speaker,lock-colorValue-notification-contact-switch-volume,locked-fixed_value-notify-opened-on-fixed_value> <Weather_Station,cold,true>	-0.345132
-1.247078	<Door_Lock-Light_Bulb-Phone-Shades/Blinds-Smart_TV-Speaker,lock-colorValue-notification-contact-switch-volume,locked-fixed_value-notify-opened-on-fixed_value> <null,locationMode,night>	-0.230781
-1.117653	<Door_Lock-Light_Bulb-Phone-Shades/Blinds-Smart_TV-Speaker,lock-colorValue-notification-contact-switch-volume,locked-fixed_value-notify-opened-on-fixed_value> <null,time,morning>	-0.345132
-1.212332	<Door_Lock-Lighting_Remote-Robot_Vacuum-Thermostat,lock-switch-switch-thermostat,locked-off-on-auto> <Beacon_Device,presence,not_present>	-0.929751
-1.190893	<Door_Lock-Lighting_Remote-Robot_Vacuum-Thermostat,lock-switch-switch-thermostat,locked-off-on-auto> <Beacon_Device,presence,present>	-0.656750
-1.091598	<Door_Lock-Lighting_Remote-Robot_Vacuum-Thermostat,lock-switch-switch-thermostat,locked-off-on-auto> <null,locationMode,away>	-0.929751
-1.056958	<Door_Lock-Lighting_Remote-Robot_Vacuum-Thermostat,lock-switch-switch-thermostat,locked-off-on-auto> <null,time,morning>	-1.008932
-1.096792	<Door_Lock-Phone-Shades/Blinds,lock-notification-contact,locked-notify-closed> </s>
-1.384801	<Door_Lock-Phone-Shades/Blinds,lock-notification-contact,locked-notify-closed> <Weather_Station,cold,true>	-0.329707
-1.353282	<Door_Lock-Phone-Shades/Blinds,lock-notification-contact,locked-notify-closed> <Weather_Station,rain,true>	-0.452630
-1.309917	<Door_Lock-Phone-Shades/Blinds,lock-notification-contact,locked-notify-closed> <null,locationMode,night>	-0.795053
-1.163407	<Door_Lock-Phone-Shades/Blinds,lock-notification-contact,locked-notify-closed> <null,time,morning>	-0.345132
-1.395837	<Door_Lock-Phone-Shades/Blinds,lock-notification-contact,locked-notify-closed> <null-null,locationMode-time,vacation-morning>	-0.345132
-0.065595	<Door_Lock-Presence_Sensor-null,lock-presence-time,unlocked-not_present-night> <Door_Lock,lock,locked>	-0.491351
-0.065595	<Door_Lock-null,lock-locationMode,unlocked-away> <Door_Lock,lock,locked>	-0.688729
-0.077559	<Door_Lock-null,lock-time,unlocked-night> <Door_Lock,lock,locked>	-0.608977
-0.144945	<Door_Sensor,contact,opened> <Light_Bulb,switch,on>	-1.059489
-0.836112	<Door_Sensor,contact,opened> <Phone,notification,notify>	-0.622519
-0.665454	<Door_Sensor-null,contact-locationMode,opened-away> <Air_Conditioner,thermostat,off>	-1.413125
-0.190190	<Door_Sensor-null,contact-locationMode,opened-away> <Security_Alarm,alarm,siren_strobe>	-0.928481
-0.171479	<Door_Sensor-null,contact-locationMode,opened-vacation> <Phone-Security_Alarm,notification-alarm,notify-siren_strobe>	-0.336251
-0.056999	<Door_Sensor-null,contact-time,opened-morning> <Car_Automation-Garage_Door_Opener,switch-contact,on-opened>	-1.067147
-0.172624	<Door_Sensor-null-null,contact-locationMode-time,opened-away-evening> <Air_Conditioner-Light_Bulb,thermostat-switch,auto-on>	-1.286779
-0.576167	<Doorbell,button,pushed> <Phone,notification,notify>	-0.637983
-0.198777	<Doorbell,button,pushed> <Security_Camera,switch,on>	-1.115011
-0.093814	<Dust_Detector,dust,greater> <Phone,notification,notify>	-0.668709
-0.955333	<Electric_Blanket,switch,on> </s>
-1.875518	<Electric_Blanket,switch,on> <Air_Purifier,airQuality,greater>	-0.656750
-1.229364	<Electric_Blanket,switch,on> <Air_Purifier,airQuality,lesser>	-1.355720
-1.917747	<Electric_Blanket,switch,on> <Door_Sensor-null,contact-time,opened-morning>	-1.054690
-1.801683	<Electric_Blanket,switch,on> <Doorbell,button,pushed>	-0.753660
-1.790512	<Electric_Blanket,switch,on> <Gas_Sensor,odorLevel,greater>	-0.230781
-1.889143	<Electric_Blanket,switch,on> <Gas_Sensor,odorLevel,lesser>	-0.345132
-1.790512	<Electric_Blanket,switch,on> <Glass_Break_Detector,shock,detected>	-0.329707
-1.837033	<Electric_Blanket,switch,on> <Humidity_Sensor,humidity,greater>	-0.867603
-1.875518	<Electric_Blanket,switch,on> <Pulse_Monitor,pulse,greater>	-0.345132
-1.824928	<Electric_Blanket,switch,on> <Security_Alarm,alarm,siren_strobe>	-0.531811
-1.758624	<Electric_Blanket,switch,on> <Sleep_Monitor,sleeping,detected>	-1.216058
-1.948368	<Electric_Blanket,switch,on> <Sleep_Monitor,sleeping,not_detected>	-0.230781
-1.917747	<Electric_Blanket,switch,on> <Smoke_Detector,battery,lesser>	-0.329707
-1.683522	<Electric_Blanket,switch,on> <Temperature_Sensor,temperature,greater>	-1.115388
-1.226345	<Electric_Blanket,switch,on> <Temperature_Sensor,temperature,lesser>	-0.738937
-1.837033	<Electric_Blanket,switch,on> <Temperature_Sensor-null,temperature-time,lesser-night>	-0.984109
-1.801683	<Electric_Blanket,switch,on> <null,locationMode,home>	-0.345132
-1.480623	<Electric_Blanket,switch,on> <null,time,morning>	-0.355720
-1.017626	<Electric_Blanket,switch,on> <null,time,night>	-0.807707
-0.076703	<Energy_Meter,energy,greater> <Phone,notification,notify>	-0.486369
-0.806079	<External_API,news,notify> </s>
-0.900426	<External_API,news,notify> <null,time,evening>	-1.258810
-1.108969	<External_API,traffic,notify> <External_API-null,traffic-time,heavy-morning>	-0.957780
-1.057313	<External_API,traffic,notify> <null,time,evening>	-0.598758
-0.971532	<External_API,traffic,notify> <null,time,morning>	-0.867603
-0.172624	<External_API-null,traffic-time,heavy-morning> <External_API,traffic,notify>	-0.832841
-1.096792	<Fan,switch,on> </s>
-1.374038	<Fan,switch,on> <Dishwasher,weight,greater>	-1.185024
-1.384801	<Fan,switch,on> <Door_Lock-null,lock-time,unlocked-night>	-1.032414
-1.274699	<Fan,switch,on> <Temperature_Sensor,temperature,greater>	-0.230781
-1.163407	<Fan,switch,on> <null,time,morning>	-0.531811
-1.211824	<Fan,switch,on> <null,time,night>	-1.200818
-0.863325	<Garage_Door_Opener,contact,closed> </s>
-1.659146	<Garage_Door_Opener,contact,closed> <Car_Automation,presence,present>	-0.984109
-1.678464	<Garage_Door_Opener,contact,closed> <Clothes_Dryer,completion,true>	-0.329707
-1.649800	<Garage_Door_Opener,contact,closed> <Door_Lock-null,lock-locationMode,unlocked-away>	-0.230781
-1.659146	<Garage_Door_Opener,contact,closed> <Garage_Door_Opener,signalStrength,lesser>	-0.452630
-1.659146	<Garage_Door_Opener,contact,closed> <Garage_Door_Opener-null,contact-locationMode,opened-away>	-0.656750
-1.649800	<Garage_Door_Opener,contact,closed> <Illuminance_Sensor,illuminance,lesser>	-0.656750
-1.573666	<Garage_Door_Opener,contact,closed> <Smoke_Detector,smoke,detected>	-0.230781
-1.452567	<Garage_Door_Opener,contact,closed> <Temperature_Sensor,temperature,lesser>	-0.531811
-1.659146	<Garage_Door_Opener,contact,closed> <Temperature_Sensor-null,temperature-time,greater-night>	-0.329707
-1.589469	<Garage_Door_Opener,contact,closed> <Temperature_Sensor-null,temperature-time,lesser-night>	-0.329707
-0.812796	<Garage_Door_Opener,contact,opened> </s>
-1.805932	<Garage_Door_Opener,contact,opened> <Beacon_Device-Light_Bulb,presence-switch,not_present-on>	-0.656750
-1.793978	<Garage_Door_Opener,contact,opened> <Beacon_Device-Light_Bulb,presence-switch,present-off>	-0.753660
-1.805932	<Garage_Door_Opener,contact,opened> <Button-Car_Automation,button-presence,pushed-present>	-0.984109
-1.830874	<Garage_Door_Opener,contact,opened> <CO_Detector-Gas_Sensor,carbonMonoxide-odorLevel,detected-greater>	-0.345132
-1.793978	<Garage_Door_Opener,contact,opened> <Car_Automation,presence,present>	-0.230781
-1.793978	<Garage_Door_Opener,contact,opened> <Garage_Door_Opener,signalStrength,lesser>	-1.230781
-1.671504	<Garage_Door_Opener,contact,opened> <Gas_Sensor,odorLevel,greater>	-0.345132
-1.782345	<Garage_Door_Opener,contact,opened> <Illuminance_Sensor,illuminance,lesser>	-0.531811
-1.099824	<Garage_Door_Opener,contact,opened> <Motion_Sensor,motion,detected>	-0.707902
-1.728438	<Garage_Door_Opener,contact,opened> <Presence_Sensor,presence,present>	-0.867603
-1.548423	<Garage_Door_Opener,contact,opened> <Temperature_Sensor,temperature,lesser>	-0.329707
-1.728438	<Garage_Door_Opener,contact,opened> <Weather_Station,rain,true>	-0.452630
-1.474672	<Garage_Door_Opener,contact,opened> <null,locationMode,away>	-0.355720
-0.077690	<Garage_Door_Opener,signalStrength,lesser> <Garage_Door_Opener,contact,closed>	-0.598758
-0.077690	<Garage_Door_Opener-null,contact-locationMode,opened-away> <Garage_Door_Opener,contact,closed>	-0.392632
-1.243042	<Garden_Sprinkler,switch,on> </s>
-1.748799	<Garden_Sprinkler,switch,on> <CO_Detector-null,carbonMonoxide-locationMode,detected-not_vacation>	-0.452630
-1.736381	<Garden_Sprinkler,switch,on> <CO_Detector-null,carbonMonoxide-locationMode,detected-vacation>	-0.230781
-1.658171	<Garden_Sprinkler,switch,on> <Door_Sensor-null,contact-locationMode,opened-away>	-1.524512
-1.774754	<Garden_Sprinkler,switch,on> <Door_Sensor-null,contact-locationMode,opened-vacation>	-0.230781
-1.761583	<Garden_Sprinkler,switch,on> <Gas_Sensor-null,odorLevel-locationMode,greater-not_vacation>	-0.345132
-1.774754	<Garden_Sprinkler,switch,on> <Glass_Break_Detector-null,shock-locationMode,detected-vacation>	-0.345132
-1.701125	<Garden_Sprinkler,switch,on> <Temperature_Sensor-null,temperature-locationMode,greater-not_vacation>	-1.075879
-1.724308	<Garden_Sprinkler,switch,on> <Temperature_Sensor-null,temperature-locationMode,lesser-not_vacation>	-1.133871
-1.761583	<Garden_Sprinkler,switch,on> <Water_Leak_Detector-null,water-locationMode,wet-not_vacation>	-0.345132
-1.748799	<Garden_Sprinkler,switch,on> <Water_Leak_Detector-null,water-locationMode,wet-vacation>	-0.329707
-1.689982	<Garden_Sprinkler,switch,on> <Weather_Station-null,rain-time,false-night>	-1.416418
-1.689982	<Garden_Sprinkler,switch,on> <null,locationMode,vacation>	-0.452630
-1.574708	<Garden_Sprinkler,switch,on> <null,time,evening>	-0.452630
-1.339485	<Garden_Sprinkler,switch,on> <null,time,morning>	-0.707902
-0.024177	<Gas_Sensor,odorLevel,greater> <Security_Alarm,alarm,siren_strobe>	-0.437492
-0.044985	<Gas_Sensor,odorLevel,lesser> <Security_Alarm,alarm,off>	-0.370722
-0.121859	<Gas_Sensor-null,odorLevel-locationMode,greater-not_vacation> <Phone-Security_Alarm,notification-alarm,notify-siren_strobe>	-0.557702
-0.064880	<Gas_Sensor-null,odorLevel-locationMode,greater-vacation> <Phone,notification,notify>	-0.348882
-0.817931	<Gas_Stove,switch,off> </s>
-1.434826	<Gas_Stove,switch,off> <Air_Purifier,airQuality,lesser>	-0.345132
-1.554131	<Gas_Stove,switch,off> <Door_Sensor,contact,opened>	-0.452630
-1.602494	<Gas_Stove,switch,off> <Gas_Stove-null,switch-timer,on-completed>	-0.598758
-1.547642	<Gas_Stove,switch,off> <Humidity_Sensor,humidity,lesser>	-1.096083
-1.374620	<Gas_Stove,switch,off> <null,locationMode,away>	-0.504852
-1.321753	<Gas_Stove,switch,off> <null,time,morning>	-0.452630
-0.863442	<Gas_Stove,switch,off> <null,time,night>	-0.267693
-0.095046	<Gas_Stove-null,switch-timer,on-completed> <Gas_Stove,switch,off>	-0.688544
-0.641432	<Glass_Break_Detector,shock,detected> <Security_Alarm,alarm,siren>	-0.573301
-0.858820	<Glass_Break_Detector,shock,detected> <Security_Alarm,alarm,siren_strobe>	-0.332748
-0.300032	<Glass_Break_Detector,shock,detected> <Security_Camera,switch,on>	-0.461051
-0.065404	<Glass_Break_Detector-null,shock-locationMode,detected-away> <Phone-Security_Alarm,notification-alarm,notify-siren_strobe>	-0.651169
-0.076988	<Glass_Break_Detector-null,shock-locationMode,detected-night> <Security_Alarm,alarm,siren_strobe>	-0.562349
-0.171479	<Glass_Break_Detector-null,shock-locationMode,detected-vacation> <Phone-Security_Alarm,notification-alarm,notify-siren_strobe>	-0.334788
-1.151881	<Heater,switch,off> </s>
-1.499001	<Heater,switch,off> <Air_Conditioner-Temperature_Sensor,thermostat-temperature,auto-greater>	-0.957780
-1.340454	<Heater,switch,off> <Air_Purifier,airQuality,lesser>	-1.546052
-1.452025	<Heater,switch,off> <Moisture_Sensor,water,dry>	-1.297728
-1.398250	<Heater,switch,off> <Moisture_Sensor,water,wet>	-1.651287
-1.499001	<Heater,switch,off> <Refrigerator,temperature,greater>	-0.795053
-1.228344	<Heater,switch,off> <null,time,morning>	-0.930451
-1.285101	<Heater,switch,off> <null,time,night>	-0.345132
-0.908683	<Heater,switch,on> </s>
-1.715987	<Heater,switch,on> <Air_Conditioner-Temperature_Sensor,thermostat-temperature,auto-greater>	-1.032414
-1.491308	<Heater,switch,on> <Air_Purifier,airQuality,lesser>	-1.546052
-1.738350	<Heater,switch,on> <Clothes_Dryer,completion,true>	-0.230781
-1.705223	<Heater,switch,on> <Door_Lock-null,lock-locationMode,unlocked-away>	-0.345132
-1.715987	<Heater,switch,on> <Garage_Door_Opener-null,contact-locationMode,opened-away>	-0.329707
-1.645704	<Heater,switch,on> <Moisture_Sensor,water,dry>	-1.321862
-1.569388	<Heater,switch,on> <Moisture_Sensor,water,wet>	-1.245022
-1.715987	<Heater,switch,on> <Refrigerator,temperature,greater>	-0.832841
-1.715987	<Heater,switch,on> <Temperature_Sensor-null,temperature-time,greater-night>	-0.345132
-1.636531	<Heater,switch,on> <Temperature_Sensor-null,temperature-time,lesser-night>	-0.795053
-1.348626	<Heater,switch,on> <null,time,morning>	-0.656750
-1.419607	<Heater,switch,on> <null,time,night>	-0.329707
-0.877605	<Humidifier,switch,on> </s>
-1.588462	<Humidifier,switch,on> <Air_Purifier,airQuality,lesser>	-0.984109
-1.881163	<Humidifier,switch,on> <Blood_Pressure_Monitor,pressure,lesser>	-0.452630
-1.787566	<Humidifier,switch,on> <Door_Sensor,contact,opened>	-0.795053
-1.881163	<Humidifier,switch,on> <Gas_Stove-null,switch-timer,on-completed>	-1.075879
-1.764151	<Humidifier,switch,on> <Humidity_Sensor,humidity,greater>	-0.707902
-1.775701	<Humidifier,switch,on> <Humidity_Sensor,humidity,lesser>	-1.791086
-1.812314	<Humidifier,switch,on> <Humidity_Sensor-Temperature_Sensor,humidity-temperature,greater-greater>	-0.867603
-1.881163	<Humidifier,switch,on> <Illuminance_Sensor-null,illuminance-time,lesser-night>	-0.656750
-1.775701	<Humidifier,switch,on> <Moisture_Sensor,water,dry>	-1.032414
-1.672068	<Humidifier,switch,on> <Motion_Sensor,motion,detected>	-0.707902
-1.881163	<Humidifier,switch,on> <Motion_Sensor-Security_Camera,motion-image,detected-take>	-1.333444
-1.881163	<Humidifier,switch,on> <Refrigerator-null,contact-time,opened-evening>	-0.707902
-1.690910	<Humidifier,switch,on> <Sleep_Monitor,sleeping,detected>	-0.598758
-1.620000	<Humidifier,switch,on> <Temperature_Sensor,temperature,greater>	-0.858732
-1.499388	<Humidifier,switch,on> <null,locationMode,away>	-0.980072
-1.425510	<Humidifier,switch,on> <null,time,morning>	-0.832841
-1.116162	<Humidifier,switch,on> <null,time,night>	-0.850570
-0.277313	<Humidity_Sensor,humidity,greater> <Air_Conditioner,thermostat,auto>	-0.760314
-0.674383	<Humidity_Sensor,humidity,greater> <Humidifier,switch,on>	-0.772432
-0.973994	<Humidity_Sensor,humidity,greater> <Smart_Mirror,switch,off>	-1.227147
-0.034133	<Humidity_Sensor,humidity,lesser> <Humidifier,switch,on>	-1.126265
-0.044728	<Humidity_Sensor-Temperature_Sensor,humidity-temperature,greater-greater> <Air_Conditioner,thermostat,auto>	-0.904749
-0.077159	<Illuminance_Sensor,illuminance,greater> <Light_Bulb,switch,off>	-0.663302
-0.065404	<Illuminance_Sensor,illuminance,lesser> <Light_Bulb,switch,on>	-0.749743
-0.056669	<Illuminance_Sensor-Motion_Sensor,illuminance-motion,lesser-detected> <Light_Bulb,switch,on>	-0.694564
-0.094955	<Illuminance_Sensor-null,illuminance-time,lesser-night> <Light_Bulb,colorValue,fixed_value>	-1.129324
-0.056220	<Induction_Cooktop-null,switch-locationMode,on-away> <Phone,notification,notify>	-0.496954
-0.966274	<Light_Bulb,colorValue,fixed_value> </s>
-1.456429	<Light_Bulb,colorValue,fixed_value> <Air_Purifier,airQuality,greater>	-0.929751
-1.368939	<Light_Bulb,colorValue,fixed_value> <Air_Purifier,airQuality,lesser>	-0.899788
-2.108502	<Light_Bulb,colorValue,fixed_value> <Blood_Pressure_Monitor,pressure,lesser>	-0.329707
-2.108502	<Light_Bulb,colorValue,fixed_value> <Button-Car_Automation,button-presence,pushed-present>	-1.115388
-2.149967	<Light_Bulb,colorValue,fixed_value> <CO_Detector-Gas_Sensor,carbonMonoxide-odorLevel,detected-greater>	-0.345132
-1.426635	<Light_Bulb,colorValue,fixed_value> <Gas_Sensor,odorLevel,greater>	-0.355720
-1.460857	<Light_Bulb,colorValue,fixed_value> <Gas_Sensor,odorLevel,lesser>	-0.531811
-2.108502	<Light_Bulb,colorValue,fixed_value> <Gas_Stove-null,switch-timer,on-completed>	-0.598758
-2.070653	<Light_Bulb,colorValue,fixed_value> <Glass_Break_Detector-null,shock-locationMode,detected-away>	-0.345132
-2.089165	<Light_Bulb,colorValue,fixed_value> <Glass_Break_Detector-null,shock-locationMode,detected-night>	-0.598758
-1.236590	<Light_Bulb,colorValue,fixed_value> <Humidity_Sensor,humidity,greater>	-0.832841
-1.973609	<Light_Bulb,colorValue,fixed_value> <Humidity_Sensor,humidity,lesser>	-0.984109
-2.108502	<Light_Bulb,colorValue,fixed_value> <Illuminance_Sensor-null,illuminance-time,lesser-night>	-1.366444
-1.848537	<Light_Bulb,colorValue,fixed_value> <Motion_Sensor,motion,detected>	-0.957780
-2.108502	<Light_Bulb,colorValue,fixed_value> <Smoke_Detector-Temperature_Sensor,smoke-temperature,greater-greater>	-0.345132
-1.383591	<Light_Bulb,colorValue,fixed_value> <Temperature_Sensor,temperature,greater>	-0.906694
-1.365352	<Light_Bulb,colorValue,fixed_value> <Temperature_Sensor,temperature,lesser>	-0.929751
-1.443409	<Light_Bulb,colorValue,fixed_value> <Temperature_Sensor-null,temperature-time,lesser-night>	-0.832841
-1.988351	<Light_Bulb,colorValue,fixed_value> <Weather_Station,rain,true>	-1.452630
-1.651110	<Light_Bulb,colorValue,fixed_value> <null,locationMode,away>	-0.656750
-1.870834	<Light_Bulb,colorValue,fixed_value> <null,locationMode,night>	-1.008932
-1.859542	<Light_Bulb,colorValue,fixed_value> <null,time,evening>	-1.151600
-1.569594	<Light_Bulb,colorValue,fixed_value> <null,time,morning>	-0.329707
-1.327735	<Light_Bulb,colorValue,fixed_value> <null,time,night>	-0.753660
-0.950626	<Light_Bulb,switch,off> </s>
-2.197960	<Light_Bulb,switch,off> <Air_Conditioner-Temperature_Sensor,thermostat-temperature,auto-lesser>	-1.321862
-2.306978	<Light_Bulb,switch,off> <Air_Conditioner-null,thermostat-time,auto-morning>	-0.984109
-2.249058	<Light_Bulb,switch,off> <Air_Conditioner-null,thermostat-time,auto-night>	-0.345132
-2.277053	<Light_Bulb,switch,off> <Air_Conditioner-null,thermostat-time,off-evening>	-0.795053
-2.152247	<Light_Bulb,switch,off> <Air_Purifier,airQuality,greater>	-0.929751
-1.271759	<Light_Bulb,switch,off> <Air_Purifier,airQuality,lesser>	-1.151600
-2.306978	<Light_Bulb,switch,off> <Beacon_Device-Light_Bulb,presence-switch,not_present-on>	-0.832841
-2.277053	<Light_Bulb,switch,off> <Beacon_Device-Light_Bulb,presence-switch,present-off>	-0.598758
-2.306978	<Light_Bulb,switch,off> <Bread_Maker-null,switch-time,off-morning>	-0.832841
-2.174503	<Light_Bulb,switch,off> <Button,button,pushed>	-0.996698
-2.277053	<Light_Bulb,switch,off> <Car_Automation,presence,present>	-0.795053
-2.249058	<Light_Bulb,switch,off> <Coffee_Maker-null,switch-time,off-morning>	-0.867603
-2.222758	<Light_Bulb,switch,off> <Contact_Sensor,contact,opened>	-1.245022
-1.685885	<Light_Bulb,switch,off> <Door_Sensor,contact,opened>	-1.200818
-2.110891	<Light_Bulb,switch,off> <Door_Sensor-null,contact-locationMode,opened-away>	-0.957780
-2.277053	<Light_Bulb,switch,off> <Garage_Door_Opener,signalStrength,lesser>	-0.230781
-2.022017	<Light_Bulb,switch,off> <Gas_Sensor,odorLevel,greater>	-0.452630
-2.174503	<Light_Bulb,switch,off> <Gas_Sensor,odorLevel,lesser>	-0.345132
-2.022017	<Light_Bulb,switch,off> <Glass_Break_Detector,shock,detected>	-0.345132
-2.091602	<Light_Bulb,switch,off> <Humidity_Sensor,humidity,greater>	-1.054690
-1.678535	<Light_Bulb,switch,off> <Humidity_Sensor,humidity,lesser>	-0.899788
-1.501616	<Light_Bulb,switch,off> <Humidity_Sensor-Temperature_Sensor,humidity-temperature,greater-greater>	-1.075879
-2.277053	<Light_Bulb,switch,off> <Illuminance_Sensor,illuminance,greater>	-0.957780
-1.716598	<Light_Bulb,switch,off> <Induction_Cooktop-null,switch-locationMode,on-away>	-0.795053
-2.197960	<Light_Bulb,switch,off> <Light_Bulb-Motion_Sensor,switch-motion,off-detected>	-0.957780
-2.197960	<Light_Bulb,switch,off> <Light_Bulb-Motion_Sensor,switch-motion,on-not_detected>	-1.452630
-1.442745	<Light_Bulb,switch,off> <Motion_Sensor,motion,detected>	-0.996698
-1.732809	<Light_Bulb,switch,off> <Motion_Sensor,motion,not_detected>	-0.753660
-2.131077	<Light_Bulb,switch,off> <Presence_Sensor,presence,present>	-0.899788
-2.339119	<Light_Bulb,switch,off> <Pulse_Monitor,pulse,lesser>	-0.345132
-2.249058	<Light_Bulb,switch,off> <Refrigerator,filterStatus,replace>	-0.345132
-1.623822	<Light_Bulb,switch,off> <Sleep_Monitor,sleeping,detected>	-0.656750
-2.222758	<Light_Bulb,switch,off> <Smart_Assistant,voice,command>	-0.915028
-2.222758	<Light_Bulb,switch,off> <Smoke_Detector,battery,lesser>	-0.329707
-2.055417	<Light_Bulb,switch,off> <Smoke_Detector,smoke,detected>	-0.329707
-1.873683	<Light_Bulb,switch,off> <Temperature_Sensor,temperature,greater>	-0.795053
-1.820022	<Light_Bulb,switch,off> <Temperature_Sensor,temperature,lesser>	-0.230781
-2.277053	<Light_Bulb,switch,off> <Temperature_Sensor-null,temperature-locationMode,greater-away>	-0.452630
-2.277053	<Light_Bulb,switch,off> <Temperature_Sensor-null,temperature-locationMode,greater-home>	-0.452630
-2.277053	<Light_Bulb,switch,off> <Temperature_Sensor-null,temperature-locationMode,lesser-away>	-0.656750
-1.142977	<Light_Bulb,switch,off> <null,locationMode,away>	-1.096083
-2.038396	<Light_Bulb,switch,off> <null,locationMode,home>	-0.899788
-1.962057	<Light_Bulb,switch,off> <null,time,evening>	-0.345132
-1.203193	<Light_Bulb,switch,off> <null,time,morning>	-1.168633
-2.277053	<Light_Bulb,switch,off> <null-null,locationMode-time,away-evening>	-0.329707
-2.277053	<Light_Bulb,switch,off> <null-null,locationMode-time,away-night>	-0.531811
-0.949513	<Light_Bulb,switch,on> </s>
-2.138941	<Light_Bulb,switch,on> <Air_Conditioner-Temperature_Sensor,thermostat-temperature,auto-lesser>	-0.355720
-2.248253	<Light_Bulb,switch,on> <Air_Conditioner-null,thermostat-time,auto-morning>	-0.355720
-2.218239	<Light_Bulb,switch,on> <Air_Conditioner-null,thermostat-time,off-evening>	-0.329707
-1.770628	<Light_Bulb,switch,on> <Air_Purifier,airQuality,lesser>	-1.115388
-2.248253	<Light_Bulb,switch,on> <Beacon_Device-Light_Bulb,presence-switch,not_present-on>	-0.957780
-2.218239	<Light_Bulb,switch,on> <Beacon_Device-Light_Bulb,presence-switch,present-off>	-0.531811
-2.248253	<Light_Bulb,switch,on> <Bread_Maker-null,switch-time,off-morning>	-0.707902
-2.248253	<Light_Bulb,switch,on> <Button-Car_Automation,button-presence,pushed-present>	-0.345132
-2.315326	<Light_Bulb,switch,on> <CO_Detector-Gas_Sensor,carbonMonoxide-odorLevel,detected-greater>	-0.345132
-2.280496	<Light_Bulb,switch,on> <Coffee_Maker,temperature,greater>	-0.230781
-2.190167	<Light_Bulb,switch,on> <Coffee_Maker-null,switch-time,off-morning>	-0.345132
-2.163799	<Light_Bulb,switch,on> <Contact_Sensor,contact,opened>	-0.929751
-2.190167	<Light_Bulb,switch,on> <Door_Lock-Presence_Sensor-null,lock-presence-time,unlocked-not_present-night>	-0.598758
-2.071910	<Light_Bulb,switch,on> <Door_Sensor,contact,opened>	-0.929751
-2.051684	<Light_Bulb,switch,on> <Door_Sensor-null,contact-locationMode,opened-away>	-0.867603
-1.584974	<Light_Bulb,switch,on> <Gas_Sensor,odorLevel,greater>	-0.452630
-1.584974	<Light_Bulb,switch,on> <Glass_Break_Detector,shock,detected>	-0.345132
-2.051684	<Light_Bulb,switch,on> <Humidity_Sensor,humidity,lesser>	-1.245022
-2.115429	<Light_Bulb,switch,on> <Humidity_Sensor-Temperature_Sensor,humidity-temperature,greater-greater>	-1.151600
-2.218239	<Light_Bulb,switch,on> <Illuminance_Sensor,illuminance,greater>	-0.656750
-2.190167	<Light_Bulb,switch,on> <Illuminance_Sensor,illuminance,lesser>	-0.957780
-2.163799	<Light_Bulb,switch,on> <Illuminance_Sensor-Motion_Sensor,illuminance-motion,lesser-detected>	-0.656750
-2.163799	<Light_Bulb,switch,on> <Induction_Cooktop-null,switch-locationMode,on-away>	-0.531811
-2.138941	<Light_Bulb,switch,on> <Light_Bulb-Motion_Sensor,switch-motion,off-detected>	-0.230781
-2.138941	<Light_Bulb,switch,on> <Light_Bulb-Motion_Sensor,switch-motion,on-not_detected>	-1.245022
-1.902605	<Light_Bulb,switch,on> <Moisture_Sensor,water,wet>	-0.355720
-1.384291	<Light_Bulb,switch,on> <Motion_Sensor,motion,detected>	-0.656750
-2.248253	<Light_Bulb,switch,on> <Motion_Sensor-Shades/Blinds-null,motion-contact-time,not_detected-closed-day>	-0.753660
-2.190167	<Light_Bulb,switch,on> <Presence_Sensor,presence,not_present>	-0.531811
-2.071910	<Light_Bulb,switch,on> <Presence_Sensor,presence,present>	-0.531811
-2.190167	<Light_Bulb,switch,on> <Refrigerator,filterStatus,replace>	-0.345132
-1.565190	<Light_Bulb,switch,on> <Sleep_Monitor,sleeping,detected>	-0.522966
-2.163799	<Light_Bulb,switch,on> <Smart_Assistant,voice,command>	-1.475882
-2.071910	<Light_Bulb,switch,on> <Smart_TV,switch,on>	-0.452630
-1.598683	<Light_Bulb,switch,on> <Smoke_Detector,smoke,detected>	-0.531811
-1.516455	<Light_Bulb,switch,on> <Temperature_Sensor,temperature,greater>	-0.334788
-1.760403	<Light_Bulb,switch,on> <Temperature_Sensor,temperature,lesser>	-0.452630
-2.218239	<Light_Bulb,switch,on> <Temperature_Sensor-null,temperature-locationMode,greater-away>	-0.345132
-2.218239	<Light_Bulb,switch,on> <Temperature_Sensor-null,temperature-locationMode,greater-home>	-0.329707
-2.218239	<Light_Bulb,switch,on> <Temperature_Sensor-null,temperature-locationMode,lesser-away>	-0.329707
-2.190167	<Light_Bulb,switch,on> <Temperature_Sensor-null,temperature-locationMode,lesser-home>	-0.345132
-2.071910	<Light_Bulb,switch,on> <Weather_Station,rain,true>	-1.151600
-1.296116	<Light_Bulb,switch,on> <null,locationMode,away>	-0.923922
-1.370929	<Light_Bulb,switch,on> <null,time,morning>	-1.008932
-2.218239	<Light_Bulb,switch,on> <null-null,locationMode-time,away-evening>	-0.345132
-2.218239	<Light_Bulb,switch,on> <null-null,locationMode-time,away-night>	-0.452630
-2.190167	<Light_Bulb,switch,on> <null-null,locationMode-time,home-night>	-1.185024
-0.049995	<Light_Bulb-Motion_Sensor,switch-motion,off-detected> <Light_Bulb,switch,on>	-0.725611
-0.049888	<Light_Bulb-Motion_Sensor,switch-motion,on-not_detected> <Light_Bulb,switch,off>	-1.096083
-1.188634	<Light_Bulb-Phone,switch-notification,on-notify> </s>
-1.398578	<Light_Bulb-Phone,switch-notification,on-notify> <Air_Purifier,airQuality,lesser>	-0.984109
-1.536418	<Light_Bulb-Phone,switch-notification,on-notify> <Door_Sensor,contact,opened>	-1.477936
-1.528761	<Light_Bulb-Phone,switch-notification,on-notify> <Humidity_Sensor,humidity,lesser>	-1.075879
-1.552149	<Light_Bulb-Phone,switch-notification,on-notify> <Humidity_Sensor-Temperature_Sensor,humidity-temperature,greater-greater>	-0.867603
-1.568472	<Light_Bulb-Phone,switch-notification,on-notify> <Induction_Cooktop-null,switch-locationMode,on-away>	-0.832841
-1.458810	<Light_Bulb-Phone,switch-notification,on-notify> <Motion_Sensor,motion,detected>	-0.795053
-1.471928	<Light_Bulb-Phone,switch-notification,on-notify> <Sleep_Monitor,sleeping,detected>	-0.452630
-1.331005	<Light_Bulb-Phone,switch-notification,on-notify> <null,locationMode,away>	-0.992542
-1.272544	<Light_Bulb-Phone,switch-notification,on-notify> <null,time,morning>	-0.598758
-1.106091	<Light_Bulb-Security_Alarm,mode-alarm,flash-strobe> <CO_Detector-Gas_Sensor,alarm-alarm,siren-siren>	-0.355720
-1.054758	<Light_Bulb-Security_Alarm,mode-alarm,flash-strobe> <Motion_Sensor,motion,detected>	-0.355720
-1.039731	<Light_Bulb-Security_Alarm,mode-alarm,flash-strobe> <Temperature_Sensor,temperature,greater>	-0.345132
-1.452669	<Light_Bulb-Shades/Blinds,colorValue-contact,fixed_value-closed> <CO_Detector-null,carbonMonoxide-locationMode,detected-not_vacation>	-0.345132
-1.404483	<Light_Bulb-Shades/Blinds,colorValue-contact,fixed_value-closed> <Door_Sensor-null,contact-locationMode,opened-away>	-0.598758
-1.459086	<Light_Bulb-Shades/Blinds,colorValue-contact,fixed_value-closed> <Gas_Sensor-null,odorLevel-locationMode,greater-not_vacation>	-0.345132
-1.440112	<Light_Bulb-Shades/Blinds,colorValue-contact,fixed_value-closed> <Gas_Sensor-null,odorLevel-locationMode,greater-vacation>	-0.345132
-1.440112	<Light_Bulb-Shades/Blinds,colorValue-contact,fixed_value-closed> <Temperature_Sensor-null,temperature-locationMode,lesser-not_vacation>	-0.345132
-1.421932	<Light_Bulb-Shades/Blinds,colorValue-contact,fixed_value-closed> <Weather_Station-null,rain-time,false-night>	-0.230781
-1.355985	<Light_Bulb-Shades/Blinds,colorValue-contact,fixed_value-closed> <null,time,evening>	-0.230781
-1.348244	<Light_Bulb-Shades/Blinds,colorValue-contact,fixed_value-opened> <Door_Sensor-null,contact-locationMode,opened-away>	-0.707902
-1.379386	<Light_Bulb-Shades/Blinds,colorValue-contact,fixed_value-opened> <Gas_Sensor-null,odorLevel-locationMode,greater-vacation>	-0.329707
-1.368755	<Light_Bulb-Shades/Blinds,colorValue-contact,fixed_value-opened> <Temperature_Sensor-null,temperature-locationMode,greater-not_vacation>	-0.345132
-1.390284	<Light_Bulb-Shades/Blinds,colorValue-contact,fixed_value-opened> <Water_Leak_Detector-null,water-locationMode,wet-vacation>	-0.345132
-1.363536	<Light_Bulb-Shades/Blinds,colorValue-contact,fixed_value-opened> <Weather_Station-null,rain-time,false-night>	-0.531811
-1.163407	<Light_Bulb-Shades/Blinds,colorValue-contact,fixed_value-opened> <null,time,morning>	-0.230781
-1.374038	<Light_Bulb-Shades/Blinds,switch-contact,on-closed> <Beacon_Device,presence,not_present>	-0.345132
-1.343264	<Light_Bulb-Shades/Blinds,switch-contact,on-closed> <Beacon_Device,presence,present>	-0.883994
-1.363536	<Light_Bulb-Shades/Blinds,switch-contact,on-closed> <Button,button,pushed>	-0.355720
-1.328658	<Light_Bulb-Shades/Blinds,switch-contact,on-closed> <null,locationMode,home>	-0.656750
-1.309917	<Light_Bulb-Shades/Blinds,switch-contact,on-closed> <null,locationMode,night>	-0.329707
-1.305355	<Light_Bulb-Shades/Blinds,switch-contact,on-closed> <null,time,evening>	-0.345132
-0.806079	<Light_Bulb-Smart_Assistant,switch-notification,off-notify> </s>
-0.926180	<Light_Bulb-Smart_Assistant,switch-notification,off-notify> <Smart_Assistant,voice,command>	-1.047391
-0.812796	<Light_Bulb-Smart_TV,switch-switch,off-off> </s>
-1.555174	<Light_Bulb-Smart_TV,switch-switch,off-off> <Air_Purifier,airQuality,lesser>	-0.598758
-1.749205	<Light_Bulb-Smart_TV,switch-switch,off-off> <Button,button,pushed>	-0.971144
-1.671504	<Light_Bulb-Smart_TV,switch-switch,off-off> <Gas_Sensor,odorLevel,greater>	-0.329707
-1.671504	<Light_Bulb-Smart_TV,switch-switch,off-off> <Glass_Break_Detector,shock,detected>	-0.531811
-1.637313	<Light_Bulb-Smart_TV,switch-switch,off-off> <Moisture_Sensor,water,wet>	-0.531811
-1.645612	<Light_Bulb-Smart_TV,switch-switch,off-off> <Sleep_Monitor,sleeping,detected>	-0.867603
-1.728438	<Light_Bulb-Smart_TV,switch-switch,off-off> <Smart_TV,switch,on>	-0.355720
-1.689665	<Light_Bulb-Smart_TV,switch-switch,off-off> <Smoke_Detector,smoke,detected>	-0.345132
-1.782345	<Light_Bulb-Smart_TV,switch-switch,off-off> <Temperature_Sensor,temperature,equal>	-0.345132
-1.548423	<Light_Bulb-Smart_TV,switch-switch,off-off> <Temperature_Sensor,temperature,lesser>	-0.345132
-1.048178	<Light_Bulb-Smart_TV,switch-switch,off-off> <null,locationMode,away>	-0.731384
-1.406785	<Light_Bulb-Smart_TV,switch-switch,off-off> <null,time,morning>	-0.355720
-1.480362	<Light_Bulb-Smart_TV,switch-switch,off-off> <null,time,night>	-1.133871
-1.103233	<Light_Bulb-Speaker,colorValue-switch,fixed_value-on> <Button-Car_Automation,button-presence,pushed-present>	-0.345132
-1.054758	<Light_Bulb-Speaker,colorValue-switch,fixed_value-on> <Motion_Sensor,motion,detected>	-0.345132
-1.083733	<Light_Bulb-Speaker,colorValue-switch,fixed_value-on> <Weather_Station,rain,true>	-0.345132
-1.057257	<Light_Bulb-Thermostat,switch-thermostat,off-auto> </s>
-1.275781	<Light_Bulb-Thermostat,switch-thermostat,off-auto> <Beacon_Device,presence,present>	-0.683079
-1.293077	<Light_Bulb-Thermostat,switch-thermostat,off-auto> <Button,button,pushed>	-0.329707
-1.157736	<Light_Bulb-Thermostat,switch-thermostat,off-auto> <null,locationMode,away>	-0.345132
-1.247078	<Light_Bulb-Thermostat,switch-thermostat,off-auto> <null,locationMode,night>	-0.355720
-0.632785	<Light_Bulb-Weather_Station,colorValue-weather,fixed_value-notify> <Smart_Assistant,voice,command>	-1.286779
-0.077159	<Light_Bulb-null,switch-locationMode,on-away> <Light_Bulb,switch,off>	-1.140651
-1.057257	<Microwave_Oven,switch,off> </s>
-1.201898	<Microwave_Oven,switch,off> <Air_Purifier,airQuality,lesser>	-0.452630
-1.157736	<Microwave_Oven,switch,off> <null,locationMode,away>	-0.588841
-1.117653	<Microwave_Oven,switch,off> <null,time,morning>	-0.329707
-1.160978	<Microwave_Oven,switch,off> <null,time,night>	-0.531811
-0.242136	<Moisture_Sensor,water,dry> <Heater,switch,off>	-1.264020
