
\data\
ngram 1=235
ngram 2=1491
ngram 3=2955

\1-grams:
0.0543167779678	</s>
1e-99	<s>	0.0741153220381
0.00602703897604	<Air_Conditioner,thermostat,auto>	0.559999965177
0.00200288954704	<Air_Conditioner,thermostat,decreased>	0.726905575519
0.00200288954704	<Air_Conditioner,thermostat,increased>	0.702810109609
0.00468565166856	<Air_Conditioner,thermostat,off>	0.634675888985
0.000620444587056	<Air_Conditioner-Electric_Blanket-Robot_Vacuum-Oil_Warmer,thermostat-switch-switch-switch,off-off-off-off>	0.771207065943
0.000620444587056	<Air_Conditioner-Fan,thermostat-switch,auto-on>	0.771207065943
0.000620444587056	<Air_Conditioner-Fan,thermostat-switch,off-off>	0.771207065943
0.000620444587056	<Air_Conditioner-Fan-Light_Bulb,thermostat-switch-switch,off-off-off>	0.771207065943
0.000620444587056	<Air_Conditioner-Heater,thermostat-switch,off-off>	0.771207065943
0.000620444587056	<Air_Conditioner-Light_Bulb,thermostat-colorValue,auto-fixed_value>	0.771207065943
0.000620444587056	<Air_Conditioner-Light_Bulb,thermostat-switch,auto-on>	0.771207065943
0.000620444587056	<Air_Conditioner-Oil_Warmer-Robot_Vacuum-Smart_TV,thermostat-switch-switch-switch,auto-on-on-on>	0.771207065943
0.000620444587056	<Air_Conditioner-Refrigerator-Water_Heater,thermostat-thermostat-switch,off-decreased-off>	0.771207065943
0.000620444587056	<Air_Conditioner-Security_Camera,thermostat-switch,off-on>	0.771207065943
0.000620444587056	<Air_Conditioner-Shades/Blinds,thermostat-contact,decreased-closed>	0.771207065943
0.00401495793958	<Air_Conditioner-Temperature_Sensor,thermostat-temperature,auto-greater>	0.164096757645
0.00602703897604	<Air_Conditioner-Temperature_Sensor,thermostat-temperature,auto-lesser>	0.109397903686
0.00334426743579	<Air_Conditioner-null,thermostat-time,auto-morning>	0.196915997612
0.00468565166856	<Air_Conditioner-null,thermostat-time,auto-night>	0.140654295564
0.00401495793958	<Air_Conditioner-null,thermostat-time,off-evening>	0.164096757645
0.000620444587056	<Air_Cooler,switch,on>	0.771207065943
0.000620444587056	<Air_Cooler-Audio_Player-Phone-Shades/Blinds,switch-switch-notification-contact,off-on-notify-opened>	0.771207065943
0.0073684136769	<Air_Purifier,airQuality,greater>	0.0895074119581
0.0221236103045	<Air_Purifier,airQuality,lesser>	0.0298358214852
0.000620444587056	<Air_Purifier,switch,off>	0.771207065943
0.000620444587056	<Air_Purifier,switch,on>	0.771207065943
0.000620444587056	<Air_Purifier-Light_Bulb,switch-switch,off-off>	0.771207065943
0.000620444587056	<Audio_Player,mute,muted>	0.771207065943
0.00181126502041	<Audio_Player,switch,off>	0.686167272401
0.000620444587056	<Audio_Player,switch,on>	0.771207065943
0.000620444587056	<Audio_Player,volume,decreased>	0.771207065943
0.00181126502041	<Audio_Player-Light_Bulb-Phone,switch-colorValue-notification,on-fixed_value-notify>	0.449948698568
0.000620444587056	<Audio_Player-Light_Bulb-Phone-Shades/Blinds,switch-switch-notification-contact,on-on-notify-closed>	0.771207065943
0.00267357886865	<Audio_Player-null,switch-time,on-night>	0.246144989642
0.00535633831563	<Beacon_Device,presence,not_present>	0.225520486636
0.0093804786644	<Beacon_Device,presence,present>	0.153840966614
0.00334426743579	<Beacon_Device-Light_Bulb,presence-switch,not_present-on>	0.196915997612
0.00401495793958	<Beacon_Device-Light_Bulb,presence-switch,present-off>	0.164096757645
0.00200288954704	<Beacon_Device-null,presence-time,present-evening>	0.328193518567
0.00401495793958	<Blood_Pressure_Monitor,pressure,greater>	0.300694164547
0.00334426743579	<Blood_Pressure_Monitor,pressure,lesser>	0.328193518567
0.000620444587056	<Bread_Maker,switch,on>	0.771207065943
0.000620444587056	<Bread_Maker-Light_Bulb-Thermostat,switch-switch-thermostat,off-on-increased>	0.771207065943
0.000620444587056	<Bread_Maker-Light_Bulb-Thermostat,switch-switch-thermostat,on-off-decreased>	0.771207065943
0.00334426743579	<Bread_Maker-null,switch-time,off-morning>	0.196915997612
0.00669772018838	<Button,button,pushed>	0.184609055348
0.00334426743579	<Button-Car_Automation,button-presence,pushed-present>	0.196915997612
0.00535633831563	<CO_Detector,carbonMonoxide,detected>	0.309860344938
0.00267357886865	<CO_Detector-Gas_Sensor,alarm-alarm,siren-siren>	0.246144989642
0.00200288954704	<CO_Detector-Gas_Sensor,carbonMonoxide-odorLevel,detected-greater>	0.328193518567
0.00334426743579	<CO_Detector-null,carbonMonoxide-locationMode,detected-not_vacation>	0.196915997612
0.00401495793958	<CO_Detector-null,carbonMonoxide-locationMode,detected-vacation>	0.164096757645
0.00401495793958	<Car_Automation,presence,present>	0.164096757645
0.000620444587056	<Car_Automation-Garage_Door_Opener,switch-contact,on-opened>	0.771207065943
0.00267357886865	<Clothes_Dryer,completion,true>	0.246144989642
0.000620444587056	<Clothes_Dryer,mode,ready>	0.771207065943
0.000620444587056	<Coffee_Maker,switch,off>	0.771207065943
0.00181126502041	<Coffee_Maker,switch,on>	0.771207065943
0.00267357886865	<Coffee_Maker,temperature,greater>	0.246144989642
0.000620444587056	<Coffee_Maker-Door_Lock-Garage_Door_Opener-Gas_Stove-Light_Bulb-Shades/Blinds-Smart_TV-Speaker,switch-lock-contact-switch-switch-contact-switch-switch,off-locked-closed-off-off-closed-off-off>	0.771207065943
0.000620444587056	<Coffee_Maker-Light_Bulb-Robot_Vacuum,switch-switch-switch,on-on-on>	0.771207065943
0.000620444587056	<Coffee_Maker-Light_Bulb-Thermostat,switch-colorValue-thermostat,on-fixed_value-increased>	0.771207065943
0.000620444587056	<Coffee_Maker-Shades/Blinds,switch-contact,on-opened>	0.771207065943
0.00468565166856	<Coffee_Maker-null,switch-time,off-morning>	0.140654295564
0.00535633831563	<Contact_Sensor,contact,opened>	0.123072493592
0.00267357886865	<Contact_Sensor-null,contact-time,opened-night>	0.246144989642
0.000620444587056	<Dishwasher,mode,ready>	0.771207065943
0.00535633831563	<Dishwasher,weight,greater>	0.123072493592
0.00334426743579	<Door_Lock,lock,locked>	0.553664910248
0.000620444587056	<Door_Lock-Light_Bulb-Phone-Shades/Blinds-Smart_TV-Speaker,lock-colorValue-notification-contact-switch-volume,locked-fixed_value-notify-opened-on-fixed_value>	0.771207065943
0.000620444587056	<Door_Lock-Lighting_Remote-Robot_Vacuum-Thermostat,lock-switch-switch-thermostat,locked-off-on-auto>	0.771207065943
0.000620444587056	<Door_Lock-Phone-Shades/Blinds,lock-notification-contact,locked-notify-closed>	0.771207065943
0.00468565166856	<Door_Lock-Presence_Sensor-null,lock-presence-time,unlocked-not_present-night>	0.140654295564
0.00468565166856	<Door_Lock-null,lock-locationMode,unlocked-away>	0.140654295564
0.00401495793958	<Door_Lock-null,lock-time,unlocked-night>	0.164096757645
0.0080391105331	<Door_Sensor,contact,opened>	0.140654295564
0.00870979633846	<Door_Sensor-null,contact-locationMode,opened-away>	0.140654295564
0.00200288954704	<Door_Sensor-null,contact-locationMode,opened-vacation>	0.328193518567
0.00535633831563	<Door_Sensor-null,contact-time,opened-morning>	0.123072493592
0.00200288954704	<Door_Sensor-null-null,contact-locationMode-time,opened-away-evening>	0.328193518567
0.0113925514873	<Doorbell,button,pushed>	0.103640142155
0.00334426743579	<Dust_Detector,dust,greater>	0.196915997612
0.00200288954704	<Electric_Blanket,switch,on>	0.61337066271
0.00401495793958	<Energy_Meter,energy,greater>	0.164096757645
0.000620444587056	<External_API,news,notify>	0.771207065943
0.000620444587056	<External_API,traffic,notify>	0.771207065943
0.00200288954704	<External_API-null,traffic-time,heavy-morning>	0.328193518567
0.000620444587056	<Fan,switch,on>	0.771207065943
0.00181126502041	<Garage_Door_Opener,contact,closed>	0.71097118576
0.00200288954704	<Garage_Door_Opener,contact,opened>	0.650508536352
0.00401495793958	<Garage_Door_Opener,signalStrength,lesser>	0.164096757645
0.00401495793958	<Garage_Door_Opener-null,contact-locationMode,opened-away>	0.164096757645
0.000620444587056	<Garden_Sprinkler,switch,on>	0.771207065943
0.0120632408815	<Gas_Sensor,odorLevel,greater>	0.0546989512967
0.00669772018838	<Gas_Sensor,odorLevel,lesser>	0.098457997823
0.00267357886865	<Gas_Sensor-null,odorLevel-locationMode,greater-not_vacation>	0.246144989642
0.00468565166856	<Gas_Sensor-null,odorLevel-locationMode,greater-vacation>	0.140654295564
0.00181126502041	<Gas_Stove,switch,off>	0.626639836182
0.00334426743579	<Gas_Stove-null,switch-timer,on-completed>	0.196915997612
0.0120632408815	<Glass_Break_Detector,shock,detected>	0.134261037851
0.00468565166856	<Glass_Break_Detector-null,shock-locationMode,detected-away>	0.140654295564
0.00401495793958	<Glass_Break_Detector-null,shock-locationMode,detected-night>	0.164096757645
0.00200288954704	<Glass_Break_Detector-null,shock-locationMode,detected-vacation>	0.328193518567
0.000620444587056	<Heater,switch,off>	0.771207065943
0.00181126502041	<Heater,switch,on>	0.71957489005
0.00200288954704	<Humidifier,switch,on>	0.673497518647
0.0093804786644	<Humidity_Sensor,humidity,greater>	0.1554601205
0.00870979633846	<Humidity_Sensor,humidity,lesser>	0.0757369828414
0.00669772018838	<Humidity_Sensor-Temperature_Sensor,humidity-temperature,greater-greater>	0.098457997823
0.00401495793958	<Illuminance_Sensor,illuminance,greater>	0.164096757645
0.00468565166856	<Illuminance_Sensor,illuminance,lesser>	0.140654295564
0.00535633831563	<Illuminance_Sensor-Motion_Sensor,illuminance-motion,lesser-detected>	0.123072493592
0.00334426743579	<Illuminance_Sensor-null,illuminance-time,lesser-night>	0.196915997612
0.00535633831563	<Induction_Cooktop-null,switch-locationMode,on-away>	0.123072493592
0.00267357886865	<Light_Bulb,colorValue,fixed_value>	0.528787280449
0.0080391105331	<Light_Bulb,switch,off>	0.524567040983
0.00602703897604	<Light_Bulb,switch,on>	0.60235427924
0.00602703897604	<Light_Bulb-Motion_Sensor,switch-motion,off-detected>	0.109397903686
0.00602703897604	<Light_Bulb-Motion_Sensor,switch-motion,on-not_detected>	0.109397903686
0.000620444587056	<Light_Bulb-Phone,switch-notification,on-notify>	0.771207065943
0.000620444587056	<Light_Bulb-Security_Alarm,mode-alarm,flash-strobe>	0.771207065943
0.000620444587056	<Light_Bulb-Shades/Blinds,colorValue-contact,fixed_value-closed>	0.771207065943
0.000620444587056	<Light_Bulb-Shades/Blinds,colorValue-contact,fixed_value-opened>	0.771207065943
0.000620444587056	<Light_Bulb-Shades/Blinds,switch-contact,on-closed>	0.771207065943
0.000620444587056	<Light_Bulb-Smart_Assistant,switch-notification,off-notify>	0.771207065943
0.00200288954704	<Light_Bulb-Smart_TV,switch-switch,off-off>	0.650508536352
0.000620444587056	<Light_Bulb-Speaker,colorValue-switch,fixed_value-on>	0.771207065943
0.000620444587056	<Light_Bulb-Thermostat,switch-thermostat,off-auto>	0.771207065943
0.000620444587056	<Light_Bulb-Weather_Station,colorValue-weather,fixed_value-notify>	0.771207065943
0.00401495793958	<Light_Bulb-null,switch-locationMode,on-away>	0.164096757645
0.000620444587056	<Microwave_Oven,switch,off>	0.771207065943
0.00870979633846	<Moisture_Sensor,water,dry>	0.140654295564
0.0147460261592	<Moisture_Sensor,water,wet>	0.145863960045
0.0154167205404	<Motion_Sensor,motion,detected>	0.149179105936
0.00401495793958	<Motion_Sensor,motion,not_detected>	0.268522078382
0.00334426743579	<Motion_Sensor-Security_Camera,motion-image,detected-take>	0.196915997612
0.00334426743579	<Motion_Sensor-Shades/Blinds-null,motion-contact-time,not_detected-closed-day>	0.196915997612
0.000620444587056	<Oil_Warmer,switch,on>	0.771207065943
0.0134046352189	<Phone,notification,notify>	0.407672108914
0.000620444587056	<Phone-Security_Alarm,notification-alarm,notify-siren>	0.771207065943
0.00602703897604	<Phone-Security_Alarm,notification-alarm,notify-siren_strobe>	0.515870864073
0.000620444587056	<Phone-Thermostat,notification-thermostat,notify-auto>	0.771207065943
0.00468565166856	<Presence_Sensor,presence,not_present>	0.246144989642
0.0080391105331	<Presence_Sensor,presence,present>	0.164096757645
0.0073684136769	<Pulse_Monitor,pulse,greater>	0.0895074119581
0.00267357886865	<Pulse_Monitor,pulse,lesser>	0.246144989642
0.000620444587056	<Pulse_Monitor,switch,on>	0.771207065943
0.00468565166856	<Refrigerator,filterStatus,replace>	0.140654295564
0.000620444587056	<Refrigerator,switch,on>	0.771207065943
0.00401495793958	<Refrigerator,temperature,greater>	0.164096757645
0.00334426743579	<Refrigerator-null,contact-time,opened-evening>	0.196915997612
0.00200288954704	<Robot_Vacuum,switch,on>	0.635676270907
0.000620444587056	<Robot_Vacuum-Thermostat,switch-thermostat,off-auto>	0.771207065943
0.000620444587056	<Security_Alarm,alarm,off>	0.771207065943
0.00267357886865	<Security_Alarm,alarm,siren>	0.464671461023
0.01005117883	<Security_Alarm,alarm,siren_strobe>	0.447655577611
0.000620444587056	<Security_Alarm,alarm,strobe>	0.771207065943
0.000620444587056	<Security_Alarm-Security_Camera,alarm-switch,siren_strobe-on>	0.771207065943
0.00267357886865	<Security_Alarm-null,alarm-locationMode,siren_strobe-away>	0.246144989642
0.000620444587056	<Security_Camera,image,take>	0.771207065943
0.00334426743579	<Security_Camera,switch,on>	0.541363535817
0.000620444587056	<Security_Camera,video,record>	0.771207065943
0.00334426743579	<Security_Camera-null,image-time,take-night>	0.196915997612
0.00200288954704	<Security_Camera-null,switch-locationMode,off-vacation>	0.328193518567
0.00181126502041	<Shades/Blinds,contact,closed>	0.616313952966
0.00200288954704	<Shades/Blinds,contact,opened>	0.728686963679
0.00181126502041	<Shades/Blinds,threeAxis,fixed_value>	0.513052726607
0.000620444587056	<Shades/Blinds-Speaker,threeAxis-mute,fixed_value-unmuted>	0.771207065943
0.000620444587056	<Shades/Blinds-null,contact-locationMode,opened-home>	0.771207065943
0.0140753110145	<Sleep_Monitor,sleeping,detected>	0.131277410048
0.00401495793958	<Sleep_Monitor,sleeping,not_detected>	0.196915997612
0.000620444587056	<Sleep_Monitor,switch,on>	0.771207065943
0.000620444587056	<Smart_Assistant,notification,notify>	0.771207065943
0.00535633831563	<Smart_Assistant,voice,command>	0.226567180425
0.000620444587056	<Smart_Mirror,switch,off>	0.771207065943
0.000620444587056	<Smart_Mirror-Speaker,switch-switch,on-on>	0.771207065943
0.00181126502041	<Smart_TV,channel,fixed_value>	0.530262603742
0.000620444587056	<Smart_TV,switch,off>	0.771207065943
0.0080391105331	<Smart_TV,switch,on>	0.194384217206
0.00535633831563	<Smoke_Detector,battery,lesser>	0.123072493592
0.0107218814254	<Smoke_Detector,smoke,detected>	0.164096757645
0.00468565166856	<Smoke_Detector,tamper,detected>	0.140654295564
0.00334426743579	<Smoke_Detector-Temperature_Sensor,smoke-temperature,greater-greater>	0.196915997612
0.00181126502041	<Speaker,switch,on>	0.68085244282
0.00181126502041	<Sprinker,switch,on>	0.71097118576
0.00200288954704	<Switches,switch,off>	0.44165993073
0.00200288954704	<Switches,switch,on>	0.590498773642
0.000620444587056	<Switches-null,switch-time,off-evening>	0.771207065943
0.00468565166856	<Temperature_Sensor,temperature,equal>	0.140654295564
0.0194408388363	<Temperature_Sensor,temperature,greater>	0.123072493592
0.0227942863639	<Temperature_Sensor,temperature,lesser>	0.123072493592
0.00401495793958	<Temperature_Sensor-null,temperature-locationMode,greater-away>	0.164096757645
0.00401495793958	<Temperature_Sensor-null,temperature-locationMode,greater-home>	0.164096757645
0.00602703897604	<Temperature_Sensor-null,temperature-locationMode,greater-not_vacation>	0.109397903686
0.00401495793958	<Temperature_Sensor-null,temperature-locationMode,lesser-away>	0.164096757645
0.00468565166856	<Temperature_Sensor-null,temperature-locationMode,lesser-home>	0.246144989642
0.00468565166856	<Temperature_Sensor-null,temperature-locationMode,lesser-not_vacation>	0.140654295564
0.00401495793958	<Temperature_Sensor-null,temperature-time,greater-night>	0.164096757645
0.00200288954704	<Temperature_Sensor-null,temperature-time,lesser-afternoon>	0.328193518567
0.00200288954704	<Temperature_Sensor-null,temperature-time,lesser-morning>	0.328193518567
0.0093804786644	<Temperature_Sensor-null,temperature-time,lesser-night>	0.164096757645
0.00401495793958	<Thermostat,thermostat,auto>	0.506905496021
0.000620444587056	<Thermostat,thermostat,decreased>	0.771207065943
0.00267357886865	<Thermostat,thermostat,increased>	0.55956172457
0.000620444587056	<Thermostat-Water_Heater,thermostat-switch,increased-on>	0.771207065943
0.000620444587056	<Washer,completion,true>	0.771207065943
0.000620444587056	<Water_Heater,switch,off>	0.771207065943
0.000620444587056	<Water_Heater,switch,on>	0.771207065943
0.0107218814254	<Water_Leak_Detector,water,wet>	0.198596230036
0.00267357886865	<Water_Leak_Detector-null,water-locationMode,wet-not_vacation>	0.246144989642
0.00334426743579	<Water_Leak_Detector-null,water-locationMode,wet-vacation>	0.196915997612
0.000620444587056	<Water_Valve,contact,closed>	0.771207065943
0.00401495793958	<Weather_Station,cold,true>	0.164096757645
0.0080391105331	<Weather_Station,rain,true>	0.151473967195
0.000620444587056	<Weather_Station,weather,notify>	0.771207065943
0.00401495793958	<Weather_Station-null,rain-time,false-morning>	0.164096757645
0.00669772018838	<Weather_Station-null,rain-time,false-night>	0.098457997823
0.00267357886865	<Weather_Station-null,rain-time,true-morning>	0.246144989642
0.0308426013133	<null,locationMode,away>	0.128770683237
0.0113925514873	<null,locationMode,home>	0.224807605589
0.0140753110145	<null,locationMode,night>	0.270749086499
0.00669772018838	<null,locationMode,vacation>	0.278874625449
0.00602703897604	<null,time,afternoon>	0.196915997612
0.0147460261592	<null,time,evening>	0.196915997612
0.039561613886	<null,time,morning>	0.154645397779
0.0301719236456	<null,time,night>	0.114486162934
0.00334426743579	<null,time,noon>	0.196915997612
0.00401495793958	<null-null,locationMode-time,away-evening>	0.164096757645
0.000620444587056	<null-null,locationMode-time,away-morning>	0.771207065943
0.00401495793958	<null-null,locationMode-time,away-night>	0.164096757645
0.00468565166856	<null-null,locationMode-time,home-night>	0.140654295564
0.00267357886865	<null-null,locationMode-time,vacation-morning>	0.246144989642
0.00334426743579	<null-null,locationMode-time,vacation-night>	0.196915997612

\2-grams:
0.00655236376534	<s> <Air_Conditioner-Temperature_Sensor,thermostat-temperature,auto-lesser>	0.220419493452
0.00645294554194	<s> <Air_Conditioner-null,thermostat-time,auto-night>	0.220419493452
0.00157345743891	<s> <Air_Purifier,airQuality,greater>	0.468050808748
0.0216705034009	<s> <Air_Purifier,airQuality,lesser>	0.0734732075771
0.0184883434395	<s> <Audio_Player-null,switch-time,on-night>	0.0801524865675
0.0294293045962	<s> <Beacon_Device,presence,present>	0.168876025775
0.00809418264484	<s> <Beacon_Device-Light_Bulb,presence-switch,not_present-on>	0.176335600043
0.00901421682008	<s> <Beacon_Device-Light_Bulb,presence-switch,present-off>	0.160304974735
0.00379227654525	<s> <Blood_Pressure_Monitor,pressure,greater>	0.352671203608
0.0222678865497	<s> <Button,button,pushed>	0.171646518867
0.00215105244951	<s> <CO_Detector,carbonMonoxide,detected>	0.462606786887
0.0013249149482	<s> <CO_Detector-null,carbonMonoxide-locationMode,detected-vacation>	0.468050808748
0.00195221659404	<s> <Clothes_Dryer,completion,true>	0.587785678222
0.000397277528104	<s> <Coffee_Maker,temperature,greater>	0.451718627592
0.00215105244951	<s> <Contact_Sensor,contact,opened>	0.587785678222
0.0219696430089	<s> <Contact_Sensor-null,contact-time,opened-night>	0.0678214389728
0.00998394086466	<s> <Dishwasher,weight,greater>	0.146946416621
0.00732326921863	<s> <Door_Lock-Presence_Sensor-null,lock-presence-time,unlocked-not_present-night>	0.195928674322
0.00210134325343	<s> <Door_Lock-null,lock-locationMode,unlocked-away>	0.587785678222
0.00205163453075	<s> <Door_Lock-null,lock-time,unlocked-night>	0.587785678222
0.00583117398932	<s> <Door_Sensor,contact,opened>	0.251908023272
0.00762152713163	<s> <Door_Sensor-null,contact-locationMode,opened-away>	0.246119486323
0.00737297905211	<s> <Door_Sensor-null,contact-time,opened-morning>	0.195928674322
0.0113016538115	<s> <Doorbell,button,pushed>	0.271285761308
0.00635352875784	<s> <Dust_Detector,dust,greater>	0.220419493452
0.00292195820771	<s> <Energy_Meter,energy,greater>	0.440838991306
0.00277282844121	<s> <External_API-null,traffic-time,heavy-morning>	0.440838991306
0.00292195820771	<s> <Garage_Door_Opener-null,contact-locationMode,opened-away>	0.440838991306
0.00264813426007	<s> <Gas_Sensor,odorLevel,greater>	0.587785678222
0.000695528611532	<s> <Gas_Sensor,odorLevel,lesser>	0.451718627592
0.000546402905446	<s> <Gas_Sensor-null,odorLevel-locationMode,greater-vacation>	0.451718627592
0.00127520497975	<s> <Gas_Stove-null,switch-timer,on-completed>	0.468050808748
0.00438878190841	<s> <Glass_Break_Detector,shock,detected>	0.443014560137
0.000546402905446	<s> <Glass_Break_Detector-null,shock-locationMode,detected-away>	0.451718627592
0.00593059135256	<s> <Humidity_Sensor,humidity,greater>	0.450168393761
0.0171950720531	<s> <Humidity_Sensor,humidity,lesser>	0.0881677991414
0.00225046881889	<s> <Humidity_Sensor-Temperature_Sensor,humidity-temperature,greater-greater>	0.587785678222
0.0212484375101	<s> <Illuminance_Sensor,illuminance,lesser>	0.0705342414258
0.0134652369448	<s> <Illuminance_Sensor-Motion_Sensor,illuminance-motion,lesser-detected>	0.110209745626
0.0237599761298	<s> <Illuminance_Sensor-null,illuminance-time,lesser-night>	0.0629770045604
0.0014243312406	<s> <Induction_Cooktop-null,switch-locationMode,on-away>	0.468050808748
0.00481172723192	<s> <Light_Bulb-Motion_Sensor,switch-motion,off-detected>	0.293892836177
0.0109039788388	<s> <Light_Bulb-Motion_Sensor,switch-motion,on-not_detected>	0.1356428793
0.0145841123068	<s> <Moisture_Sensor,water,dry>	0.207453611625
0.00719858272729	<s> <Moisture_Sensor,water,wet>	0.333348879768
0.0246547157606	<s> <Motion_Sensor,motion,detected>	0.188930902871
0.0299019148199	<s> <Motion_Sensor,motion,not_detected>	0.151144726824
0.00461288895432	<s> <Motion_Sensor-Security_Camera,motion-image,detected-take>	0.293892836177
0.00297166603174	<s> <Presence_Sensor,presence,not_present>	0.440838991306
0.00162316623517	<s> <Presence_Sensor,presence,present>	0.468050808748
0.00317050177017	<s> <Pulse_Monitor,pulse,greater>	0.440838991306
0.000397277528104	<s> <Pulse_Monitor,pulse,lesser>	0.451718627592
0.00548321152604	<s> <Refrigerator-null,contact-time,opened-evening>	0.251908023272
0.000397277528104	<s> <Security_Alarm-null,alarm-locationMode,siren_strobe-away>	0.451718627592
0.00200192590779	<s> <Security_Camera-null,image-time,take-night>	0.587785678222
0.028036577691	<s> <Sleep_Monitor,sleeping,detected>	0.179430802703
0.0508891269249	<s> <Smart_Assistant,voice,command>	0.0896621193291
0.000794944849746	<s> <Smart_TV,switch,on>	0.451718627592
0.00215105244951	<s> <Smoke_Detector,battery,lesser>	0.587785678222
0.00428936496302	<s> <Smoke_Detector,smoke,detected>	0.443014560137
0.00210134325343	<s> <Smoke_Detector,tamper,detected>	0.587785678222
0.0145091175738	<s> <Temperature_Sensor,temperature,greater>	0.278926000785
0.0565331259423	<s> <Temperature_Sensor,temperature,lesser>	0.144820152343
0.00727355956949	<s> <Temperature_Sensor-null,temperature-locationMode,greater-away>	0.195928674322
0.00466259828928	<s> <Temperature_Sensor-null,temperature-locationMode,greater-home>	0.293892836177
0.00307107908262	<s> <Temperature_Sensor-null,temperature-locationMode,greater-not_vacation>	0.440838991306
0.00640324324469	<s> <Temperature_Sensor-null,temperature-locationMode,lesser-away>	0.220419493452
0.00558263199159	<s> <Temperature_Sensor-null,temperature-locationMode,lesser-home>	0.503816051574
0.00297166603174	<s> <Temperature_Sensor-null,temperature-locationMode,lesser-not_vacation>	0.440838991306
0.00466259828928	<s> <Temperature_Sensor-null,temperature-time,greater-night>	0.293892836177
0.00451347457121	<s> <Temperature_Sensor-null,temperature-time,lesser-afternoon>	0.293892836177
0.00712444437484	<s> <Temperature_Sensor-null,temperature-time,lesser-morning>	0.195928674322
0.0163744605031	<s> <Temperature_Sensor-null,temperature-time,lesser-night>	0.278424853616
0.00341903856938	<s> <Water_Leak_Detector,water,wet>	0.459884741107
0.0119234243335	<s> <Weather_Station,rain,true>	0.192818633188
0.0013249149482	<s> <Weather_Station-null,rain-time,false-morning>	0.468050808748
0.0092130409179	<s> <Weather_Station-null,rain-time,false-night>	0.160304974735
0.000397277528104	<s> <Weather_Station-null,rain-time,true-morning>	0.451718627592
0.0693141656649	<s> <null,locationMode,away>	0.277076695839
0.00187170758366	<s> <null,locationMode,home>	0.468050808748
0.0245552861806	<s> <null,locationMode,night>	0.159386304031
0.00225046881889	<s> <null,locationMode,vacation>	0.587785678222
0.00742268447729	<s> <null,time,afternoon>	0.391857352557
0.00806889380985	<s> <null,time,evening>	0.195928674322
0.0812744426598	<s> <null,time,morning>	0.150534484611
0.0945037408443	<s> <null,time,night>	0.148319755199
0.000496694098579	<s> <null-null,locationMode-time,away-evening>	0.451718627592
0.00205163453075	<s> <null-null,locationMode-time,away-night>	0.587785678222
0.00122549628766	<s> <null-null,locationMode-time,vacation-morning>	0.468050808748
0.000446986081458	<s> <null-null,locationMode-time,vacation-night>	0.451718627592
0.0981933326291	<Air_Conditioner,thermostat,auto> </s>
0.00534018127977	<Air_Conditioner,thermostat,auto> <Air_Conditioner-Temperature_Sensor,thermostat-temperature,auto-greater>	0.293892836177
0.0064669425076	<Air_Conditioner,thermostat,auto> <Air_Conditioner-Temperature_Sensor,thermostat-temperature,auto-lesser>	0.195928674322
0.00571577336058	<Air_Conditioner,thermostat,auto> <Air_Conditioner-null,thermostat-time,auto-night>	0.195928674322
0.00534018127977	<Air_Conditioner,thermostat,auto> <Air_Conditioner-null,thermostat-time,off-evening>	0.451718627592
0.00721811837363	<Air_Conditioner,thermostat,auto> <Air_Purifier,airQuality,greater>	0.0629770045604
0.0396246099306	<Air_Conditioner,thermostat,auto> <Air_Purifier,airQuality,lesser>	0.0452142155091
0.00496459699418	<Air_Conditioner,thermostat,auto> <Bread_Maker-null,switch-time,off-morning>	0.293892836177
0.00534018127977	<Air_Conditioner,thermostat,auto> <Car_Automation,presence,present>	0.293892836177
0.00571577336058	<Air_Conditioner,thermostat,auto> <Coffee_Maker-null,switch-time,off-morning>	0.195928674322
0.00609135625357	<Air_Conditioner,thermostat,auto> <Dishwasher,weight,greater>	0.451718627592
0.00759370986658	<Air_Conditioner,thermostat,auto> <Door_Sensor,contact,opened>	0.293892836177
0.00947163601021	<Air_Conditioner,thermostat,auto> <Doorbell,button,pushed>	0.0734732075771
0.00496459699418	<Air_Conditioner,thermostat,auto> <Dust_Detector,dust,greater>	0.251908023272
0.00534018127977	<Air_Conditioner,thermostat,auto> <Garage_Door_Opener,signalStrength,lesser>	0.451718627592
0.00534018127977	<Air_Conditioner,thermostat,auto> <Garage_Door_Opener-null,contact-locationMode,opened-away>	0.587785678222
0.0227070125506	<Air_Conditioner,thermostat,auto> <Gas_Sensor,odorLevel,greater>	0.195928674322
0.00684253456622	<Air_Conditioner,thermostat,auto> <Gas_Sensor,odorLevel,lesser>	0.468050808748
0.0212046447038	<Air_Conditioner,thermostat,auto> <Humidity_Sensor,humidity,greater>	0.15333524802
0.00796929677197	<Air_Conditioner,thermostat,auto> <Humidity_Sensor,humidity,lesser>	0.468050808748
0.00684253456622	<Air_Conditioner,thermostat,auto> <Humidity_Sensor-Temperature_Sensor,humidity-temperature,greater-greater>	0.468050808748
0.00571577336058	<Air_Conditioner,thermostat,auto> <Illuminance_Sensor,illuminance,lesser>	0.451718627592
0.00496459699418	<Air_Conditioner,thermostat,auto> <Illuminance_Sensor-null,illuminance-time,lesser-night>	0.1356428793
0.0064669425076	<Air_Conditioner,thermostat,auto> <Light_Bulb-Motion_Sensor,switch-motion,off-detected>	0.293892836177
0.0064669425076	<Air_Conditioner,thermostat,auto> <Light_Bulb-Motion_Sensor,switch-motion,on-not_detected>	0.176335600043
0.00534018127977	<Air_Conditioner,thermostat,auto> <Light_Bulb-null,switch-locationMode,on-away>	0.103726804777
0.00796929677197	<Air_Conditioner,thermostat,auto> <Moisture_Sensor,water,dry>	0.146946416621
0.0242093427996	<Air_Conditioner,thermostat,auto> <Moisture_Sensor,water,wet>	0.363555735067
0.0117251660003	<Air_Conditioner,thermostat,auto> <Motion_Sensor,motion,detected>	0.125954010378
0.00534018127977	<Air_Conditioner,thermostat,auto> <Motion_Sensor,motion,not_detected>	0.251908023272
0.00571577336058	<Air_Conditioner,thermostat,auto> <Refrigerator,filterStatus,replace>	0.451718627592
0.00534018127977	<Air_Conditioner,thermostat,auto> <Refrigerator,temperature,greater>	0.451718627592
0.00496459699418	<Air_Conditioner,thermostat,auto> <Security_Camera-null,image-time,take-night>	0.451718627592
0.0238337840484	<Air_Conditioner,thermostat,auto> <Sleep_Monitor,sleeping,detected>	0.271285761308
0.00759370986658	<Air_Conditioner,thermostat,auto> <Smart_TV,switch,on>	0.468050808748
0.0189511251661	<Air_Conditioner,thermostat,auto> <Smoke_Detector,battery,lesser>	0.587785678222
0.00909605337298	<Air_Conditioner,thermostat,auto> <Smoke_Detector,smoke,detected>	0.468050808748
0.0185755636199	<Air_Conditioner,thermostat,auto> <Smoke_Detector,tamper,detected>	0.352671203608
0.00496459699418	<Air_Conditioner,thermostat,auto> <Smoke_Detector-Temperature_Sensor,smoke-temperature,greater-greater>	0.468050808748
0.00571577336058	<Air_Conditioner,thermostat,auto> <Temperature_Sensor,temperature,equal>	0.176335600043
0.0139786747494	<Air_Conditioner,thermostat,auto> <Temperature_Sensor,temperature,greater>	0.0324544310475
0.0287164003881	<Air_Conditioner,thermostat,auto> <Temperature_Sensor,temperature,lesser>	0.442047562334
0.00571577336058	<Air_Conditioner,thermostat,auto> <Temperature_Sensor-null,temperature-locationMode,lesser-home>	0.468050808748
0.00534018127977	<Air_Conditioner,thermostat,auto> <Temperature_Sensor-null,temperature-time,greater-night>	0.195928674322
0.0212046447038	<Air_Conditioner,thermostat,auto> <Temperature_Sensor-null,temperature-time,lesser-night>	0.391857352557
0.00343925993103	<Air_Conditioner,thermostat,auto> <Washer,completion,true>	0.468050808748
0.044507274487	<Air_Conditioner,thermostat,auto> <null,locationMode,away>	0.114835720609
0.00947163601021	<Air_Conditioner,thermostat,auto> <null,locationMode,home>	0.468050808748
0.0242093427996	<Air_Conditioner,thermostat,auto> <null,time,evening>	0.170390351959
0.0381060558811	<Air_Conditioner,thermostat,auto> <null,time,morning>	0.15333524802
0.0576451800493	<Air_Conditioner,thermostat,auto> <null,time,night>	0.0979643361831
0.00571577336058	<Air_Conditioner,thermostat,auto> <null-null,locationMode-time,home-night>	0.451718627592
0.106663787283	<Air_Conditioner,thermostat,decreased> </s>
0.0100574295704	<Air_Conditioner,thermostat,decreased> <CO_Detector-null,carbonMonoxide-locationMode,detected-not_vacation>	0.468050808748
0.0105449615375	<Air_Conditioner,thermostat,decreased> <CO_Detector-null,carbonMonoxide-locationMode,detected-vacation>	0.451718627592
0.0139576402356	<Air_Conditioner,thermostat,decreased> <Door_Sensor-null,contact-locationMode,opened-away>	0.0705342414258
0.0159077588948	<Air_Conditioner,thermostat,decreased> <Doorbell,button,pushed>	0.0255558894037
0.0110324762195	<Air_Conditioner,thermostat,decreased> <Gas_Sensor-null,odorLevel-locationMode,greater-vacation>	0.451718627592
0.0163952861162	<Air_Conditioner,thermostat,decreased> <Glass_Break_Detector,shock,detected>	0.352671203608
0.0110324762195	<Air_Conditioner,thermostat,decreased> <Glass_Break_Detector-null,shock-locationMode,detected-away>	0.110209745626
0.0105449615375	<Air_Conditioner,thermostat,decreased> <Glass_Break_Detector-null,shock-locationMode,detected-night>	0.293892836177
0.018345392165	<Air_Conditioner,thermostat,decreased> <Moisture_Sensor,water,wet>	0.451718627592
0.0154202352738	<Air_Conditioner,thermostat,decreased> <Smoke_Detector,smoke,detected>	0.440838991306
0.0217581015813	<Air_Conditioner,thermostat,decreased> <Temperature_Sensor,temperature,greater>	0.0191669054284
0.0241957450662	<Air_Conditioner,thermostat,decreased> <Temperature_Sensor,temperature,lesser>	0.028907464435
0.0105449615375	<Air_Conditioner,thermostat,decreased> <Temperature_Sensor-null,temperature-locationMode,greater-away>	0.0734732075771
0.0105449615375	<Air_Conditioner,thermostat,decreased> <Temperature_Sensor-null,temperature-locationMode,greater-home>	0.117557136818
0.0120075388373	<Air_Conditioner,thermostat,decreased> <Temperature_Sensor-null,temperature-locationMode,greater-not_vacation>	0.451718627592
0.0105449615375	<Air_Conditioner,thermostat,decreased> <Temperature_Sensor-null,temperature-locationMode,lesser-away>	0.0430086687482
0.0110324762195	<Air_Conditioner,thermostat,decreased> <Temperature_Sensor-null,temperature-locationMode,lesser-home>	0.0705342414258
0.0110324762195	<Air_Conditioner,thermostat,decreased> <Temperature_Sensor-null,temperature-locationMode,lesser-not_vacation>	0.293892836177
0.00956989119306	<Air_Conditioner,thermostat,decreased> <Water_Leak_Detector-null,water-locationMode,wet-not_vacation>	0.451718627592
0.0124950788189	<Air_Conditioner,thermostat,decreased> <Weather_Station-null,rain-time,false-night>	0.0801524865675
0.0178578840996	<Air_Conditioner,thermostat,decreased> <null,locationMode,night>	0.0881677991414
0.0124950788189	<Air_Conditioner,thermostat,decreased> <null,locationMode,vacation>	0.468050808748
0.018345392165	<Air_Conditioner,thermostat,decreased> <null,time,evening>	0.0928081252733
0.0363839628861	<Air_Conditioner,thermostat,decreased> <null,time,morning>	0.468050808748
0.0295585414344	<Air_Conditioner,thermostat,decreased> <null,time,night>	0.0928081252733
0.0105449615375	<Air_Conditioner,thermostat,decreased> <null-null,locationMode-time,away-evening>	0.440838991306
0.0105449615375	<Air_Conditioner,thermostat,decreased> <null-null,locationMode-time,away-night>	0.451718627592
0.105354963263	<Air_Conditioner,thermostat,increased> </s>
0.0118623299571	<Air_Conditioner,thermostat,increased> <Air_Conditioner-Temperature_Sensor,thermostat-temperature,auto-lesser>	0.117557136818
0.00997683982927	<Air_Conditioner,thermostat,increased> <Air_Conditioner-null,thermostat-time,auto-morning>	0.587785678222
0.00997683982927	<Air_Conditioner,thermostat,increased> <Bread_Maker-null,switch-time,off-morning>	0.440838991306
0.00997683982927	<Air_Conditioner,thermostat,increased> <CO_Detector-null,carbonMonoxide-locationMode,detected-not_vacation>	0.451718627592
0.0104482125751	<Air_Conditioner,thermostat,increased> <CO_Detector-null,carbonMonoxide-locationMode,detected-vacation>	0.468050808748
0.0109195816491	<Air_Conditioner,thermostat,increased> <Coffee_Maker-null,switch-time,off-morning>	0.195928674322
0.0113909514282	<Air_Conditioner,thermostat,increased> <Contact_Sensor,contact,opened>	0.146946416621
0.0137477934951	<Air_Conditioner,thermostat,increased> <Door_Sensor-null,contact-locationMode,opened-away>	0.0839693903398
0.0156332761702	<Air_Conditioner,thermostat,increased> <Doorbell,button,pushed>	0.0367366034218
0.00950547885301	<Air_Conditioner,thermostat,increased> <Gas_Sensor-null,odorLevel-locationMode,greater-not_vacation>	0.451718627592
0.0109195816491	<Air_Conditioner,thermostat,increased> <Gas_Sensor-null,odorLevel-locationMode,greater-vacation>	0.451718627592
0.0161046392165	<Air_Conditioner,thermostat,increased> <Glass_Break_Detector,shock,detected>	0.293892836177
0.0109195816491	<Air_Conditioner,thermostat,increased> <Glass_Break_Detector-null,shock-locationMode,detected-away>	0.146946416621
0.0104482125751	<Air_Conditioner,thermostat,increased> <Glass_Break_Detector-null,shock-locationMode,detected-night>	0.220419493452
0.0118623299571	<Air_Conditioner,thermostat,increased> <Light_Bulb-Motion_Sensor,switch-motion,off-detected>	0.160304974735
0.0118623299571	<Air_Conditioner,thermostat,increased> <Light_Bulb-Motion_Sensor,switch-motion,on-not_detected>	0.0464040621734
0.0179901175046	<Air_Conditioner,thermostat,increased> <Moisture_Sensor,water,wet>	0.468050808748
0.0151619129895	<Air_Conditioner,thermostat,increased> <Smoke_Detector,smoke,detected>	0.451718627592
0.0212896734452	<Air_Conditioner,thermostat,increased> <Temperature_Sensor,temperature,greater>	0.0113035536516
0.0236465616132	<Air_Conditioner,thermostat,increased> <Temperature_Sensor,temperature,lesser>	0.0323551933912
0.0118623299571	<Air_Conditioner,thermostat,increased> <Temperature_Sensor-null,temperature-locationMode,greater-not_vacation>	0.251908023272
0.00950547885301	<Air_Conditioner,thermostat,increased> <Water_Leak_Detector-null,water-locationMode,wet-not_vacation>	0.451718627592
0.0123336891908	<Air_Conditioner,thermostat,increased> <Weather_Station-null,rain-time,false-night>	0.125954010378
0.0175187453569	<Air_Conditioner,thermostat,increased> <null,locationMode,night>	0.117557136818
0.0497109428124	<Air_Conditioner,thermostat,increased> <null,time,evening>	0.088602912912
0.0288316169896	<Air_Conditioner,thermostat,increased> <null,time,night>	0.160304974735
0.10802020571	<Air_Conditioner,thermostat,off> </s>
0.00940554574478	<Air_Conditioner,thermostat,off> <Air_Conditioner-Temperature_Sensor,thermostat-temperature,auto-lesser>	0.176335600043
0.00770285991839	<Air_Conditioner,thermostat,off> <Air_Conditioner-null,thermostat-time,auto-morning>	0.251908023272
0.00855421181833	<Air_Conditioner,thermostat,off> <Air_Conditioner-null,thermostat-time,auto-night>	0.1356428793
0.0196216262918	<Air_Conditioner,thermostat,off> <Air_Purifier,airQuality,lesser>	0.468050808748
0.00812852975812	<Air_Conditioner,thermostat,off> <Car_Automation,presence,present>	0.440838991306
0.00897986897633	<Air_Conditioner,thermostat,off> <Contact_Sensor,contact,opened>	0.468050808748
0.0111082334939	<Air_Conditioner,thermostat,off> <Door_Sensor-null,contact-locationMode,opened-away>	0.0241555538697
0.00685152110755	<Air_Conditioner,thermostat,off> <Door_Sensor-null-null,contact-locationMode-time,opened-away-evening>	0.0608053790312
0.012810910585	<Air_Conditioner,thermostat,off> <Doorbell,button,pushed>	0.195928674322
0.00812852975812	<Air_Conditioner,thermostat,off> <Garage_Door_Opener,signalStrength,lesser>	0.468050808748
0.0132365864369	<Air_Conditioner,thermostat,off> <Gas_Sensor,odorLevel,greater>	0.352671203608
0.00855421181833	<Air_Conditioner,thermostat,off> <Glass_Break_Detector-null,shock-locationMode,detected-away>	0.440838991306
0.00812852975812	<Air_Conditioner,thermostat,off> <Glass_Break_Detector-null,shock-locationMode,detected-night>	0.176335600043
0.00855421181833	<Air_Conditioner,thermostat,off> <Illuminance_Sensor,illuminance,lesser>	0.468050808748
0.00940554574478	<Air_Conditioner,thermostat,off> <Light_Bulb-Motion_Sensor,switch-motion,off-detected>	0.195928674322
0.00940554574478	<Air_Conditioner,thermostat,off> <Light_Bulb-Motion_Sensor,switch-motion,on-not_detected>	0.1356428793
0.00812852975812	<Air_Conditioner,thermostat,off> <Light_Bulb-null,switch-locationMode,on-away>	0.440838991306
0.0149392570518	<Air_Conditioner,thermostat,off> <Moisture_Sensor,water,wet>	0.451718627592
0.0145135950006	<Air_Conditioner,thermostat,off> <Sleep_Monitor,sleeping,detected>	0.451718627592
0.00897986897633	<Air_Conditioner,thermostat,off> <Smart_Assistant,voice,command>	0.451718627592
0.010682551618	<Air_Conditioner,thermostat,off> <Smart_TV,switch,on>	0.451718627592
0.00897986897633	<Air_Conditioner,thermostat,off> <Smoke_Detector,battery,lesser>	0.587785678222
0.00855421181833	<Air_Conditioner,thermostat,off> <Smoke_Detector,tamper,detected>	0.451718627592
0.00855421181833	<Air_Conditioner,thermostat,off> <Temperature_Sensor,temperature,equal>	0.468050808748
0.0411292698749	<Air_Conditioner,thermostat,off> <Temperature_Sensor,temperature,greater>	0.195928674322
0.0636235649788	<Air_Conditioner,thermostat,off> <Temperature_Sensor,temperature,lesser>	0.21160260017
0.0483657581635	<Air_Conditioner,thermostat,off> <null,locationMode,away>	0.205966694887
0.0145135950006	<Air_Conditioner,thermostat,off> <null,locationMode,night>	0.352671203608
0.0149392570518	<Air_Conditioner,thermostat,off> <null,time,evening>	0.352671203608
0.0306890892353	<Air_Conditioner,thermostat,off> <null,time,morning>	0.352671203608
0.0479399967218	<Air_Conditioner,thermostat,off> <null,time,night>	0.160304974735
0.00855421181833	<Air_Conditioner,thermostat,off> <null-null,locationMode-time,home-night>	0.468050808748
0.0609555143151	<Air_Conditioner-Electric_Blanket-Robot_Vacuum-Oil_Warmer,thermostat-switch-switch-switch,off-off-off-off> </s>
0.0231970094813	<Air_Conditioner-Electric_Blanket-Robot_Vacuum-Oil_Warmer,thermostat-switch-switch-switch,off-off-off-off> <CO_Detector,carbonMonoxide,detected>	0.451718627592
0.0309555838779	<Air_Conditioner-Electric_Blanket-Robot_Vacuum-Oil_Warmer,thermostat-switch-switch-switch,off-off-off-off> <Motion_Sensor,motion,detected>	0.451718627592
0.0252659713883	<Air_Conditioner-Electric_Blanket-Robot_Vacuum-Oil_Warmer,thermostat-switch-switch-switch,off-off-off-off> <Presence_Sensor,presence,present>	0.451718627592
0.0247487346906	<Air_Conditioner-Electric_Blanket-Robot_Vacuum-Oil_Warmer,thermostat-switch-switch-switch,off-off-off-off> <Pulse_Monitor,pulse,greater>	0.0881677991414
0.0273349321352	<Air_Conditioner-Electric_Blanket-Robot_Vacuum-Oil_Warmer,thermostat-switch-switch-switch,off-off-off-off> <Water_Leak_Detector,water,wet>	0.587785678222
0.0428521878451	<Air_Conditioner-Electric_Blanket-Robot_Vacuum-Oil_Warmer,thermostat-switch-switch-switch,off-off-off-off> <null,locationMode,away>	0.125954010378
0.0278521676082	<Air_Conditioner-Electric_Blanket-Robot_Vacuum-Oil_Warmer,thermostat-switch-switch-switch,off-off-off-off> <null,locationMode,home>	0.160304974735
0.0242314833142	<Air_Conditioner-Electric_Blanket-Robot_Vacuum-Oil_Warmer,thermostat-switch-switch-switch,off-off-off-off> <null,locationMode,vacation>	0.451718627592
0.0237142284878	<Air_Conditioner-Electric_Blanket-Robot_Vacuum-Oil_Warmer,thermostat-switch-switch-switch,off-off-off-off> <null,time,afternoon>	0.146946416621
0.0495762873077	<Air_Conditioner-Electric_Blanket-Robot_Vacuum-Oil_Warmer,thermostat-switch-switch-switch,off-off-off-off> <null,time,morning>	0.352671203608
0.0423349450109	<Air_Conditioner-Electric_Blanket-Robot_Vacuum-Oil_Warmer,thermostat-switch-switch-switch,off-off-off-off> <null,time,night>	0.1356428793
0.0876481996832	<Air_Conditioner-Fan,thermostat-switch,auto-on> </s>
0.047820597703	<Air_Conditioner-Fan,thermostat-switch,auto-on> <CO_Detector-Gas_Sensor,alarm-alarm,siren-siren>	0.451718627592
0.0576482329876	<Air_Conditioner-Fan,thermostat-switch,auto-on> <Motion_Sensor,motion,detected>	0.0801524865675
0.0607516391221	<Air_Conditioner-Fan,thermostat-switch,auto-on> <Temperature_Sensor,temperature,greater>	0.0839693903398
0.0633378037418	<Air_Conditioner-Fan,thermostat-switch,auto-on> <Temperature_Sensor,temperature,lesser>	0.117557136818
0.0876481996832	<Air_Conditioner-Fan,thermostat-switch,off-off> </s>
0.047820597703	<Air_Conditioner-Fan,thermostat-switch,off-off> <CO_Detector-Gas_Sensor,alarm-alarm,siren-siren>	0.587785678222
0.0576482329876	<Air_Conditioner-Fan,thermostat-switch,off-off> <Motion_Sensor,motion,detected>	0.041008322098
0.0607516391221	<Air_Conditioner-Fan,thermostat-switch,off-off> <Temperature_Sensor,temperature,greater>	0.468050808748
0.0633378037418	<Air_Conditioner-Fan,thermostat-switch,off-off> <Temperature_Sensor,temperature,lesser>	0.0587785678222
0.0488551105107	<Air_Conditioner-Fan-Light_Bulb,thermostat-switch-switch,off-off-off> <Blood_Pressure_Monitor,pressure,greater>	0.160304974735
0.0483379246069	<Air_Conditioner-Fan-Light_Bulb,thermostat-switch-switch,off-off-off> <Blood_Pressure_Monitor,pressure,lesser>	0.251908023272
0.0483379246069	<Air_Conditioner-Fan-Light_Bulb,thermostat-switch-switch,off-off-off> <Dust_Detector,dust,greater>	0.468050808748
0.0488551105107	<Air_Conditioner-Fan-Light_Bulb,thermostat-switch-switch,off-off-off> <Motion_Sensor,motion,not_detected>	0.0801524865675
0.0566137600667	<Air_Conditioner-Fan-Light_Bulb,thermostat-switch-switch,off-off-off> <Sleep_Monitor,sleeping,detected>	0.587785678222
0.0876481996832	<Air_Conditioner-Heater,thermostat-switch,off-off> </s>
0.049372372846	<Air_Conditioner-Heater,thermostat-switch,off-off> <Door_Lock-Presence_Sensor-null,lock-presence-time,unlocked-not_present-night>	0.451718627592
0.0498895974832	<Air_Conditioner-Heater,thermostat-switch,off-off> <Illuminance_Sensor-Motion_Sensor,illuminance-motion,lesser-detected>	0.220419493452
0.049372372846	<Air_Conditioner-Heater,thermostat-switch,off-off> <Presence_Sensor,presence,not_present>	0.0928081252733
0.0633378037418	<Air_Conditioner-Heater,thermostat-switch,off-off> <Temperature_Sensor,temperature,lesser>	0.468050808748
0.0876481996832	<Air_Conditioner-Light_Bulb,thermostat-colorValue,auto-fixed_value> </s>
0.0524757917621	<Air_Conditioner-Light_Bulb,thermostat-colorValue,auto-fixed_value> <Moisture_Sensor,water,dry>	0.587785678222
0.0483379246069	<Air_Conditioner-Light_Bulb,thermostat-colorValue,auto-fixed_value> <Motion_Sensor-Security_Camera,motion-image,detected-take>	0.0705342414258
0.0483379246069	<Air_Conditioner-Light_Bulb,thermostat-colorValue,auto-fixed_value> <Refrigerator-null,contact-time,opened-evening>	0.160304974735
0.0690274770115	<Air_Conditioner-Light_Bulb,thermostat-colorValue,auto-fixed_value> <null,time,night>	0.293892836177
0.11815415538	<Air_Conditioner-Light_Bulb,thermostat-switch,auto-on> </s>
0.0778092089378	<Air_Conditioner-Light_Bulb,thermostat-switch,auto-on> <Door_Sensor-null-null,contact-locationMode-time,opened-away-evening>	0.0400762428836
0.080395362913	<Air_Conditioner-Light_Bulb,thermostat-switch,auto-on> <Smart_Assistant,voice,command>	0.165314519829
0.0745742681472	<Air_Conditioner-Oil_Warmer-Robot_Vacuum-Smart_TV,thermostat-switch-switch-switch,auto-on-on-on> </s>
0.0368156947099	<Air_Conditioner-Oil_Warmer-Robot_Vacuum-Smart_TV,thermostat-switch-switch-switch,auto-on-on-on> <CO_Detector,carbonMonoxide,detected>	0.451718627592
0.0383673673255	<Air_Conditioner-Oil_Warmer-Robot_Vacuum-Smart_TV,thermostat-switch-switch-switch,auto-on-on-on> <Pulse_Monitor,pulse,greater>	0.468050808748
0.0502638788572	<Air_Conditioner-Oil_Warmer-Robot_Vacuum-Smart_TV,thermostat-switch-switch-switch,auto-on-on-on> <Temperature_Sensor,temperature,lesser>	0.451718627592
0.0564708077676	<Air_Conditioner-Oil_Warmer-Robot_Vacuum-Smart_TV,thermostat-switch-switch-switch,auto-on-on-on> <null,locationMode,away>	0.352671203608
0.0373329234674	<Air_Conditioner-Oil_Warmer-Robot_Vacuum-Smart_TV,thermostat-switch-switch-switch,auto-on-on-on> <null,time,afternoon>	0.451718627592
0.0559535956393	<Air_Conditioner-Oil_Warmer-Robot_Vacuum-Smart_TV,thermostat-switch-switch-switch,auto-on-on-on> <null,time,night>	0.207453611625
0.0829816373791	<Air_Conditioner-Refrigerator-Water_Heater,thermostat-thermostat-switch,off-decreased-off> <Door_Sensor-null,contact-locationMode,opened-away>	0.587785678222
0.0809127571005	<Air_Conditioner-Refrigerator-Water_Heater,thermostat-thermostat-switch,off-decreased-off> <Temperature_Sensor-null,temperature-locationMode,greater-not_vacation>	0.468050808748
0.0814299184766	<Air_Conditioner-Refrigerator-Water_Heater,thermostat-thermostat-switch,off-decreased-off> <Weather_Station-null,rain-time,false-night>	0.440838991306
0.0876481996832	<Air_Conditioner-Security_Camera,thermostat-switch,off-on> </s>
0.0488551105107	<Air_Conditioner-Security_Camera,thermostat-switch,off-on> <Blood_Pressure_Monitor,pressure,greater>	0.468050808748
0.0483379246069	<Air_Conditioner-Security_Camera,thermostat-switch,off-on> <Security_Camera-null,image-time,take-night>	0.468050808748
0.0540275159221	<Air_Conditioner-Security_Camera,thermostat-switch,off-on> <Smoke_Detector,smoke,detected>	0.468050808748
0.0695446939123	<Air_Conditioner-Security_Camera,thermostat-switch,off-on> <null,locationMode,away>	0.103726804777
0.0745742681472	<Air_Conditioner-Shades/Blinds,thermostat-contact,decreased-closed> </s>
0.0357812081169	<Air_Conditioner-Shades/Blinds,thermostat-contact,decreased-closed> <Temperature_Sensor-null,temperature-locationMode,greater-away>	0.0881677991414
0.0357812081169	<Air_Conditioner-Shades/Blinds,thermostat-contact,decreased-closed> <Temperature_Sensor-null,temperature-locationMode,greater-home>	0.0489821676025
0.0357812081169	<Air_Conditioner-Shades/Blinds,thermostat-contact,decreased-closed> <Temperature_Sensor-null,temperature-locationMode,lesser-away>	0.0839693903398
0.0362984432814	<Air_Conditioner-Shades/Blinds,thermostat-contact,decreased-closed> <Temperature_Sensor-null,temperature-locationMode,lesser-home>	0.0839693903398
0.0357812081169	<Air_Conditioner-Shades/Blinds,thermostat-contact,decreased-closed> <null-null,locationMode-time,away-evening>	0.451718627592
0.0357812081169	<Air_Conditioner-Shades/Blinds,thermostat-contact,decreased-closed> <null-null,locationMode-time,away-night>	0.587785678222
0.836893124645	<Air_Conditioner-Temperature_Sensor,thermostat-temperature,auto-greater> <Air_Conditioner,thermostat,auto>	0.111668581646
0.890822135466	<Air_Conditioner-Temperature_Sensor,thermostat-temperature,auto-lesser> <Air_Conditioner,thermostat,increased>	0.138302490247
0.8040073149	<Air_Conditioner-null,thermostat-time,auto-morning> <Air_Conditioner,thermostat,off>	0.194866417056
0.860005047121	<Air_Conditioner-null,thermostat-time,auto-night> <Air_Conditioner,thermostat,off>	0.191392978026
0.836893124645	<Air_Conditioner-null,thermostat-time,off-evening> <Air_Conditioner,thermostat,auto>	0.226061185095
0.0422631633126	<Air_Cooler,switch,on> <Dishwasher,weight,greater>	0.468050808748
0.0412286391397	<Air_Cooler,switch,on> <Door_Lock-null,lock-time,unlocked-night>	0.587785678222
0.0495045366523	<Air_Cooler,switch,on> <Moisture_Sensor,water,wet>	0.293892836177
0.0531252516156	<Air_Cooler,switch,on> <Temperature_Sensor,temperature,greater>	0.0551048722627
0.0495045366523	<Air_Cooler,switch,on> <null,time,evening>	0.468050808748
0.0614010785678	<Air_Cooler,switch,on> <null,time,night>	0.176335600043
0.0824644942846	<Air_Cooler-Audio_Player-Phone-Shades/Blinds,switch-switch-notification-contact,off-on-notify-opened> <Weather_Station,rain,true>	0.451718627592
0.0871196255289	<Air_Cooler-Audio_Player-Phone-Shades/Blinds,switch-switch-notification-contact,off-on-notify-opened> <null,locationMode,night>	0.587785678222
0.0783265503842	<Air_Cooler-Audio_Player-Phone-Shades/Blinds,switch-switch-notification-contact,off-on-notify-opened> <null-null,locationMode-time,vacation-morning>	0.468050808748
0.910548325419	<Air_Purifier,airQuality,greater> <Air_Purifier,switch,off>	0.146817559277
0.97018375854	<Air_Purifier,airQuality,lesser> <Air_Purifier,switch,on>	0.0731735288962
0.0594889084204	<Air_Purifier,switch,off> </s>
0.0232820919447	<Air_Purifier,switch,off> <Air_Purifier,airQuality,greater>	0.117557136818
0.0346613920019	<Air_Purifier,switch,off> <Air_Purifier,airQuality,lesser>	0.1356428793
0.0269027700787	<Air_Purifier,switch,off> <Gas_Sensor,odorLevel,greater>	0.451718627592
0.0227648608484	<Air_Purifier,switch,off> <Gas_Sensor,odorLevel,lesser>	0.468050808748
0.0248337897535	<Air_Purifier,switch,off> <Humidity_Sensor,humidity,greater>	0.0928081252733
0.0217303639429	<Air_Purifier,switch,off> <Smoke_Detector,battery,lesser>	0.468050808748
0.0212131420427	<Air_Purifier,switch,off> <Smoke_Detector,tamper,detected>	0.451718627592
0.0351786362984	<Air_Purifier,switch,off> <Temperature_Sensor,temperature,lesser>	0.293892836177
0.0248337897535	<Air_Purifier,switch,off> <Temperature_Sensor-null,temperature-time,lesser-night>	0.117557136818
0.02897176808	<Air_Purifier,switch,off> <null,time,evening>	0.0928081252733
0.0481096281326	<Air_Purifier,switch,off> <null,time,morning>	0.0766676232444
0.040868246105	<Air_Purifier,switch,off> <null,time,night>	0.251908023272
0.0497788661341	<Air_Purifier,switch,on> </s>
0.010985807885	<Air_Purifier,switch,on> <Air_Conditioner-Temperature_Sensor,thermostat-temperature,auto-greater>	0.0653094460317
0.0135720046572	<Air_Purifier,switch,on> <Air_Purifier,airQuality,greater>	0.0653094460317
0.0249512897769	<Air_Purifier,switch,on> <Air_Purifier,airQuality,lesser>	0.023829119763
0.0130547632429	<Air_Purifier,switch,on> <Button,button,pushed>	0.125954010378
0.0140892540446	<Air_Purifier,switch,on> <Door_Sensor,contact,opened>	0.0608053790312
0.0120202915077	<Air_Purifier,switch,on> <Door_Sensor-null,contact-time,opened-morning>	0.0678214389728
0.0171926966302	<Air_Purifier,switch,on> <Gas_Sensor,odorLevel,greater>	0.451718627592
0.0130547632429	<Air_Purifier,switch,on> <Gas_Sensor,odorLevel,lesser>	0.587785678222
0.0151237329456	<Air_Purifier,switch,on> <Humidity_Sensor,humidity,greater>	0.220419493452
0.0146064945165	<Air_Purifier,switch,on> <Humidity_Sensor,humidity,lesser>	0.110209745626
0.0130547632429	<Air_Purifier,switch,on> <Humidity_Sensor-Temperature_Sensor,humidity-temperature,greater-greater>	0.176335600043
0.0120202915077	<Air_Purifier,switch,on> <Induction_Cooktop-null,switch-locationMode,on-away>	0.587785678222
0.0146064945165	<Air_Purifier,switch,on> <Moisture_Sensor,water,dry>	0.028907464435
0.0192616727476	<Air_Purifier,switch,on> <Moisture_Sensor,water,wet>	0.0551048722627
0.0197788938644	<Air_Purifier,switch,on> <Motion_Sensor,motion,detected>	0.0320609952672
0.010985807885	<Air_Purifier,switch,on> <Refrigerator,temperature,greater>	0.146946416621
0.0156409814155	<Air_Purifier,switch,on> <Security_Alarm,alarm,siren_strobe>	0.0979643361831
0.0187444197069	<Air_Purifier,switch,on> <Sleep_Monitor,sleeping,detected>	0.0801524865675
0.010985807885	<Air_Purifier,switch,on> <Sleep_Monitor,sleeping,not_detected>	0.316438997522
0.0115030498005	<Air_Purifier,switch,on> <Smoke_Detector,tamper,detected>	0.451718627592
0.0254685370987	<Air_Purifier,switch,on> <Temperature_Sensor,temperature,lesser>	0.195928674322
0.0151237329456	<Air_Purifier,switch,on> <Temperature_Sensor-null,temperature-time,lesser-night>	0.125954010378
0.0316754650655	<Air_Purifier,switch,on> <null,locationMode,away>	0.158561957981
0.0192616727476	<Air_Purifier,switch,on> <null,time,evening>	0.352671203608
0.038399538068	<Air_Purifier,switch,on> <null,time,morning>	0.185218771785
0.0311581741246	<Air_Purifier,switch,on> <null,time,night>	0.311180231819
0.010468561289	<Air_Purifier,switch,on> <null,time,noon>	0.195928674322
0.00836792925727	<Air_Purifier,switch,on> <null-null,locationMode-time,away-morning>	0.352671203608
0.0990879857023	<Air_Purifier-Light_Bulb,switch-switch,off-off> </s>
0.074260351404	<Air_Purifier-Light_Bulb,switch-switch,off-off> <Air_Purifier,airQuality,lesser>	0.0568824115264
0.0623637181355	<Air_Purifier-Light_Bulb,switch-switch,off-off> <Button,button,pushed>	0.503816051574
0.0809845176792	<Air_Purifier-Light_Bulb,switch-switch,off-off> <null,locationMode,away>	0.023829119763
0.0745742681472	<Audio_Player,mute,muted> </s>
0.0362984432814	<Audio_Player,mute,muted> <Air_Conditioner-null,thermostat-time,auto-night>	0.0839693903398
0.0414708560258	<Audio_Player,mute,muted> <Doorbell,button,pushed>	0.352671203608
0.0357812081169	<Audio_Player,mute,muted> <Light_Bulb-null,switch-locationMode,on-away>	0.440838991306
0.0362984432814	<Audio_Player,mute,muted> <Smoke_Detector,tamper,detected>	0.468050808748
0.0564708077676	<Audio_Player,mute,muted> <null,locationMode,away>	0.468050808748
0.0559535956393	<Audio_Player,mute,muted> <null,time,night>	0.1356428793
0.106706776372	<Audio_Player,switch,off> </s>
0.017133812106	<Audio_Player,switch,off> <Beacon_Device,presence,not_present>	0.440838991306
0.0198950483991	<Audio_Player,switch,off> <Beacon_Device,presence,present>	0.302198984071
0.0180542312135	<Audio_Player,switch,off> <Button,button,pushed>	0.1356428793
0.0217358686013	<Audio_Player,switch,off> <Gas_Sensor,odorLevel,greater>	0.451718627592
0.0217358686013	<Audio_Player,switch,off> <Glass_Break_Detector,shock,detected>	0.587785678222
0.0235766990565	<Audio_Player,switch,off> <Moisture_Sensor,water,wet>	0.451718627592
0.0231164957684	<Audio_Player,switch,off> <Sleep_Monitor,sleeping,detected>	0.352671203608
0.0189746161925	<Audio_Player,switch,off> <Smart_TV,switch,on>	0.587785678222
0.0166735854665	<Audio_Player,switch,off> <Temperature_Sensor,temperature,equal>	0.451718627592
0.0290991966864	<Audio_Player,switch,off> <Temperature_Sensor,temperature,lesser>	0.587785678222
0.0208154593872	<Audio_Player,switch,off> <Water_Leak_Detector,water,wet>	0.468050808748
0.0905995415345	<Audio_Player,switch,off> <null,locationMode,away>	0.320609952672
0.0231164957684	<Audio_Player,switch,off> <null,locationMode,night>	0.176335600043
0.0406042973964	<Audio_Player,switch,off> <null,time,morning>	0.468050808748
0.0745742681472	<Audio_Player,switch,on> </s>
0.0368156947099	<Audio_Player,switch,on> <Beacon_Device,presence,not_present>	0.440838991306
0.0399191237793	<Audio_Player,switch,on> <Beacon_Device,presence,present>	0.142086887214
0.0378501844302	<Audio_Player,switch,on> <Button,button,pushed>	0.195928674322
0.0564708077676	<Audio_Player,switch,on> <null,locationMode,away>	0.451718627592
0.043539756913	<Audio_Player,switch,on> <null,locationMode,night>	0.293892836177
0.063194895496	<Audio_Player,switch,on> <null,time,morning>	0.468050808748
0.0876481996832	<Audio_Player,volume,decreased> </s>
0.047820597703	<Audio_Player,volume,decreased> <Audio_Player-null,switch-time,on-night>	0.0534350229188
0.0473033610719	<Audio_Player,volume,decreased> <Security_Camera-null,switch-locationMode,off-vacation>	0.451718627592
0.047820597703	<Audio_Player,volume,decreased> <Weather_Station-null,rain-time,true-morning>	0.146946416621
0.0695446939123	<Audio_Player,volume,decreased> <null,locationMode,away>	0.0629770045604
0.155597279711	<Audio_Player-Light_Bulb-Phone,switch-colorValue-notification,on-fixed_value-notify> </s>
0.13296397806	<Audio_Player-Light_Bulb-Phone,switch-colorValue-notification,on-fixed_value-notify> <Blood_Pressure_Monitor,pressure,greater>	0.0979643361831
0.132662140394	<Audio_Player-Light_Bulb-Phone,switch-colorValue-notification,on-fixed_value-notify> <Blood_Pressure_Monitor,pressure,lesser>	0.0928081252733
0.0269262578285	<Audio_Player-Light_Bulb-Phone,switch-colorValue-notification,on-fixed_value-notify> <Dust_Detector,dust,greater>	0.468050808748
0.13749059772	<Audio_Player-Light_Bulb-Phone,switch-colorValue-notification,on-fixed_value-notify> <Sleep_Monitor,sleeping,detected>	0.251908023272
0.0876481996832	<Audio_Player-Light_Bulb-Phone-Shades/Blinds,switch-switch-notification-contact,on-on-notify-closed> </s>
0.0488551105107	<Audio_Player-Light_Bulb-Phone-Shades/Blinds,switch-switch-notification-contact,on-on-notify-closed> <Weather_Station,cold,true>	0.451718627592
0.0566137600667	<Audio_Player-Light_Bulb-Phone-Shades/Blinds,switch-switch-notification-contact,on-on-notify-closed> <null,locationMode,night>	0.451718627592
0.0762688152208	<Audio_Player-Light_Bulb-Phone-Shades/Blinds,switch-switch-notification-contact,on-on-notify-closed> <null,time,morning>	0.468050808748
0.0483379246069	<Audio_Player-Light_Bulb-Phone-Shades/Blinds,switch-switch-notification-contact,on-on-notify-closed> <null-null,locationMode-time,vacation-night>	0.251908023272
0.754008080308	<Audio_Player-null,switch-time,on-night> <Audio_Player,volume,decreased>	0.0815776142205
0.147692009653	<Beacon_Device,presence,not_present> <Smart_TV,switch,off>	0.167938782356
0.633882847244	<Beacon_Device,presence,not_present> <null,locationMode,away>	0.143947458007
0.188260409924	<Beacon_Device,presence,present> <Audio_Player,switch,off>	0.195190645369
0.188077134779	<Beacon_Device,presence,present> <Audio_Player,switch,on>	0.167288466466
0.0630772861668	<Beacon_Device,presence,present> <Bread_Maker-Light_Bulb-Thermostat,switch-switch-thermostat,on-off-decreased>	0.110209745626
0.157968683943	<Beacon_Device,presence,present> <Smart_TV,switch,on>	0.15333524802
0.252234216571	<Beacon_Device,presence,present> <null,locationMode,home>	0.0518634018707
0.804666646209	<Beacon_Device-Light_Bulb,presence-switch,not_present-on> <Light_Bulb,switch,off>	0.174877525732
0.836893124645	<Beacon_Device-Light_Bulb,presence-switch,present-off> <Light_Bulb,switch,on>	0.226051815837
0.672010408935	<Beacon_Device-null,presence-time,present-evening> <Bread_Maker-Light_Bulb-Thermostat,switch-switch-thermostat,off-on-increased>	0.0953164809554
0.197280881595	<Blood_Pressure_Monitor,pressure,greater> <Audio_Player-Light_Bulb-Phone,switch-colorValue-notification,on-fixed_value-notify>	0.243221520981
0.50660095016	<Blood_Pressure_Monitor,pressure,greater> <Phone,notification,notify>	0.342233879194
0.336497622427	<Blood_Pressure_Monitor,pressure,lesser> <Audio_Player-Light_Bulb-Phone,switch-colorValue-notification,on-fixed_value-notify>	0.29590819987
0.340302390605	<Blood_Pressure_Monitor,pressure,lesser> <Phone,notification,notify>	0.389813611744
0.0427804156682	<Bread_Maker,switch,on> <Air_Conditioner-Temperature_Sensor,thermostat-temperature,auto-lesser>	0.251908023272
0.0412286391397	<Bread_Maker,switch,on> <Air_Conditioner-null,thermostat-time,off-evening>	0.1356428793
0.0417459164903	<Bread_Maker,switch,on> <Coffee_Maker-null,switch-time,off-morning>	0.251908023272
0.0422631633126	<Bread_Maker,switch,on> <Contact_Sensor,contact,opened>	0.293892836177
0.0427804156682	<Bread_Maker,switch,on> <Light_Bulb-Motion_Sensor,switch-motion,off-detected>	0.587785678222
0.0427804156682	<Bread_Maker,switch,on> <Light_Bulb-Motion_Sensor,switch-motion,on-not_detected>	0.352671203608
0.156286332534	<Bread_Maker-Light_Bulb-Thermostat,switch-switch-thermostat,off-on-increased> </s>
0.11594152275	<Bread_Maker-Light_Bulb-Thermostat,switch-switch-thermostat,off-on-increased> <Beacon_Device-null,presence-time,present-evening>	0.0678214389728
0.0990879857023	<Bread_Maker-Light_Bulb-Thermostat,switch-switch-thermostat,on-off-decreased> </s>
0.0644327993304	<Bread_Maker-Light_Bulb-Thermostat,switch-switch-thermostat,on-off-decreased> <Beacon_Device,presence,present>	0.0476582400019
0.0587431187408	<Bread_Maker-Light_Bulb-Thermostat,switch-switch-thermostat,on-off-decreased> <Beacon_Device-null,presence-time,present-evening>	0.220419493452
0.0877085638744	<Bread_Maker-Light_Bulb-Thermostat,switch-switch-thermostat,on-off-decreased> <null,time,morning>	0.1356428793
0.803206103531	<Bread_Maker-null,switch-time,off-morning> <Bread_Maker,switch,on>	0.258051863715
0.252448038144	<Button,button,pushed> <Light_Bulb,switch,off>	0.111958997226
0.251333280583	<Button,button,pushed> <Light_Bulb-Smart_TV,switch-switch,off-off>	0.110209745626
0.316061793362	<Button,button,pushed> <null,locationMode,night>	0.243907974681
0.803478018757	<Button-Car_Automation,button-presence,pushed-present> <Garage_Door_Opener,contact,opened>	0.210647835055
0.131349674231	<CO_Detector,carbonMonoxide,detected> <Phone-Security_Alarm,notification-alarm,notify-siren>	0.451718627592
0.225803152013	<CO_Detector,carbonMonoxide,detected> <Phone-Security_Alarm,notification-alarm,notify-siren_strobe>	0.519751797545
0.335875247914	<CO_Detector,carbonMonoxide,detected> <Security_Alarm,alarm,siren>	0.553768183585
0.754008080308	<CO_Detector-Gas_Sensor,alarm-alarm,siren-siren> <Light_Bulb-Security_Alarm,mode-alarm,flash-strobe>	0.442047562334
0.672010408935	<CO_Detector-Gas_Sensor,carbonMonoxide-odorLevel,detected-greater> <Light_Bulb-Speaker,colorValue-switch,fixed_value-on>	0.451718627592
0.804270241808	<CO_Detector-null,carbonMonoxide-locationMode,detected-not_vacation> <Phone-Security_Alarm,notification-alarm,notify-siren_strobe>	0.368601416637
0.838102237302	<CO_Detector-null,carbonMonoxide-locationMode,detected-vacation> <Phone,notification,notify>	0.443805826946
0.83623241854	<Car_Automation,presence,present> <Garage_Door_Opener,contact,opened>	0.158997391729
0.0704886186699	<Car_Automation-Garage_Door_Opener,switch-contact,on-opened> </s>
0.0456610611341	<Car_Automation-Garage_Door_Opener,switch-contact,on-opened> <Air_Purifier,airQuality,lesser>	0.0608053790312
0.0327300749637	<Car_Automation-Garage_Door_Opener,switch-contact,on-opened> <Door_Sensor-null,contact-time,opened-morning>	0.0452142155091
0.0363507185464	<Car_Automation-Garage_Door_Opener,switch-contact,on-opened> <Security_Alarm,alarm,siren_strobe>	0.0734732075771
0.039454178037	<Car_Automation-Garage_Door_Opener,switch-contact,on-opened> <Sleep_Monitor,sleeping,detected>	0.0587785678222
0.0316956016485	<Car_Automation-Garage_Door_Opener,switch-contact,on-opened> <Sleep_Monitor,sleeping,not_detected>	0.220419493452
0.0518679400253	<Car_Automation-Garage_Door_Opener,switch-contact,on-opened> <null,time,night>	0.176335600043
0.0311783408096	<Car_Automation-Garage_Door_Opener,switch-contact,on-opened> <null,time,noon>	0.1356428793
0.757153614631	<Clothes_Dryer,completion,true> <Phone,notification,notify>	0.371571161477
0.0876481996832	<Clothes_Dryer,mode,ready> </s>
0.0498895974832	<Clothes_Dryer,mode,ready> <Dishwasher,weight,greater>	0.587785678222
0.0488551105107	<Clothes_Dryer,mode,ready> <Door_Lock-null,lock-time,unlocked-night>	0.451718627592
0.0571310229082	<Clothes_Dryer,mode,ready> <Moisture_Sensor,water,wet>	0.1356428793
0.0690274770115	<Clothes_Dryer,mode,ready> <null,time,night>	0.587785678222
0.0592603210509	<Coffee_Maker,switch,off> <Coffee_Maker,temperature,greater>	0.146946416621
0.0602948195856	<Coffee_Maker,switch,off> <Illuminance_Sensor,illuminance,greater>	0.352671203608
0.0608120998614	<Coffee_Maker,switch,off> <Refrigerator,filterStatus,replace>	0.451718627592
0.0877085638744	<Coffee_Maker,switch,off> <null,time,morning>	0.293892836177
0.0166898717714	<Coffee_Maker,switch,on> <Air_Conditioner-Temperature_Sensor,thermostat-temperature,auto-lesser>	0.451718627592
0.0151381568238	<Coffee_Maker,switch,on> <Air_Conditioner-null,thermostat-time,off-evening>	0.293892836177
0.0291036192453	<Coffee_Maker,switch,on> <Air_Purifier,airQuality,lesser>	0.1356428793
0.0146208964061	<Coffee_Maker,switch,on> <Bread_Maker-null,switch-time,off-morning>	0.176335600043
0.0141036655277	<Coffee_Maker,switch,on> <Coffee_Maker,temperature,greater>	0.220419493452
0.0156553939279	<Coffee_Maker,switch,on> <Coffee_Maker-null,switch-time,off-morning>	0.468050808748
0.0161726057648	<Coffee_Maker,switch,on> <Contact_Sensor,contact,opened>	0.468050808748
0.0182416030104	<Coffee_Maker,switch,on> <Door_Sensor,contact,opened>	0.440838991306
0.0187588408992	<Coffee_Maker,switch,on> <Humidity_Sensor,humidity,lesser>	0.468050808748
0.0151381568238	<Coffee_Maker,switch,on> <Illuminance_Sensor,illuminance,greater>	0.176335600043
0.0161726057648	<Coffee_Maker,switch,on> <Induction_Cooktop-null,switch-locationMode,on-away>	0.451718627592
0.0166898717714	<Coffee_Maker,switch,on> <Light_Bulb-Motion_Sensor,switch-motion,off-detected>	0.220419493452
0.0166898717714	<Coffee_Maker,switch,on> <Light_Bulb-Motion_Sensor,switch-motion,on-not_detected>	0.110209745626
0.0239312288572	<Coffee_Maker,switch,on> <Motion_Sensor,motion,detected>	0.220419493452
0.0156553939279	<Coffee_Maker,switch,on> <Refrigerator,filterStatus,replace>	0.451718627592
0.0203105647759	<Coffee_Maker,switch,on> <Smoke_Detector,smoke,detected>	0.468050808748
0.027034665474	<Coffee_Maker,switch,on> <Temperature_Sensor,temperature,greater>	0.224954663041
0.035827788351	<Coffee_Maker,switch,on> <null,locationMode,away>	0.146946416621
0.0425519042434	<Coffee_Maker,switch,on> <null,time,morning>	0.0309360599022
0.754008080308	<Coffee_Maker,temperature,greater> <Coffee_Maker,switch,off>	0.239241215367
0.0745742681472	<Coffee_Maker-Door_Lock-Garage_Door_Opener-Gas_Stove-Light_Bulb-Shades/Blinds-Smart_TV-Speaker,switch-lock-contact-switch-switch-contact-switch-switch,off-locked-closed-off-off-closed-off-off> </s>
0.034746734834	<Coffee_Maker-Door_Lock-Garage_Door_Opener-Gas_Stove-Light_Bulb-Shades/Blinds-Smart_TV-Speaker,switch-lock-contact-switch-switch-contact-switch-switch,off-locked-closed-off-off-closed-off-off> <Security_Alarm-null,alarm-locationMode,siren_strobe-away>	0.451718627592
0.0357812081169	<Coffee_Maker-Door_Lock-Garage_Door_Opener-Gas_Stove-Light_Bulb-Shades/Blinds-Smart_TV-Speaker,switch-lock-contact-switch-switch-contact-switch-switch,off-locked-closed-off-off-closed-off-off> <Weather_Station,cold,true>	0.468050808748
0.0388846326094	<Coffee_Maker-Door_Lock-Garage_Door_Opener-Gas_Stove-Light_Bulb-Shades/Blinds-Smart_TV-Speaker,switch-lock-contact-switch-switch-contact-switch-switch,off-locked-closed-off-off-closed-off-off> <Weather_Station,rain,true>	0.117557136818
0.043539756913	<Coffee_Maker-Door_Lock-Garage_Door_Opener-Gas_Stove-Light_Bulb-Shades/Blinds-Smart_TV-Speaker,switch-lock-contact-switch-switch-contact-switch-switch,off-locked-closed-off-off-closed-off-off> <null,locationMode,night>	0.0464040621734
0.063194895496	<Coffee_Maker-Door_Lock-Garage_Door_Opener-Gas_Stove-Light_Bulb-Shades/Blinds-Smart_TV-Speaker,switch-lock-contact-switch-switch-contact-switch-switch,off-locked-closed-off-off-closed-off-off> <null,time,morning>	0.146946416621
0.0352639534867	<Coffee_Maker-Door_Lock-Garage_Door_Opener-Gas_Stove-Light_Bulb-Shades/Blinds-Smart_TV-Speaker,switch-lock-contact-switch-switch-contact-switch-switch,off-locked-closed-off-off-closed-off-off> <null-null,locationMode-time,vacation-night>	0.468050808748
0.0587431187408	<Coffee_Maker-Light_Bulb-Robot_Vacuum,switch-switch-switch,on-on-on> <Temperature_Sensor-null,temperature-time,lesser-afternoon>	0.468050808748
0.0587431187408	<Coffee_Maker-Light_Bulb-Robot_Vacuum,switch-switch-switch,on-on-on> <Temperature_Sensor-null,temperature-time,lesser-morning>	0.293892836177
0.0644327993304	<Coffee_Maker-Light_Bulb-Robot_Vacuum,switch-switch-switch,on-on-on> <Temperature_Sensor-null,temperature-time,lesser-night>	0.587785678222
0.0877085638744	<Coffee_Maker-Light_Bulb-Robot_Vacuum,switch-switch-switch,on-on-on> <null,time,morning>	0.0551048722627
0.0990879857023	<Coffee_Maker-Light_Bulb-Thermostat,switch-colorValue-thermostat,on-fixed_value-increased> </s>
0.0644327993304	<Coffee_Maker-Light_Bulb-Thermostat,switch-colorValue-thermostat,on-fixed_value-increased> <Beacon_Device,presence,present>	0.0979643361831
0.0587431187408	<Coffee_Maker-Light_Bulb-Thermostat,switch-colorValue-thermostat,on-fixed_value-increased> <Beacon_Device-null,presence-time,present-evening>	0.587785678222
0.0877085638744	<Coffee_Maker-Light_Bulb-Thermostat,switch-colorValue-thermostat,on-fixed_value-increased> <null,time,morning>	0.103726804777
0.0704886186699	<Coffee_Maker-Shades/Blinds,switch-contact,on-opened> </s>
0.0306611189504	<Coffee_Maker-Shades/Blinds,switch-contact,on-opened> <Security_Alarm-null,alarm-locationMode,siren_strobe-away>	0.440838991306
0.0316956016485	<Coffee_Maker-Shades/Blinds,switch-contact,on-opened> <Weather_Station,cold,true>	0.440838991306
0.0347990189069	<Coffee_Maker-Shades/Blinds,switch-contact,on-opened> <Weather_Station,rain,true>	0.451718627592
0.039454178037	<Coffee_Maker-Shades/Blinds,switch-contact,on-opened> <null,locationMode,night>	0.440838991306
0.0591093250077	<Coffee_Maker-Shades/Blinds,switch-contact,on-opened> <null,time,morning>	0.0629770045604
0.0306611189504	<Coffee_Maker-Shades/Blinds,switch-contact,on-opened> <null-null,locationMode-time,vacation-morning>	0.451718627592
0.0311783408096	<Coffee_Maker-Shades/Blinds,switch-contact,on-opened> <null-null,locationMode-time,vacation-night>	0.468050808748
0.859601174084	<Coffee_Maker-null,switch-time,off-morning> <Coffee_Maker,switch,on>	0.208385261839
0.877002840515	<Contact_Sensor,contact,opened> <Security_Camera,image,take>	0.190632963814
0.756329430305	<Contact_Sensor-null,contact-time,opened-night> <Security_Alarm,alarm,siren_strobe>	0.0472327247745
0.0800217417533	<Dishwasher,mode,ready> </s>
0.0422631633126	<Dishwasher,mode,ready> <Dishwasher,weight,greater>	0.160304974735
0.0412286391397	<Dishwasher,mode,ready> <Door_Lock-null,lock-time,unlocked-night>	0.1356428793
0.0531252516156	<Dishwasher,mode,ready> <Temperature_Sensor,temperature,greater>	0.299939732629
0.0686424853976	<Dishwasher,mode,ready> <null,time,morning>	0.587785678222
0.0614010785678	<Dishwasher,mode,ready> <null,time,night>	0.117557136818
0.877002840515	<Dishwasher,weight,greater> <Dishwasher,mode,ready>	0.160304974735
0.107292903974	<Door_Lock,lock,locked> </s>
0.00699416703602	<Door_Lock,lock,locked> <Air_Conditioner-null,thermostat-time,auto-night>	0.587785678222
0.0166489557872	<Door_Lock,lock,locked> <Air_Purifier,airQuality,lesser>	0.0839693903398
0.00736549603399	<Door_Lock,lock,locked> <CO_Detector,carbonMonoxide,detected>	0.451718627592
0.00736549603399	<Door_Lock,lock,locked> <Dishwasher,weight,greater>	0.195928674322
0.00699416703602	<Door_Lock,lock,locked> <Door_Lock-Presence_Sensor-null,lock-presence-time,unlocked-not_present-night>	0.451718627592
0.00699416703602	<Door_Lock,lock,locked> <Door_Lock-null,lock-locationMode,unlocked-away>	0.176335600043
0.00662282073771	<Door_Lock,lock,locked> <Door_Lock-null,lock-time,unlocked-night>	0.440838991306
0.00885085039549	<Door_Lock,lock,locked> <Door_Sensor,contact,opened>	0.352671203608
0.0290080142436	<Door_Lock,lock,locked> <Doorbell,button,pushed>	0.176335600043
0.00662282073771	<Door_Lock,lock,locked> <Garage_Door_Opener-null,contact-locationMode,opened-away>	0.451718627592
0.011078883613	<Door_Lock,lock,locked> <Gas_Sensor,odorLevel,greater>	0.293892836177
0.011078883613	<Door_Lock,lock,locked> <Glass_Break_Detector,shock,detected>	0.587785678222
0.0092221886087	<Door_Lock,lock,locked> <Humidity_Sensor,humidity,lesser>	0.468050808748
0.00810817287972	<Door_Lock,lock,locked> <Humidity_Sensor-Temperature_Sensor,humidity-temperature,greater-greater>	0.587785678222
0.00736549603399	<Door_Lock,lock,locked> <Illuminance_Sensor-Motion_Sensor,illuminance-motion,lesser-detected>	0.195928674322
0.00662282073771	<Door_Lock,lock,locked> <Light_Bulb-null,switch-locationMode,on-away>	0.587785678222
0.0125642335305	<Door_Lock,lock,locked> <Moisture_Sensor,water,wet>	0.251908023272
0.0312360421359	<Door_Lock,lock,locked> <Motion_Sensor,motion,detected>	0.158791773775
0.00625148221528	<Door_Lock,lock,locked> <Motion_Sensor-Shades/Blinds-null,motion-contact-time,not_detected-closed-day>	0.293892836177
0.00699416703602	<Door_Lock,lock,locked> <Presence_Sensor,presence,not_present>	0.451718627592
0.00885085039549	<Door_Lock,lock,locked> <Presence_Sensor,presence,present>	0.251908023272
0.00847951475067	<Door_Lock,lock,locked> <Pulse_Monitor,pulse,greater>	0.293892836177
0.0121928996644	<Door_Lock,lock,locked> <Sleep_Monitor,sleeping,detected>	0.293892836177
0.00885085039549	<Door_Lock,lock,locked> <Smart_TV,switch,on>	0.251908023272
0.0286366360505	<Door_Lock,lock,locked> <Smoke_Detector,smoke,detected>	0.451718627592
0.0495217518946	<Door_Lock,lock,locked> <Temperature_Sensor,temperature,greater>	0.211935154118
0.0353207567664	<Door_Lock,lock,locked> <Temperature_Sensor,temperature,lesser>	0.169466554613
0.00662282073771	<Door_Lock,lock,locked> <Temperature_Sensor-null,temperature-time,greater-night>	0.468050808748
0.0286366360505	<Door_Lock,lock,locked> <Water_Leak_Detector,water,wet>	0.553768183585
0.0397768145006	<Door_Lock,lock,locked> <null,locationMode,away>	0.0979643361831
0.0290080142436	<Door_Lock,lock,locked> <null,locationMode,home>	0.047358942908
0.0077368290329	<Door_Lock,lock,locked> <null,time,afternoon>	0.223140807312
0.0446042252168	<Door_Lock,lock,locked> <null,time,morning>	0.26450324229
0.0554632098359	<Door_Lock,lock,locked> <null,time,night>	0.163273611819
0.00699416703602	<Door_Lock,lock,locked> <null-null,locationMode-time,home-night>	0.176335600043
0.0876481996832	<Door_Lock-Light_Bulb-Phone-Shades/Blinds-Smart_TV-Speaker,lock-colorValue-notification-contact-switch-volume,locked-fixed_value-notify-opened-on-fixed_value> </s>
0.047820597703	<Door_Lock-Light_Bulb-Phone-Shades/Blinds-Smart_TV-Speaker,lock-colorValue-notification-contact-switch-volume,locked-fixed_value-notify-opened-on-fixed_value> <Security_Alarm-null,alarm-locationMode,siren_strobe-away>	0.451718627592
0.0488551105107	<Door_Lock-Light_Bulb-Phone-Shades/Blinds-Smart_TV-Speaker,lock-colorValue-notification-contact-switch-volume,locked-fixed_value-notify-opened-on-fixed_value> <Weather_Station,cold,true>	0.451718627592
0.0566137600667	<Door_Lock-Light_Bulb-Phone-Shades/Blinds-Smart_TV-Speaker,lock-colorValue-notification-contact-switch-volume,locked-fixed_value-notify-opened-on-fixed_value> <null,locationMode,night>	0.587785678222
0.0762688152208	<Door_Lock-Light_Bulb-Phone-Shades/Blinds-Smart_TV-Speaker,lock-colorValue-notification-contact-switch-volume,locked-fixed_value-notify-opened-on-fixed_value> <null,time,morning>	0.451718627592
0.061329298903	<Door_Lock-Lighting_Remote-Robot_Vacuum-Thermostat,lock-switch-switch-thermostat,locked-off-on-auto> <Beacon_Device,presence,not_present>	0.117557136818
0.0644327993304	<Door_Lock-Lighting_Remote-Robot_Vacuum-Thermostat,lock-switch-switch-thermostat,locked-off-on-auto> <Beacon_Device,presence,present>	0.220419493452
0.0809845176792	<Door_Lock-Lighting_Remote-Robot_Vacuum-Thermostat,lock-switch-switch-thermostat,locked-off-on-auto> <null,locationMode,away>	0.117557136818
0.0877085638744	<Door_Lock-Lighting_Remote-Robot_Vacuum-Thermostat,lock-switch-switch-thermostat,locked-off-on-auto> <null,time,morning>	0.0979643361831
0.0800217417533	<Door_Lock-Phone-Shades/Blinds,lock-notification-contact,locked-notify-closed> </s>
0.0412286391397	<Door_Lock-Phone-Shades/Blinds,lock-notification-contact,locked-notify-closed> <Weather_Station,cold,true>	0.468050808748
0.0443320689475	<Door_Lock-Phone-Shades/Blinds,lock-notification-contact,locked-notify-closed> <Weather_Station,rain,true>	0.352671203608
0.0489872432178	<Door_Lock-Phone-Shades/Blinds,lock-notification-contact,locked-notify-closed> <null,locationMode,night>	0.160304974735
0.0686424853976	<Door_Lock-Phone-Shades/Blinds,lock-notification-contact,locked-notify-closed> <null,time,morning>	0.451718627592
0.0401941639829	<Door_Lock-Phone-Shades/Blinds,lock-notification-contact,locked-notify-closed> <null-null,locationMode-time,vacation-morning>	0.451718627592
0.85981496559	<Door_Lock-Presence_Sensor-null,lock-presence-time,unlocked-not_present-night> <Door_Lock,lock,locked>	0.322588588312
0.85981496559	<Door_Lock-null,lock-locationMode,unlocked-away> <Door_Lock,lock,locked>	0.204772201783
0.836451953931	<Door_Lock-null,lock-time,unlocked-night> <Door_Lock,lock,locked>	0.246049790733
0.716234109919	<Door_Sensor,contact,opened> <Light_Bulb,switch,on>	0.0871988987125
0.145843809586	<Door_Sensor,contact,opened> <Phone,notification,notify>	0.238495945331
0.216045885611	<Door_Sensor-null,contact-locationMode,opened-away> <Air_Conditioner,thermostat,off>	0.0386255787701
0.645371822792	<Door_Sensor-null,contact-locationMode,opened-away> <Security_Alarm,alarm,siren_strobe>	0.117901410294
0.673784475051	<Door_Sensor-null,contact-locationMode,opened-vacation> <Phone-Security_Alarm,notification-alarm,notify-siren_strobe>	0.461051033626
0.877002840515	<Door_Sensor-null,contact-time,opened-morning> <Car_Automation-Garage_Door_Opener,switch-contact,on-opened>	0.0856747804142
0.672010408935	<Door_Sensor-null-null,contact-locationMode-time,opened-away-evening> <Air_Conditioner-Light_Bulb,thermostat-switch,auto-on>	0.0516679225618
0.265358497819	<Doorbell,button,pushed> <Phone,notification,notify>	0.230153190669
0.632736663369	<Doorbell,button,pushed> <Security_Camera,switch,on>	0.0767342053542
0.805723443218	<Dust_Detector,dust,greater> <Phone,notification,notify>	0.214432693097
0.110832466942	<Electric_Blanket,switch,on> </s>
0.0133193183721	<Electric_Blanket,switch,on> <Air_Purifier,airQuality,greater>	0.220419493452
0.0589706615708	<Electric_Blanket,switch,on> <Air_Purifier,airQuality,lesser>	0.0440838991306
0.0120851765691	<Electric_Blanket,switch,on> <Door_Sensor-null,contact-time,opened-morning>	0.0881677991414
0.0157876321925	<Electric_Blanket,switch,on> <Doorbell,button,pushed>	0.176335600043
0.0161989923382	<Electric_Blanket,switch,on> <Gas_Sensor,odorLevel,greater>	0.587785678222
0.0129079418426	<Electric_Blanket,switch,on> <Gas_Sensor,odorLevel,lesser>	0.451718627592
0.0161989923382	<Electric_Blanket,switch,on> <Glass_Break_Detector,shock,detected>	0.468050808748
0.0145534849128	<Electric_Blanket,switch,on> <Humidity_Sensor,humidity,greater>	0.1356428793
0.0133193183721	<Electric_Blanket,switch,on> <Pulse_Monitor,pulse,greater>	0.451718627592
0.0149648373177	<Electric_Blanket,switch,on> <Security_Alarm,alarm,siren_strobe>	0.293892836177
0.0174331553399	<Electric_Blanket,switch,on> <Sleep_Monitor,sleeping,detected>	0.0608053790312
0.0112624272848	<Electric_Blanket,switch,on> <Sleep_Monitor,sleeping,not_detected>	0.587785678222
0.0120851765691	<Electric_Blanket,switch,on> <Smoke_Detector,battery,lesser>	0.468050808748
0.0207242107455	<Electric_Blanket,switch,on> <Temperature_Sensor,temperature,greater>	0.0766676232444
0.0593820245231	<Electric_Blanket,switch,on> <Temperature_Sensor,temperature,lesser>	0.182416030104
0.0145534849128	<Electric_Blanket,switch,on> <Temperature_Sensor-null,temperature-time,lesser-night>	0.103726804777
0.0157876321925	<Electric_Blanket,switch,on> <null,locationMode,home>	0.451718627592
0.0330656450949	<Electric_Blanket,switch,on> <null,time,morning>	0.440838991306
0.0960227191363	<Electric_Blanket,switch,on> <null,time,night>	0.155701572957
0.838102237302	<Energy_Meter,energy,greater> <Phone,notification,notify>	0.326310463398
0.156286332534	<External_API,news,notify> </s>
0.125769113573	<External_API,news,notify> <null,time,evening>	0.0551048722627
0.0778092089378	<External_API,traffic,notify> <External_API-null,traffic-time,heavy-morning>	0.110209745626
0.0876368986353	<External_API,traffic,notify> <null,time,evening>	0.251908023272
0.10677461152	<External_API,traffic,notify> <null,time,morning>	0.1356428793
0.672010408935	<External_API-null,traffic-time,heavy-morning> <External_API,traffic,notify>	0.146946416621
0.0800217417533	<Fan,switch,on> </s>
0.0422631633126	<Fan,switch,on> <Dishwasher,weight,greater>	0.0653094460317
0.0412286391397	<Fan,switch,on> <Door_Lock-null,lock-time,unlocked-night>	0.0928081252733
0.0531252516156	<Fan,switch,on> <Temperature_Sensor,temperature,greater>	0.587785678222
0.0686424853976	<Fan,switch,on> <null,time,morning>	0.293892836177
0.0614010785678	<Fan,switch,on> <null,time,night>	0.0629770045604
0.136985626405	<Garage_Door_Opener,contact,closed> </s>
0.0219206788773	<Garage_Door_Opener,contact,closed> <Car_Automation,presence,present>	0.103726804777
0.0209669857486	<Garage_Door_Opener,contact,closed> <Clothes_Dryer,completion,true>	0.468050808748
0.0223975234518	<Garage_Door_Opener,contact,closed> <Door_Lock-null,lock-locationMode,unlocked-away>	0.587785678222
0.0219206788773	<Garage_Door_Opener,contact,closed> <Garage_Door_Opener,signalStrength,lesser>	0.352671203608
0.0219206788773	<Garage_Door_Opener,contact,closed> <Garage_Door_Opener-null,contact-locationMode,opened-away>	0.220419493452
0.0223975234518	<Garage_Door_Opener,contact,closed> <Illuminance_Sensor,illuminance,lesser>	0.220419493452
0.0266891043684	<Garage_Door_Opener,contact,closed> <Smoke_Detector,smoke,detected>	0.587785678222
0.0352722366813	<Garage_Door_Opener,contact,closed> <Temperature_Sensor,temperature,lesser>	0.293892836177
0.0219206788773	<Garage_Door_Opener,contact,closed> <Temperature_Sensor-null,temperature-time,greater-night>	0.468050808748
0.0257354045754	<Garage_Door_Opener,contact,closed> <Temperature_Sensor-null,temperature-time,lesser-night>	0.468050808748
0.153887732334	<Garage_Door_Opener,contact,opened> </s>
0.0156339241287	<Garage_Door_Opener,contact,opened> <Beacon_Device-Light_Bulb,presence-switch,not_present-on>	0.220419493452
0.0160702265769	<Garage_Door_Opener,contact,opened> <Beacon_Device-Light_Bulb,presence-switch,present-off>	0.176335600043
0.0156339241287	<Garage_Door_Opener,contact,opened> <Button-Car_Automation,button-presence,pushed-present>	0.103726804777
0.0147613473581	<Garage_Door_Opener,contact,opened> <CO_Detector-Gas_Sensor,carbonMonoxide-odorLevel,detected-greater>	0.451718627592
0.0160702265769	<Garage_Door_Opener,contact,opened> <Car_Automation,presence,present>	0.587785678222
0.0160702265769	<Garage_Door_Opener,contact,opened> <Garage_Door_Opener,signalStrength,lesser>	0.0587785678222
0.0213057094417	<Garage_Door_Opener,contact,opened> <Gas_Sensor,odorLevel,greater>	0.451718627592
0.0165065001433	<Garage_Door_Opener,contact,opened> <Illuminance_Sensor,illuminance,lesser>	0.293892836177
0.079465020543	<Garage_Door_Opener,contact,opened> <Motion_Sensor,motion,detected>	0.195928674322
0.0186879644811	<Garage_Door_Opener,contact,opened> <Presence_Sensor,presence,present>	0.1356428793
0.02828635581	<Garage_Door_Opener,contact,opened> <Temperature_Sensor,temperature,lesser>	0.468050808748
0.0186879644811	<Garage_Door_Opener,contact,opened> <Weather_Station,rain,true>	0.352671203608
0.0335218516662	<Garage_Door_Opener,contact,opened> <null,locationMode,away>	0.440838991306
0.836199685744	<Garage_Door_Opener,signalStrength,lesser> <Garage_Door_Opener,contact,closed>	0.251908023272
0.836199685744	<Garage_Door_Opener-null,contact-locationMode,opened-away> <Garage_Door_Opener,contact,closed>	0.404918854896
0.057142337246	<Garden_Sprinkler,switch,on> </s>
0.0178320387821	<Garden_Sprinkler,switch,on> <CO_Detector-null,carbonMonoxide-locationMode,detected-not_vacation>	0.352671203608
0.0183492788247	<Garden_Sprinkler,switch,on> <CO_Detector-null,carbonMonoxide-locationMode,detected-vacation>	0.587785678222
0.0219699465328	<Garden_Sprinkler,switch,on> <Door_Sensor-null,contact-locationMode,opened-away>	0.0298873906391
0.0167975522242	<Garden_Sprinkler,switch,on> <Door_Sensor-null,contact-locationMode,opened-vacation>	0.587785678222
0.0173147808845	<Garden_Sprinkler,switch,on> <Gas_Sensor-null,odorLevel-locationMode,greater-not_vacation>	0.451718627592
0.0167975522242	<Garden_Sprinkler,switch,on> <Glass_Break_Detector-null,shock-locationMode,detected-vacation>	0.451718627592
0.0199010045959	<Garden_Sprinkler,switch,on> <Temperature_Sensor-null,temperature-locationMode,greater-not_vacation>	0.0839693903398
0.0188665286747	<Garden_Sprinkler,switch,on> <Temperature_Sensor-null,temperature-locationMode,lesser-not_vacation>	0.0734732075771
0.0173147808845	<Garden_Sprinkler,switch,on> <Water_Leak_Detector-null,water-locationMode,wet-not_vacation>	0.451718627592
0.0178320387821	<Garden_Sprinkler,switch,on> <Water_Leak_Detector-null,water-locationMode,wet-vacation>	0.468050808748
0.0204182256938	<Garden_Sprinkler,switch,on> <Weather_Station-null,rain-time,false-night>	0.0383338112395
0.0204182256938	<Garden_Sprinkler,switch,on> <null,locationMode,vacation>	0.352671203608
0.0266251461273	<Garden_Sprinkler,switch,on> <null,time,evening>	0.352671203608
0.0457630540612	<Garden_Sprinkler,switch,on> <null,time,morning>	0.195928674322
0.945851593832	<Gas_Sensor,odorLevel,greater> <Security_Alarm,alarm,siren_strobe>	0.365180854073
0.901602277308	<Gas_Sensor,odorLevel,lesser> <Security_Alarm,alarm,off>	0.425870933831
0.755337419105	<Gas_Sensor-null,odorLevel-locationMode,greater-not_vacation> <Phone-Security_Alarm,notification-alarm,notify-siren_strobe>	0.276884089028
0.86123168642	<Gas_Sensor-null,odorLevel-locationMode,greater-vacation> <Phone,notification,notify>	0.447834966665
0.152078913104	<Gas_Stove,switch,off> </s>
0.0367429481563	<Gas_Stove,switch,off> <Air_Purifier,airQuality,lesser>	0.451718627592
0.0279170162912	<Gas_Stove,switch,off> <Door_Sensor,contact,opened>	0.352671203608
0.0249750289319	<Gas_Stove,switch,off> <Gas_Stove-null,switch-timer,on-completed>	0.251908023272
0.0283372694657	<Gas_Stove,switch,off> <Humidity_Sensor,humidity,lesser>	0.0801524865675
0.0422065641891	<Gas_Stove,switch,off> <null,locationMode,away>	0.31271448621
0.0476702028527	<Gas_Stove,switch,off> <null,time,morning>	0.352671203608
0.136948727112	<Gas_Stove,switch,off> <null,time,night>	0.539892133962
0.803441018078	<Gas_Stove-null,switch-timer,on-completed> <Gas_Stove,switch,off>	0.204859448867
0.228332641032	<Glass_Break_Detector,shock,detected> <Security_Alarm,alarm,siren>	0.267115444828
0.13841399381	<Glass_Break_Detector,shock,detected> <Security_Alarm,alarm,siren_strobe>	0.464784889096
0.501150306148	<Glass_Break_Detector,shock,detected> <Security_Camera,switch,on>	0.345898755914
0.860193190004	<Glass_Break_Detector-null,shock-locationMode,detected-away> <Phone-Security_Alarm,notification-alarm,notify-siren_strobe>	0.223270322659
0.837552424236	<Glass_Break_Detector-null,shock-locationMode,detected-night> <Security_Alarm,alarm,siren_strobe>	0.273937192188
0.673784475051	<Glass_Break_Detector-null,shock-locationMode,detected-vacation> <Phone-Security_Alarm,notification-alarm,notify-siren_strobe>	0.462606786887
0.0704886186699	<Heater,switch,off> </s>
0.0316956016485	<Heater,switch,off> <Air_Conditioner-Temperature_Sensor,thermostat-temperature,auto-greater>	0.110209745626
0.0456610611341	<Heater,switch,off> <Air_Purifier,airQuality,lesser>	0.0284412054792
0.035316283952	<Heater,switch,off> <Moisture_Sensor,water,dry>	0.0503816051574
0.0399714589308	<Heater,switch,off> <Moisture_Sensor,water,wet>	0.0223209667228
0.0316956016485	<Heater,switch,off> <Refrigerator,temperature,greater>	0.160304974735
0.0591093250077	<Heater,switch,off> <null,time,morning>	0.117367809721
0.0518679400253	<Heater,switch,off> <null,time,night>	0.451718627592
0.123400522903	<Heater,switch,on> </s>
0.0192314929484	<Heater,switch,on> <Air_Conditioner-Temperature_Sensor,thermostat-temperature,auto-greater>	0.0928081252733
0.0322620529763	<Heater,switch,on> <Air_Purifier,airQuality,lesser>	0.0284412054792
0.0182662753494	<Heater,switch,on> <Clothes_Dryer,completion,true>	0.587785678222
0.0197141020342	<Heater,switch,on> <Door_Lock-null,lock-locationMode,unlocked-away>	0.451718627592
0.0192314929484	<Heater,switch,on> <Garage_Door_Opener-null,contact-locationMode,opened-away>	0.468050808748
0.0226097624789	<Heater,switch,on> <Moisture_Sensor,water,dry>	0.0476582400019
0.026953303402	<Heater,switch,on> <Moisture_Sensor,water,wet>	0.0568824115264
0.0192314929484	<Heater,switch,on> <Refrigerator,temperature,greater>	0.146946416621
0.0192314929484	<Heater,switch,on> <Temperature_Sensor-null,temperature-time,greater-night>	0.451718627592
0.0230923961919	<Heater,switch,on> <Temperature_Sensor-null,temperature-time,lesser-night>	0.160304974735
0.0448099026083	<Heater,switch,on> <null,time,morning>	0.220419493452
0.0380533591476	<Heater,switch,on> <null,time,night>	0.468050808748
0.132554659971	<Humidifier,switch,on> </s>
0.0257951465753	<Humidifier,switch,on> <Air_Purifier,airQuality,lesser>	0.103726804777
0.0131473129283	<Humidifier,switch,on> <Blood_Pressure_Monitor,pressure,lesser>	0.352671203608
0.0163092503771	<Humidifier,switch,on> <Door_Sensor,contact,opened>	0.160304974735
0.0131473129283	<Humidifier,switch,on> <Gas_Stove-null,switch-timer,on-completed>	0.0839693903398
0.0172127000197	<Humidifier,switch,on> <Humidity_Sensor,humidity,greater>	0.195928674322
0.0167609642593	<Humidifier,switch,on> <Humidity_Sensor,humidity,lesser>	0.0161775965341
0.0154058618832	<Humidifier,switch,on> <Humidity_Sensor-Temperature_Sensor,humidity-temperature,greater-greater>	0.1356428793
0.0131473129283	<Humidifier,switch,on> <Illuminance_Sensor-null,illuminance-time,lesser-night>	0.220419493452
0.0167609642593	<Humidifier,switch,on> <Moisture_Sensor,water,dry>	0.0928081252733
0.0212780585702	<Humidifier,switch,on> <Motion_Sensor,motion,detected>	0.195928674322
0.0131473129283	<Humidifier,switch,on> <Motion_Sensor-Security_Camera,motion-image,detected-take>	0.0464040621734
0.0131473129283	<Humidifier,switch,on> <Refrigerator-null,contact-time,opened-evening>	0.195928674322
0.0203746426309	<Humidifier,switch,on> <Sleep_Monitor,sleeping,detected>	0.251908023272
0.0239883291902	<Humidifier,switch,on> <Temperature_Sensor,temperature,greater>	0.138442043132
0.0316673702646	<Humidifier,switch,on> <null,locationMode,away>	0.104695496305
0.0375396310553	<Humidifier,switch,on> <null,time,morning>	0.146946416621
0.0765311078252	<Humidifier,switch,on> <null,time,night>	0.14106848426
0.528064533665	<Humidity_Sensor,humidity,greater> <Air_Conditioner,thermostat,auto>	0.173654483249
0.211649379707	<Humidity_Sensor,humidity,greater> <Humidifier,switch,on>	0.168876025775
0.106171022517	<Humidity_Sensor,humidity,greater> <Smart_Mirror,switch,off>	0.0592724665173
0.924415034197	<Humidity_Sensor,humidity,lesser> <Humidifier,switch,on>	0.074771311792
0.902135971305	<Humidity_Sensor-Temperature_Sensor,humidity-temperature,greater-greater> <Air_Conditioner,thermostat,auto>	0.124523408546
0.837222709542	<Illuminance_Sensor,illuminance,greater> <Light_Bulb,switch,off>	0.217119084959
0.860193190004	<Illuminance_Sensor,illuminance,lesser> <Light_Bulb,switch,on>	0.177933204386
0.87766948707	<Illuminance_Sensor-Motion_Sensor,illuminance-motion,lesser-detected> <Light_Bulb,switch,on>	0.202039367384
0.803609384926	<Illuminance_Sensor-null,illuminance-time,lesser-night> <Light_Bulb,colorValue,fixed_value>	0.0742465024425
0.878577344284	<Induction_Cooktop-null,switch-locationMode,on-away> <Phone,notification,notify>	0.318453480633
0.108075188081	<Light_Bulb,colorValue,fixed_value> </s>
0.0349599658717	<Light_Bulb,colorValue,fixed_value> <Air_Purifier,airQuality,greater>	0.117557136818
0.0427622944865	<Light_Bulb,colorValue,fixed_value> <Air_Purifier,airQuality,lesser>	0.125954010378
0.00778929227444	<Light_Bulb,colorValue,fixed_value> <Blood_Pressure_Monitor,pressure,lesser>	0.468050808748
0.00778929227444	<Light_Bulb,colorValue,fixed_value> <Button-Car_Automation,button-presence,pushed-present>	0.0766676232444
0.00707999579906	<Light_Bulb,colorValue,fixed_value> <CO_Detector-Gas_Sensor,carbonMonoxide-odorLevel,detected-greater>	0.451718627592
0.0374425139269	<Light_Bulb,colorValue,fixed_value> <Gas_Sensor,odorLevel,greater>	0.440838991306
0.0346053303925	<Light_Bulb,colorValue,fixed_value> <Gas_Sensor,odorLevel,lesser>	0.293892836177
0.00778929227444	<Light_Bulb,colorValue,fixed_value> <Gas_Stove-null,switch-timer,on-completed>	0.251908023272
0.00849859238841	<Light_Bulb,colorValue,fixed_value> <Glass_Break_Detector-null,shock-locationMode,detected-away>	0.451718627592
0.00814394815032	<Light_Bulb,colorValue,fixed_value> <Glass_Break_Detector-null,shock-locationMode,detected-night>	0.251908023272
0.0579975970106	<Light_Bulb,colorValue,fixed_value> <Humidity_Sensor,humidity,greater>	0.146946416621
0.0106265184356	<Light_Bulb,colorValue,fixed_value> <Humidity_Sensor,humidity,lesser>	0.103726804777
0.00778929227444	<Light_Bulb,colorValue,fixed_value> <Illuminance_Sensor-null,illuminance-time,lesser-night>	0.0430086687482
0.0141730395817	<Light_Bulb,colorValue,fixed_value> <Motion_Sensor,motion,detected>	0.110209745626
0.00778929227444	<Light_Bulb,colorValue,fixed_value> <Smoke_Detector-Temperature_Sensor,smoke-temperature,greater-greater>	0.451718627592
0.0413436675716	<Light_Bulb,colorValue,fixed_value> <Temperature_Sensor,temperature,greater>	0.123966973908
0.0431169468021	<Light_Bulb,colorValue,fixed_value> <Temperature_Sensor,temperature,lesser>	0.117557136818
0.0360239225301	<Light_Bulb,colorValue,fixed_value> <Temperature_Sensor-null,temperature-time,lesser-night>	0.146946416621
0.0102718578344	<Light_Bulb,colorValue,fixed_value> <Weather_Station,rain,true>	0.0352671203608
0.0223300656556	<Light_Bulb,colorValue,fixed_value> <null,locationMode,away>	0.220419493452
0.0134637487941	<Light_Bulb,colorValue,fixed_value> <null,locationMode,night>	0.0979643361831
0.0138184076359	<Light_Bulb,colorValue,fixed_value> <null,time,evening>	0.0705342414258
0.0269405216051	<Light_Bulb,colorValue,fixed_value> <null,time,morning>	0.468050808748
0.047018091846	<Light_Bulb,colorValue,fixed_value> <null,time,night>	0.176335600043
0.112040232145	<Light_Bulb,switch,off> </s>
0.00633928095504	<Light_Bulb,switch,off> <Air_Conditioner-Temperature_Sensor,thermostat-temperature,auto-lesser>	0.0476582400019
0.0049319878723	<Light_Bulb,switch,off> <Air_Conditioner-null,thermostat-time,auto-morning>	0.103726804777
0.0056356238708	<Light_Bulb,switch,off> <Air_Conditioner-null,thermostat-time,auto-night>	0.451718627592
0.00528380765832	<Light_Bulb,switch,off> <Air_Conditioner-null,thermostat-time,off-evening>	0.160304974735
0.00704292396825	<Light_Bulb,switch,off> <Air_Purifier,airQuality,greater>	0.117557136818
0.0534861083781	<Light_Bulb,switch,off> <Air_Purifier,airQuality,lesser>	0.0705342414258
0.0049319878723	<Light_Bulb,switch,off> <Beacon_Device-Light_Bulb,presence-switch,not_present-on>	0.146946416621
0.00528380765832	<Light_Bulb,switch,off> <Beacon_Device-Light_Bulb,presence-switch,present-off>	0.251908023272
0.0049319878723	<Light_Bulb,switch,off> <Bread_Maker-null,switch-time,off-morning>	0.146946416621
0.00669109197987	<Light_Bulb,switch,off> <Button,button,pushed>	0.100763211321
0.00528380765832	<Light_Bulb,switch,off> <Car_Automation,presence,present>	0.160304974735
0.0056356238708	<Light_Bulb,switch,off> <Coffee_Maker-null,switch-time,off-morning>	0.1356428793
0.00598745138237	<Light_Bulb,switch,off> <Contact_Sensor,contact,opened>	0.0568824115264
0.0206117563473	<Light_Bulb,switch,off> <Door_Sensor,contact,opened>	0.0629770045604
0.00774656197994	<Light_Bulb,switch,off> <Door_Sensor-null,contact-locationMode,opened-away>	0.110209745626
0.00528380765832	<Light_Bulb,switch,off> <Garage_Door_Opener,signalStrength,lesser>	0.587785678222
0.00950567583961	<Light_Bulb,switch,off> <Gas_Sensor,odorLevel,greater>	0.352671203608
0.00669109197987	<Light_Bulb,switch,off> <Gas_Sensor,odorLevel,lesser>	0.451718627592
0.00950567583961	<Light_Bulb,switch,off> <Glass_Break_Detector,shock,detected>	0.451718627592
0.00809837717877	<Light_Bulb,switch,off> <Humidity_Sensor,humidity,greater>	0.0881677991414
0.0209635582717	<Light_Bulb,switch,off> <Humidity_Sensor,humidity,lesser>	0.125954010378
0.0315053276092	<Light_Bulb,switch,off> <Humidity_Sensor-Temperature_Sensor,humidity-temperature,greater-greater>	0.0839693903398
0.00528380765832	<Light_Bulb,switch,off> <Illuminance_Sensor,illuminance,greater>	0.110209745626
0.019204455579	<Light_Bulb,switch,off> <Induction_Cooktop-null,switch-locationMode,on-away>	0.160304974735
0.00633928095504	<Light_Bulb,switch,off> <Light_Bulb-Motion_Sensor,switch-motion,off-detected>	0.110209745626
0.00633928095504	<Light_Bulb,switch,off> <Light_Bulb-Motion_Sensor,switch-motion,on-not_detected>	0.0352671203608
0.0360790422257	<Light_Bulb,switch,off> <Motion_Sensor,motion,detected>	0.100763211321
0.0185008209463	<Light_Bulb,switch,off> <Motion_Sensor,motion,not_detected>	0.176335600043
0.00739474155368	<Light_Bulb,switch,off> <Presence_Sensor,presence,present>	0.125954010378
0.00458016369541	<Light_Bulb,switch,off> <Pulse_Monitor,pulse,lesser>	0.451718627592
0.0056356238708	<Light_Bulb,switch,off> <Refrigerator,filterStatus,replace>	0.451718627592
0.023778146584	<Light_Bulb,switch,off> <Sleep_Monitor,sleeping,detected>	0.220419493452
0.00598745138237	<Light_Bulb,switch,off> <Smart_Assistant,voice,command>	0.121610759276
0.00598745138237	<Light_Bulb,switch,off> <Smoke_Detector,battery,lesser>	0.468050808748
0.00880203315285	<Light_Bulb,switch,off> <Smoke_Detector,smoke,detected>	0.468050808748
0.0133757147979	<Light_Bulb,switch,off> <Temperature_Sensor,temperature,greater>	0.160304974735
0.015134845781	<Light_Bulb,switch,off> <Temperature_Sensor,temperature,lesser>	0.587785678222
0.00528380765832	<Light_Bulb,switch,off> <Temperature_Sensor-null,temperature-locationMode,greater-away>	0.352671203608
0.00528380765832	<Light_Bulb,switch,off> <Temperature_Sensor-null,temperature-locationMode,greater-home>	0.352671203608
0.00528380765832	<Light_Bulb,switch,off> <Temperature_Sensor-null,temperature-locationMode,lesser-away>	0.220419493452
0.071948708064	<Light_Bulb,switch,off> <null,locationMode,away>	0.0801524865675
0.00915385439335	<Light_Bulb,switch,off> <null,locationMode,home>	0.125954010378
